{"learner":{"attributes":{"best_iteration":"999","best_ntree_limit":"1000","scikit_learn":"{\"use_label_encoder\": null, \"n_estimators\": 1000, \"objective\": \"binary:logistic\", \"max_depth\": 6, \"max_leaves\": 0, \"max_bin\": 256, \"grow_policy\": \"depthwise\", \"learning_rate\": 0.02, \"verbosity\": null, \"booster\": \"gbtree\", \"tree_method\": \"auto\", \"gamma\": 1, \"min_child_weight\": 0.5, \"max_delta_step\": 0, \"subsample\": 0.9, \"sampling_method\": \"uniform\", \"colsample_bytree\": 0.5, \"colsample_bylevel\": 0.5, \"colsample_bynode\": 1, \"reg_alpha\": 0, \"reg_lambda\": 1.0, \"scale_pos_weight\": 1, \"base_score\": 0.5, \"missing\": NaN, \"num_parallel_tree\": 1, \"random_state\": 0, \"n_jobs\": 0, \"monotone_constraints\": \"()\", \"interaction_constraints\": \"\", \"importance_type\": null, \"gpu_id\": -1, \"validate_parameters\": 1, \"predictor\": \"auto\", \"enable_categorical\": false, \"feature_types\": null, \"max_cat_to_onehot\": 4, \"max_cat_threshold\": 64, \"eval_metric\": null, \"early_stopping_rounds\": null, \"callbacks\": null, \"classes_\": [0, 1], \"n_classes_\": 2, \"_estimator_type\": \"classifier\"}"},"feature_names":["Age","Workclass","Education","Marital Status","Occupation","Relationship","Race","Sex","Capital Gain","Capital Loss","Hours per week","Country"],"feature_types":["int","int","int","int","int","int","int","int","int","int","int","int"],"gradient_booster":{"model":{"gbtree_model_param":{"num_parallel_tree":"1","num_trees":"1000","size_leaf_vector":"0"},"tree_info":[0,0,0,0,0,0,0,0,0,0,0,0,0,0,0,0,0,0,0,0,0,0,0,0,0,0,0,0,0,0,0,0,0,0,0,0,0,0,0,0,0,0,0,0,0,0,0,0,0,0,0,0,0,0,0,0,0,0,0,0,0,0,0,0,0,0,0,0,0,0,0,0,0,0,0,0,0,0,0,0,0,0,0,0,0,0,0,0,0,0,0,0,0,0,0,0,0,0,0,0,0,0,0,0,0,0,0,0,0,0,0,0,0,0,0,0,0,0,0,0,0,0,0,0,0,0,0,0,0,0,0,0,0,0,0,0,0,0,0,0,0,0,0,0,0,0,0,0,0,0,0,0,0,0,0,0,0,0,0,0,0,0,0,0,0,0,0,0,0,0,0,0,0,0,0,0,0,0,0,0,0,0,0,0,0,0,0,0,0,0,0,0,0,0,0,0,0,0,0,0,0,0,0,0,0,0,0,0,0,0,0,0,0,0,0,0,0,0,0,0,0,0,0,0,0,0,0,0,0,0,0,0,0,0,0,0,0,0,0,0,0,0,0,0,0,0,0,0,0,0,0,0,0,0,0,0,0,0,0,0,0,0,0,0,0,0,0,0,0,0,0,0,0,0,0,0,0,0,0,0,0,0,0,0,0,0,0,0,0,0,0,0,0,0,0,0,0,0,0,0,0,0,0,0,0,0,0,0,0,0,0,0,0,0,0,0,0,0,0,0,0,0,0,0,0,0,0,0,0,0,0,0,0,0,0,0,0,0,0,0,0,0,0,0,0,0,0,0,0,0,0,0,0,0,0,0,0,0,0,0,0,0,0,0,0,0,0,0,0,0,0,0,0,0,0,0,0,0,0,0,0,0,0,0,0,0,0,0,0,0,0,0,0,0,0,0,0,0,0,0,0,0,0,0,0,0,0,0,0,0,0,0,0,0,0,0,0,0,0,0,0,0,0,0,0,0,0,0,0,0,0,0,0,0,0,0,0,0,0,0,0,0,0,0,0,0,0,0,0,0,0,0,0,0,0,0,0,0,0,0,0,0,0,0,0,0,0,0,0,0,0,0,0,0,0,0,0,0,0,0,0,0,0,0,0,0,0,0,0,0,0,0,0,0,0,0,0,0,0,0,0,0,0,0,0,0,0,0,0,0,0,0,0,0,0,0,0,0,0,0,0,0,0,0,0,0,0,0,0,0,0,0,0,0,0,0,0,0,0,0,0,0,0,0,0,0,0,0,0,0,0,0,0,0,0,0,0,0,0,0,0,0,0,0,0,0,0,0,0,0,0,0,0,0,0,0,0,0,0,0,0,0,0,0,0,0,0,0,0,0,0,0,0,0,0,0,0,0,0,0,0,0,0,0,0,0,0,0,0,0,0,0,0,0,0,0,0,0,0,0,0,0,0,0,0,0,0,0,0,0,0,0,0,0,0,0,0,0,0,0,0,0,0,0,0,0,0,0,0,0,0,0,0,0,0,0,0,0,0,0,0,0,0,0,0,0,0,0,0,0,0,0,0,0,0,0,0,0,0,0,0,0,0,0,0,0,0,0,0,0,0,0,0,0,0,0,0,0,0,0,0,0,0,0,0,0,0,0,0,0,0,0,0,0,0,0,0,0,0,0,0,0,0,0,0,0,0,0,0,0,0,0,0,0,0,0,0,0,0,0,0,0,0,0,0,0,0,0,0,0,0,0,0,0,0,0,0,0,0,0,0,0,0,0,0,0,0,0,0,0,0,0,0,0,0,0,0,0,0,0,0,0,0,0,0,0,0,0,0,0,0,0,0,0,0,0,0,0,0,0,0,0,0,0,0,0,0,0,0,0,0,0,0,0,0,0,0,0,0,0,0,0,0,0,0,0,0,0,0,0,0,0,0,0,0,0,0,0,0,0,0,0,0,0,0,0,0,0,0,0,0,0,0,0,0,0,0,0,0,0,0,0,0,0,0,0,0,0,0,0,0,0,0,0,0,0,0,0,0,0,0,0,0,0,0,0,0,0,0,0,0,0,0,0,0,0,0,0,0,0,0,0,0,0,0,0,0,0,0,0,0,0,0,0,0,0,0,0,0,0,0,0,0,0,0,0,0,0,0,0,0,0,0,0,0,0,0,0,0,0,0,0,0,0,0,0,0,0,0,0,0,0,0,0,0,0,0,0,0,0,0,0,0,0,0,0,0,0,0,0,0,0,0,0,0,0,0,0,0,0,0,0,0,0,0,0,0,0,0,0,0,0,0,0,0,0,0,0,0,0],"trees":[{"base_weights":[-2.4052718E-1,1.1191336E0,-1.373494E0,3.3707866E-1,1.4736842E0,-1.5008E0,6.0465115E-1,-6.0465115E-1,6.1870503E-1,8.0851066E-1,1.5489614E0,-8.764045E-1,-1.7339246E0,3.030303E-1,1.1428572E0,3.3333334E-1,-8.5714287E-1,1E0,4.2424244E-1,1.2592592E0,1.6666667E-1,1.4067796E0,1.8095238E0,-1.0638298E0,-1.4634146E-1,-9.189189E-1,-1.7894737E0,-1.1764706E-1,6E-1,-2.857143E-1,6.666667E-1,1.8181819E-1,-1.1428572E0,-6.666667E-1,6.3529414E-1,1.6521739E0,-5E-1,9.3333334E-1,-7.692308E-1,1.675E0,8E-1,-1.1014493E0,2.857143E-1,-3.2258064E-1,2.857143E-1,-1.8585858E0,-4.6153846E-1,-1.2727273E0,1.2E0,-3.3333334E-1,1.3333334E0,-0E0,8.5714287E-1,-2.857143E-1,5E-1,-0E0,-1.6E0,-7.5E-1,-0E0,4.2857143E-1,9.0909094E-1,-6.666667E-1,-0E0,-1E0,-2.2222222E-1,-5.714286E-1,1.0285715E0,-3.3333334E-1,-1.1384616E0,-5.714286E-1,-9.52381E-2,-5.882353E-1,-1.8955613E0,-1E0,5E-1],"categories":[],"categories_nodes":[],"categories_segments":[],"categories_sizes":[],"default_left":[1,1,1,1,1,1,1,1,1,1,1,1,1,1,0,1,1,0,1,1,1,1,0,1,1,0,1,1,1,1,1,1,1,1,1,0,1,0,1,0,1,1,0,1,1,1,0,0,0,1,0,1,1,1,1,0,0,1,1,1,1,1,1,1,1,0,0,1,1,1,1,0,0,0,0],"id":0,"left_children":[1,3,5,7,9,11,13,15,17,19,21,23,25,27,-1,-1,31,-1,33,35,37,39,-1,41,-1,-1,45,47,49,-1,-1,-1,55,-1,-1,-1,-1,-1,-1,-1,65,-1,-1,-1,-1,71,-1,-1,-1,73,-1,-1,-1,-1,-1,-1,-1,-1,-1,-1,-1,-1,-1,-1,-1,-1,-1,-1,-1,-1,-1,-1,-1,-1,-1],"loss_changes":[4.6906384E2,3.790628E1,4.2711212E1,1.2176211E1,3.5045166E0,2.1224457E1,1.3987718E0,2.8316722E0,2.1523876E0,3.18952E0,5.7562256E-1,5.9333534E0,3.460144E0,1.1012478E0,0E0,8.095238E-1,2.8051953E0,0E0,6.121925E0,5.491948E0,5.023077E0,8.262291E0,0E0,2.104313E0,8.726537E-1,0E0,8.732819E0,7.995722E0,3.866667E0,0E0,2.8571427E-1,5.519481E-1,3.6571426E0,2.5E-1,8.131399E-1,0E0,1.6666669E-1,0E0,1.880343E-1,0E0,6.8571424E0,6.0133743E-1,0E0,3.8402468E-1,0E0,3.5351562E0,0E0,0E0,0E0,2.1666667E0,0E0,0E0,0E0,0E0,0E0,0E0,0E0,0E0,0E0,0E0,0E0,0E0,0E0,0E0,0E0,0E0,0E0,0E0,0E0,0E0,0E0,0E0,0E0,0E0,0E0],"parents":[2147483647,0,0,1,1,2,2,3,3,4,4,5,5,6,6,7,7,8,8,9,9,10,10,11,11,12,12,13,13,15,15,16,16,18,18,19,19,20,20,21,21,23,23,24,24,26,26,27,27,28,28,30,30,31,31,32,32,33,33,34,34,36,36,38,38,40,40,41,41,43,43,45,45,49,49],"right_children":[2,4,6,8,10,12,14,16,18,20,22,24,26,28,-1,-1,32,-1,34,36,38,40,-1,42,-1,-1,46,48,50,-1,-1,-1,56,-1,-1,-1,-1,-1,-1,-1,66,-1,-1,-1,-1,72,-1,-1,-1,74,-1,-1,-1,-1,-1,-1,-1,-1,-1,-1,-1,-1,-1,-1,-1,-1,-1,-1,-1,-1,-1,-1,-1,-1,-1],"split_conditions":[5E-1,3E0,4.5E0,8.5E0,5.5E0,2.5E0,5.5E0,2E0,2E0,2.5E0,4.5E0,1.5E0,5E-1,1.5E0,2.2857143E-2,6.666667E-3,1.5E0,2E-2,3.5E0,3.5E0,5.5E0,2.5E0,3.6190476E-2,1.5E0,-2.926829E-3,-1.8378377E-2,7.5E0,5.5E0,7.5E0,-5.7142857E-3,1.3333334E-2,3.6363637E-3,4.5E0,-1.3333334E-2,1.2705882E-2,3.3043478E-2,-1E-2,1.8666666E-2,-1.5384615E-2,3.3499997E-2,3.5E0,-2.2028985E-2,5.7142857E-3,-6.4516123E-3,5.7142857E-3,3.5E0,-9.230769E-3,-2.5454544E-2,2.4E-2,1.5E0,2.6666667E-2,-0E0,1.7142856E-2,-5.7142857E-3,1E-2,-0E0,-3.2E-2,-1.5E-2,-0E0,8.571428E-3,1.8181818E-2,-1.3333334E-2,-0E0,-2E-2,-4.4444446E-3,-1.1428571E-2,2.057143E-2,-6.666667E-3,-2.2769231E-2,-1.1428571E-2,-1.9047619E-3,-1.1764706E-2,-3.7911225E-2,-2E-2,1E-2],"split_indices":[3,4,2,11,11,2,2,2,2,2,2,10,10,3,0,2,4,0,2,11,4,2,0,2,4,0,4,4,4,2147483647,2147483647,11,11,10,10,0,2,0,2,0,2,11,0,2147483647,2147483647,11,0,0,0,10,0,2147483647,2147483647,2147483647,2147483647,0,0,2147483647,2147483647,2147483647,2147483647,2147483647,2147483647,2147483647,2147483647,0,0,2147483647,2147483647,2147483647,2147483647,0,0,0,0],"split_type":[0,0,0,0,0,0,0,0,0,0,0,0,0,0,0,0,0,0,0,0,0,0,0,0,0,0,0,0,0,0,0,0,0,0,0,0,0,0,0,0,0,0,0,0,0,0,0,0,0,0,0,0,0,0,0,0,0,0,0,0,0,0,0,0,0,0,0,0,0,0,0,0,0,0,0],"sum_hessian":[3.025E2,1.375E2,1.65E2,4.35E1,9.4E1,1.5525E2,9.75E0,9.75E0,3.375E1,1.075E1,8.325E1,4.35E1,1.1175E2,7.25E0,2.5E0,2E0,7.75E0,1E1,2.375E1,5.75E0,5E0,5.8E1,2.525E1,3.425E1,9.25E0,8.25E0,1.035E2,3.25E0,4E0,7.5E-1,1.25E0,1.75E0,6E0,3.5E0,2.025E1,4.75E0,1E0,2.75E0,2.25E0,3.9E1,1.9E1,3.35E1,7.5E-1,6.75E0,2.5E0,9.8E1,5.5E0,1.75E0,1.5E0,2E0,2E0,5E-1,7.5E-1,7.5E-1,1E0,2E0,4E0,3E0,5E-1,1.3E1,7.25E0,5E-1,5E-1,1E0,1.25E0,2.5E0,1.65E1,2E0,3.15E1,2.5E0,4.25E0,3.25E0,9.475E1,1E0,1E0],"tree_param":{"num_deleted":"20","num_feature":"12","num_nodes":"75","size_leaf_vector":"0"}},{"base_weights":[-2.1903923E-1,-5.082391E-1,1.129231E0,-8.1557715E-1,5.702841E-1,8.5223114E-1,1.458935E0,1.1683471E0,-1.1062533E0,1.8128387E0,2.2817342E-1,1.723053E0,5.4818016E-1,5.5700684E-1,1.5761662E0,2.75342E-1,-1.2430886E0,3.618099E-1,-1.2403651E0,1.1821529E0,4.1668922E-1,9.5690703E-1,1.4892884E-1,-5.21236E-1,5.5602235E-1,-1.1090943E0,-1.8288897E0,1.4356076E0,1.9577982E-1,1.0935173E0,3.243253E-1,1.3841451E0,2.8675872E-1,5.483687E-1,-8.868533E-2,4.9694097E-1,-9.252988E-1,1.026211E0,7.398474E-2,-2.746932E-1,-1.4152614E0,6.1084133E-1,-1.0475632E-1,5.7737388E-2,1.0651951E0],"categories":[],"categories_nodes":[],"categories_segments":[],"categories_sizes":[],"default_left":[1,1,1,1,1,1,0,1,1,0,1,0,1,1,0,1,1,1,0,0,1,1,1,1,1,1,0,0,1,0,1,0,0,1,1,0,0,0,0,0,0,0,0,0,0],"id":1,"left_children":[1,3,5,7,9,11,-1,13,15,-1,17,-1,19,21,-1,23,25,27,-1,-1,29,31,-1,35,37,39,-1,-1,41,-1,43,-1,-1,-1,-1,-1,-1,-1,-1,-1,-1,-1,-1,-1,-1],"loss_changes":[1.19083885E2,8.364616E1,3.6873932E0,1.1415167E2,2.3493393E1,7.460556E0,0E0,5.478615E0,3.2709534E1,0E0,9.327582E0,0E0,1.5910931E0,1.7747808E0,0E0,3.9224746E0,1.0213684E1,7.2500978E0,0E0,0E0,1.0360627E0,1.2492504E0,7.1295047E-1,2.413764E0,2.7567265E0,3.2686295E1,0E0,0E0,4.772189E0,0E0,4.0854807E0,0E0,0E0,0E0,0E0,0E0,0E0,0E0,0E0,0E0,0E0,0E0,0E0,0E0,0E0],"parents":[2147483647,0,0,1,1,2,2,3,3,4,4,5,5,7,7,8,8,10,10,12,12,13,13,15,15,16,16,17,17,20,20,21,21,22,22,23,23,24,24,25,25,28,28,30,30],"right_children":[2,4,6,8,10,12,-1,14,16,-1,18,-1,20,22,-1,24,26,28,-1,-1,30,32,-1,36,38,40,-1,-1,42,-1,44,-1,-1,-1,-1,-1,-1,-1,-1,-1,-1,-1,-1,-1,-1],"split_conditions":[7.5E0,1.5E0,1.5E0,1.5E0,5E-1,1.5E0,2.91787E-2,3E0,1.5E0,3.625677E-2,6.5E0,3.446106E-2,5E-1,1.5E0,3.152332E-2,1.5E0,6.5E0,1.5E0,-2.4807302E-2,2.3643056E-2,1.5E0,3.5E0,2.9785766E-3,2E0,5E-1,2.5E0,-3.6577795E-2,2.871215E-2,2.5E0,2.1870345E-2,4.5E0,2.7682902E-2,5.7351743E-3,1.0967374E-2,-1.7737065E-3,9.938819E-3,-1.8505976E-2,2.052422E-2,1.4796949E-3,-5.4938635E-3,-2.8305227E-2,1.2216826E-2,-2.0951263E-3,1.1547477E-3,2.1303901E-2],"split_indices":[4,10,10,8,8,8,0,4,9,0,4,0,9,4,0,4,4,9,0,0,6,2,10,2,9,2,0,0,2,0,2,0,0,2147483647,2147483647,0,0,0,0,0,0,0,0,0,0],"split_type":[0,0,0,0,0,0,0,0,0,0,0,0,0,0,0,0,0,0,0,0,0,0,0,0,0,0,0,0,0,0,0,0,0,0,0,0,0,0,0,0,0,0,0,0,0],"sum_hessian":[3.029344E2,2.4994498E2,5.2989395E1,1.9470522E2,5.5239773E1,3.0744406E1,2.2244987E1,2.4495945E1,1.7020926E2,1.0997522E1,4.424225E1,6.7487006E0,2.3995707E1,1.0748798E1,1.3747146E1,1.5247401E1,1.5496187E2,4.1242798E1,2.9994535E0,2.749387E0,2.1246319E1,4.749533E0,5.9992657E0,3.7494166E0,1.1497985E1,1.2846945E2,2.6492409E1,4.4989862E0,3.674381E1,1.2496755E0,1.9996643E1,2.2497952E0,2.499738E0,1.7498611E0,4.2494044E0,9.999169E-1,2.7494996E0,5.249055E0,6.2489295E0,3.499483E1,9.3474625E1,1.4998006E1,2.1745804E1,1.5497937E1,4.4987063E0],"tree_param":{"num_deleted":"2","num_feature":"12","num_nodes":"45","size_leaf_vector":"0"}},{"base_weights":[-1.9556364E-1,1.0925475E0,-1.278552E0,1.1940877E0,6.414831E-1,-8.666099E-1,-1.6294609E0,1.2860254E0,6.19238E-1,-6.089191E-1,9.2009366E-1,-1.0876498E0,-6.549281E-1,-1.762352E0,-1.3914742E0,5.6764424E-1,1.4544415E0,7.505151E-1,3.256066E-1,-1.4420146E-1,-9.8670757E-1,1.0900673E0,4.339963E-1,-8.161422E-1,-1.2964131E0,-2.6797328E-2,-1.3348588E0,-3.9023742E-1,-1.7941446E0,-1.5090121E0,-6.411565E-1,7.921789E-1,1.8190116E-1,1.9790381E-1,7.985677E-1,-4.034715E-1,2.080165E-1,6.1017454E-1,1.371979E0,-9.186077E-3,8.012075E-1,-7.523066E-3,-8.6065817E-1,-1.537501E0,-9.7029555E-1,-4.2846903E-1,3.770538E-1,-1.650986E0,-7.1261823E-1,-1.236476E0,-1.8548734E-1,-1.0438377E0,7.6676184E-1,-8.554916E-1,2.7906436E-1,2.9251677E-1,1.1918195E0,1.2202206E-1,-2.8506514E-1,1.0504639E0,-4.302163E-3,-4.6204546E-1,-9.502891E-1,-1.0777576E0,-3.2450035E-1,-8.5383844E-1,3.012966E-1,4.42225E-1,-2.6667643E-1,2.3208062E-1,-9.010225E-1,2.983316E-1,-3.4111068E-1],"categories":[],"categories_nodes":[],"categories_segments":[],"categories_sizes":[],"default_left":[1,1,1,1,1,1,1,1,1,1,1,1,1,1,1,1,0,1,1,1,0,1,1,1,1,1,1,0,0,0,1,0,1,1,1,1,0,1,0,1,1,1,1,1,1,1,1,0,1,0,1,0,0,0,0,0,0,1,1,1,1,1,1,1,1,0,0,1,1,0,0,1,1],"id":2,"left_children":[1,3,5,7,9,11,13,15,-1,19,21,23,25,27,29,31,-1,-1,-1,35,-1,37,39,-1,-1,45,47,-1,-1,-1,49,-1,51,-1,-1,53,-1,55,-1,-1,-1,-1,-1,-1,-1,65,-1,-1,69,-1,-1,-1,-1,-1,-1,-1,-1,-1,-1,-1,-1,-1,-1,-1,-1,-1,-1,-1,-1,-1,-1,-1,-1],"loss_changes":[4.33241E2,5.734604E0,2.2964447E1,5.2650757E0,1.0398518E1,3.0171432E0,3.9175415E-1,1.1024841E1,4.3954372E-1,8.667939E-1,1.4679756E0,1.0662193E0,1.842654E1,1.6534424E0,2.2932358E0,1.6091089E0,0E0,1.4719105E-1,0E0,4.2623505E-1,0E0,1.428215E0,1.2682767E0,6.77104E-1,4.0351868E-2,3.9721184E0,2.9027634E0,0E0,0E0,0E0,1.6007137E0,0E0,7.0699153E0,0E0,0E0,1.0098178E0,0E0,1.1290255E0,0E0,1.9765452E-1,8.575251E-1,0E0,2.036848E-1,0E0,4.132223E-1,4.0584226E0,6.3166237E-1,0E0,1.765737E0,0E0,4.780701E-1,0E0,0E0,0E0,0E0,0E0,0E0,0E0,0E0,0E0,0E0,0E0,0E0,0E0,0E0,0E0,0E0,0E0,0E0,0E0,0E0,0E0,0E0],"parents":[2147483647,0,0,1,1,2,2,3,3,4,4,5,5,6,6,7,7,8,8,9,9,10,10,11,11,12,12,13,13,14,14,15,15,17,17,19,19,21,21,22,22,23,23,24,24,25,25,26,26,30,30,32,32,35,35,37,37,39,39,40,40,42,42,44,44,45,45,46,46,48,48,50,50],"right_children":[2,4,6,8,10,12,14,16,-1,20,22,24,26,28,30,32,-1,-1,-1,36,-1,38,40,-1,-1,46,48,-1,-1,-1,50,-1,52,-1,-1,54,-1,56,-1,-1,-1,-1,-1,-1,-1,66,-1,-1,70,-1,-1,-1,-1,-1,-1,-1,-1,-1,-1,-1,-1,-1,-1,-1,-1,-1,-1,-1,-1,-1,-1,-1,-1],"split_conditions":[5E-1,5E-1,1.5E0,5.5E0,4E0,5E-1,3.5E0,8.5E0,1.238476E-2,1.5E0,1.5E0,1.5E0,1.5E0,2.5E0,5E-1,1.5E0,2.908883E-2,1.5010302E-2,6.512132E-3,2.5E0,-1.9734152E-2,5E-1,2.5E0,-1.6322844E-2,-2.592826E-2,5E-1,2.5E0,-7.804748E-3,-3.588289E-2,-3.0180242E-2,5E-1,1.5843578E-2,2.5E0,3.9580762E-3,1.5971353E-2,5E-1,4.1603297E-3,4.5E0,2.743958E-2,-1.8372154E-4,1.602415E-2,-1.5046132E-4,-1.7213164E-2,-3.075002E-2,-1.940591E-2,1.5E0,7.541076E-3,-3.3019718E-2,2.5E0,-2.4729518E-2,-3.7097468E-3,-2.0876752E-2,1.5335237E-2,-1.7109832E-2,5.581287E-3,5.850335E-3,2.3836391E-2,2.4404412E-3,-5.7013026E-3,2.1009278E-2,-8.604326E-5,-9.240909E-3,-1.9005781E-2,-2.1555152E-2,-6.490007E-3,-1.7076768E-2,6.025932E-3,8.8445E-3,-5.3335284E-3,4.6416125E-3,-1.802045E-2,5.9666317E-3,-6.8222135E-3],"split_indices":[3,5,5,1,5,7,5,11,0,0,0,0,0,11,7,0,0,2147483647,2147483647,5,0,0,0,11,0,0,0,0,0,0,0,0,0,2147483647,2147483647,0,0,1,0,1,1,2147483647,2147483647,2147483647,2147483647,3,1,0,1,0,3,0,0,0,0,0,0,2147483647,2147483647,2147483647,2147483647,2147483647,2147483647,2147483647,2147483647,0,0,2147483647,2147483647,0,0,2147483647,2147483647],"split_type":[0,0,0,0,0,0,0,0,0,0,0,0,0,0,0,0,0,0,0,0,0,0,0,0,0,0,0,0,0,0,0,0,0,0,0,0,0,0,0,0,0,0,0,0,0,0,0,0,0,0,0,0,0,0,0,0,0,0,0,0,0,0,0,0,0,0,0,0,0,0,0,0,0],"sum_hessian":[3.0856354E2,1.409309E2,1.6763264E2,1.1369049E2,2.7240396E1,7.870646E1,8.892619E1,9.6948105E1,1.674239E1,4.7476077E0,2.2492788E1,3.6477844E1,4.2228615E1,5.2952446E1,3.5973747E1,1.9241922E1,7.7706184E1,1.0494514E1,6.247876E0,2.7484446E0,1.999163E0,1.5744816E1,6.7479725E0,1.7990135E1,1.8487709E1,2.249073E1,1.9737883E1,1.4997638E0,5.1452682E1,3.0227432E1,5.746314E0,1.1496409E1,7.745514E0,1.2490261E0,9.245488E0,1.4992901E0,1.2491543E0,6.997512E0,8.747304E0,3.4994802E0,3.2484925E0,9.997091E-1,1.6990425E1,8.493894E0,9.993816E0,1.124523E1,1.12455015E1,1.1992064E1,7.745818E0,1.7484597E0,3.9978545E0,2.2484648E0,5.4970493E0,7.4951226E-1,7.4977785E-1,5.497848E0,1.499664E0,2.74951E0,7.499702E-1,2.2485914E0,9.999012E-1,4.2489924E0,1.2741433E1,7.9946065E0,1.9992096E0,6.9968524E0,4.2483773E0,1.0495923E1,7.4957883E-1,1.2493736E0,6.4964447E0,7.497959E-1,3.2480586E0],"tree_param":{"num_deleted":"20","num_feature":"12","num_nodes":"73","size_leaf_vector":"0"}},{"base_weights":[-1.9936211E-1,1.1415702E0,-1.0147432E0,3.1945565E-1,1.4809121E0,-1.1624668E0,2.9594857E-1,-1.1902808E-1,3.758949E-1,1.671313E0,1.2128392E0,6.746447E-1,-1.4179031E0,1.3201208E0,-2.1476299E-2,-4.1300446E-1,1.4376241E-1,5.755389E-1,-3.6411658E-1,-1.5782061E0,1.5702504E0,8.685364E-1,-5.702745E-1,-1.5685312E0,-1.1584179E0,-1.2744391E-1,5.4498297E-1,2.671629E-1,7.323138E-1,-7.617836E-1,2.7950466E-1,1.7210157E0,4.2436227E-1,-5.578467E-1,1.1184504E0,-1.7995425E-1,-8.577036E-1,-1.2393765E0,-1.7690964E0,-8.6219317E-1,-1.440283E0,2.2150435E-1,-5.909856E-1,9.90748E-1,-2.7587524E-1,4.393886E-2,6.2754804E-1,4.8142073E-1,1.4236383E0,-1.2137922E0,-1.7956632E-1,-1.8347064E-1,8.4733605E-1,2.0440388E-1,6.266363E-1,-8.9276874E-1,2.8719404E-1,-8.185208E-3,1.3695142E0,-1.5735934E0,-8.5580534E-1,1.2583213E-1,-1.0224197E0,-1.5771735E0,-1.0828505E-1,-5.008906E-1,3.7443495E-1,-7.707384E-1,4.7835037E-3],"categories":[],"categories_nodes":[],"categories_segments":[],"categories_sizes":[],"default_left":[1,1,1,1,1,1,1,1,1,0,1,1,1,0,1,1,1,1,1,0,1,1,1,1,1,1,1,1,1,1,1,0,1,1,1,1,1,1,0,1,1,1,1,0,0,1,1,0,0,0,0,0,0,1,1,0,0,0,0,0,0,0,0,0,0,0,0,1,1],"id":3,"left_children":[1,3,5,7,9,11,13,-1,17,-1,19,21,23,-1,25,-1,-1,27,29,-1,31,33,-1,37,39,41,43,-1,47,49,51,-1,-1,55,57,-1,-1,59,-1,61,63,65,-1,-1,-1,-1,-1,-1,-1,-1,-1,-1,-1,-1,-1,-1,-1,-1,-1,-1,-1,-1,-1,-1,-1,-1,-1,-1,-1],"loss_changes":[3.333906E2,3.1712982E1,3.7032898E1,9.104903E-1,2.127121E0,8.096559E1,6.527219E0,4.2624217E-1,4.8240643E0,0E0,3.9831844E1,5.682618E0,4.0462036E0,0E0,1.0445642E0,0E0,0E0,1.0122919E0,2.0681975E0,0E0,5.090973E0,7.3935747E0,2.3827553E-1,3.8867798E0,3.677765E0,2.4755297E0,1.2794018E0,7.7653E-1,2.0880747E0,1.0317807E0,1.0755407E0,0E0,1.05281055E-1,1.2465447E0,4.6761436E0,0E0,0E0,3.5512352E0,0E0,5.0709896E0,5.062397E0,1.1815238E0,6.9956636E-1,0E0,0E0,0E0,0E0,0E0,0E0,0E0,0E0,0E0,0E0,0E0,0E0,0E0,0E0,0E0,0E0,0E0,0E0,0E0,0E0,0E0,0E0,0E0,0E0,0E0,0E0],"parents":[2147483647,0,0,1,1,2,2,3,3,4,4,5,5,6,6,7,7,8,8,10,10,11,11,12,12,14,14,17,17,18,18,20,20,21,21,22,22,23,23,24,24,25,25,26,26,27,27,28,28,29,29,30,30,32,32,33,33,34,34,37,37,39,39,40,40,41,41,42,42],"right_children":[2,4,6,8,10,12,14,-1,18,-1,20,22,24,-1,26,-1,-1,28,30,-1,32,34,-1,38,40,42,44,-1,48,50,52,-1,-1,56,58,-1,-1,60,-1,62,64,66,-1,-1,-1,-1,-1,-1,-1,-1,-1,-1,-1,-1,-1,-1,-1,-1,-1,-1,-1,-1,-1,-1,-1,-1,-1,-1,-1],"split_conditions":[5E-1,3E0,7.5E0,1.5E0,6.5E0,5E-1,5E-1,-2.3805615E-3,4.5E0,3.342626E-2,7.5E0,6.5E0,1.5E0,2.6402416E-2,4.5E0,-8.260089E-3,2.8752482E-3,3E0,6.5E0,-3.156412E-2,5.5E0,4E0,-1.1405489E-2,1.5E0,1.5E0,1.5E0,1.5E0,5.3432574E-3,1.5E0,1.5E0,1.5E0,3.442031E-2,8.487245E-3,1.5E0,2.5E0,-3.599085E-3,-1.7154071E-2,3E0,-3.5381928E-2,2.5E0,1.5E0,3.5E0,-1.1819712E-2,1.9814959E-2,-5.5175046E-3,8.787772E-4,1.255096E-2,9.628414E-3,2.8472766E-2,-2.4275843E-2,-3.5913263E-3,-3.6694126E-3,1.694672E-2,4.088077E-3,1.2532726E-2,-1.7855374E-2,5.7438808E-3,-1.6370416E-4,2.7390284E-2,-3.1471867E-2,-1.7116107E-2,2.5166424E-3,-2.0448394E-2,-3.1543467E-2,-2.165701E-3,-1.0017812E-2,7.4886987E-3,-1.5414768E-2,9.5670075E-5],"split_indices":[5,4,4,6,4,3,3,4,1,0,4,4,3,0,1,2147483647,2147483647,1,1,0,1,5,1,5,5,5,3,10,10,10,4,0,10,10,6,2147483647,2147483647,4,0,6,10,6,10,0,0,2147483647,2147483647,0,0,0,0,0,0,2147483647,2147483647,0,0,0,0,0,0,0,0,0,0,0,0,2147483647,2147483647],"split_type":[0,0,0,0,0,0,0,0,0,0,0,0,0,0,0,0,0,0,0,0,0,0,0,0,0,0,0,0,0,0,0,0,0,0,0,0,0,0,0,0,0,0,0,0,0,0,0,0,0,0,0,0,0,0,0,0,0,0,0,0,0,0,0,0,0,0,0,0,0],"sum_hessian":[3.0286044E2,1.1437135E2,1.8848907E2,3.3983013E1,8.038834E1,1.6949858E2,1.8990501E1,3.7488377E0,3.0234175E1,4.394296E1,3.644538E1,2.049028E1,1.490083E2,3.7458053E0,1.5244696E1,1.499631E0,2.2492068E0,2.3985502E1,6.2486715E0,3.7495167E0,3.2695866E1,1.7990637E1,2.4996426E0,9.108802E1,5.7920273E1,1.349517E1,1.7495264E0,8.995495E0,1.4990007E1,3.7488327E0,2.4998388E0,2.8450684E1,4.245182E0,2.4984705E0,1.54921665E1,1.7496934E0,7.4994934E-1,3.7206528E1,5.3881493E1,3.0219799E1,2.7700474E1,7.9971585E0,5.4980106E0,9.9968433E-1,7.4984205E-1,6.2476177E0,2.7478778E0,1.2243143E1,2.7468638E0,1.4997305E0,2.249102E0,1.749938E0,7.499008E-1,2.9968522E0,1.2483301E0,1.7488531E0,7.4961746E-1,2.999494E0,1.2492672E1,1.82245E1,1.8982025E1,4.246809E0,2.597299E1,2.4952063E1,2.7484105E0,9.9968565E-1,6.9974732E0,3.9980502E0,1.4999603E0],"tree_param":{"num_deleted":"10","num_feature":"12","num_nodes":"69","size_leaf_vector":"0"}},{"base_weights":[-1.9407618E-1,1.0992074E0,-1.2866993E0,6.2924045E-1,1.1874374E0,-8.994656E-1,-1.6234204E0,1.2029053E0,2.5533438E-1,1.4944502E0,9.490952E-1,-1.0944701E0,7.80777E-1,-1.6729636E0,3.5921684E-1,-8.457087E-1,5.1718676E-1,1.0690863E0,1.5958666E0,-7.9332083E-1,1.1402032E0,-3.7847698E-1,-1.519538E0,4.6972492E-1,1.1348721E0,-1.7476522E0,-8.026089E-1,3.4546077E-2,5.040187E-1,3.0528447E-1,9.57491E-1,6.974726E-1,1.5825518E0,-7.342379E-1,1.532246E-1,-1.1429605E-1,9.2817485E-1,2.4269307E-2,-1.3592604E0,-1.4898257E-1,4.4312564E-1,-8.402968E-1,4.939344E-1,-4.8915857E-1,4.940915E-1,-3.7107897E-1,3.455377E-1],"categories":[],"categories_nodes":[],"categories_segments":[],"categories_sizes":[],"default_left":[1,1,1,1,1,1,1,0,1,1,1,1,1,1,1,0,1,1,1,0,1,1,0,1,0,0,1,1,1,1,1,0,0,1,1,0,0,1,0,1,1,0,0,0,0,1,1],"id":4,"left_children":[1,3,5,7,9,11,13,-1,15,-1,19,21,23,25,-1,-1,-1,-1,-1,-1,31,33,-1,35,-1,-1,37,-1,-1,-1,-1,-1,-1,41,43,-1,-1,-1,-1,-1,-1,-1,-1,-1,-1,-1,-1],"loss_changes":[4.4089825E2,5.1809998E0,2.0581635E1,4.9962997E0,7.307068E0,2.7351295E1,9.360565E0,0E0,5.1190224E0,4.669342E-1,2.41702E1,2.1604065E1,4.5742846E-1,4.2645264E0,1.2350151E-1,0E0,9.895475E-1,0E0,0E0,0E0,1.1307358E1,5.4995594E0,0E0,1.8447306E0,0E0,0E0,4.0555515E0,0E0,0E0,7.387196E-1,0E0,0E0,0E0,2.6600838E0,2.9226933E0,0E0,0E0,6.996088E-1,0E0,0E0,0E0,0E0,0E0,0E0,0E0,0E0,0E0],"parents":[2147483647,0,0,1,1,2,2,3,3,4,4,5,5,6,6,8,8,9,9,10,10,11,11,12,12,13,13,14,14,16,16,20,20,21,21,23,23,26,26,29,29,33,33,34,34,37,37],"right_children":[2,4,6,8,10,12,14,-1,16,-1,20,22,24,26,-1,-1,-1,-1,-1,-1,32,34,-1,36,-1,-1,38,-1,-1,-1,-1,-1,-1,42,44,-1,-1,-1,-1,-1,-1,-1,-1,-1,-1,-1,-1],"split_conditions":[5E-1,3.5E0,1.5E0,2.5E0,2.5E0,4.5E0,4.5E0,2.4058105E-2,3.5E0,2.9889004E-2,3.5E0,2.5E0,5.5E0,1.5E0,7.1843364E-3,-1.6914174E-2,1.0343735E-2,2.1381726E-2,3.191733E-2,-1.5866416E-2,4.5E0,1.5E0,-3.039076E-2,1.5E0,2.2697441E-2,-3.4953043E-2,2.5E0,6.909215E-4,1.0080374E-2,6.1056893E-3,1.914982E-2,1.3949451E-2,3.1651035E-2,1.5E0,5E-1,-2.285921E-3,1.8563496E-2,4.8538612E-4,-2.718521E-2,-2.9796513E-3,8.862512E-3,-1.6805936E-2,9.878688E-3,-9.783171E-3,9.88183E-3,-7.421579E-3,6.910754E-3],"split_indices":[3,6,5,2,2,2,2,0,2,2,2,2,2,10,10,0,2,2147483647,2147483647,0,2,3,0,3,0,0,2,2147483647,2147483647,2147483647,2147483647,0,0,2,2,0,0,3,0,2147483647,2147483647,0,0,0,0,2147483647,2147483647],"split_type":[0,0,0,0,0,0,0,0,0,0,0,0,0,0,0,0,0,0,0,0,0,0,0,0,0,0,0,0,0,0,0,0,0,0,0,0,0,0,0,0,0,0,0,0,0,0,0],"sum_hessian":[3.100132E2,1.4196742E2,1.6804579E2,2.3725052E1,1.1824236E2,7.986791E1,8.817788E1,8.486902E0,1.523815E1,4.93734E1,6.8868965E1,7.187492E1,7.992991E0,8.618055E1,1.9973326E0,2.4993036E0,1.2738847E1,1.1727411E1,3.764599E1,6.495497E0,6.2373466E1,2.7479046E1,4.4395878E1,5.49367E0,2.499321E0,7.844122E1,7.7393274E0,9.9806756E-1,9.992651E-1,9.743167E0,2.99568E0,3.2461086E1,2.991238E1,1.6235184E1,1.1243863E1,2.7460973E0,2.7475727E0,3.4986534E0,4.240674E0,2.2493658E0,7.4938006E0,1.5235349E1,9.998348E-1,3.7471335E0,7.49673E0,1.4989829E0,1.9996704E0],"tree_param":{"num_deleted":"10","num_feature":"12","num_nodes":"47","size_leaf_vector":"0"}},{"base_weights":[-1.9908908E-1,1.8579094E0,-4.8470655E-1,-1.144541E0,-6.897745E-2,-1.5465405E0,6.7373544E-1,9.1688126E-1,-1.2753556E0,-2.6097742E-1,-1.5816903E0,9.4143695E-1,1.8640831E-2,1.0414711E0,7.1481067E-1,-7.2821575E-1,-1.552814E0,1.8779203E-1,-8.169111E-1,6.513853E-1,1.3331568E0,2.2775935E-1,-4.2759416E-1,1.1790004E0,2.5240585E-1,8.4389555E-1,1.3605076E-1,-9.5473275E-2,-7.947627E-1,2.0146084E-1,6.9263566E-1,-6.2722415E-1,-1.096819E0],"categories":[],"categories_nodes":[],"categories_segments":[],"categories_sizes":[],"default_left":[1,0,1,1,1,1,1,1,1,1,0,1,1,1,1,1,0,0,0,1,1,1,1,0,0,0,0,0,1,1,1,1,1],"id":5,"left_children":[1,-1,3,5,7,9,11,13,15,17,-1,-1,-1,23,25,27,-1,-1,-1,-1,-1,-1,-1,-1,-1,-1,-1,-1,-1,-1,-1,-1,-1],"loss_changes":[1.8234747E2,0E0,7.452768E1,7.783583E1,2.0087485E2,3.4888153E0,3.4405174E0,1.5965271E0,1.0396164E1,1.0254987E0,0E0,7.197828E-1,7.2639084E-1,5.7070084E0,2.7729378E0,1.0792065E0,0E0,0E0,0E0,4.5810223E-2,0E0,0E0,0E0,0E0,0E0,0E0,0E0,0E0,5.6125927E-1,0E0,0E0,0E0,0E0],"parents":[2147483647,0,0,2,2,3,3,4,4,5,5,6,6,7,7,8,8,9,9,11,11,12,12,13,13,14,14,15,15,19,19,28,28],"right_children":[2,-1,4,6,8,10,12,14,16,18,-1,-1,-1,24,26,28,-1,-1,-1,-1,-1,-1,-1,-1,-1,-1,-1,-1,-1,-1,-1,-1,-1],"split_conditions":[5E-1,3.7158187E-2,5E-1,4.5E0,5E-1,1.5E0,1.5E0,1.5E0,1.5E0,3.5E0,-3.1633805E-2,1.8828738E-2,3.728166E-4,5.5E0,5.5E0,1.5E0,-3.105628E-2,3.7558405E-3,-1.6338222E-2,1.3027706E-2,2.6663136E-2,4.5551867E-3,-8.551883E-3,2.3580007E-2,5.048117E-3,1.687791E-2,2.7210151E-3,-1.9094654E-3,-1.5895253E-2,4.0292167E-3,1.3852713E-2,-1.2544483E-2,-2.1936381E-2],"split_indices":[8,0,7,5,5,8,0,0,0,5,0,1,1,1,1,1,0,0,0,2147483647,2147483647,2147483647,2147483647,0,0,0,0,0,5,2147483647,2147483647,2147483647,2147483647],"split_type":[0,0,0,0,0,0,0,0,0,0,0,0,0,0,0,0,0,0,0,0,0,0,0,0,0,0,0,0,0,0,0,0,0],"sum_hessian":[3.0783804E2,3.68612E1,2.7097687E2,1.04060936E2,1.6691592E2,8.5342224E1,1.871871E1,9.198514E1,7.493078E1,2.4955437E0,8.284668E1,1.29781475E1,5.7405624E0,5.433192E1,3.7653217E1,2.6432087E1,4.8498695E1,1.7472808E0,7.48263E-1,8.98674E0,3.9914072E0,4.2421618E0,1.4984009E0,4.5846912E1,8.485009E0,3.0412085E1,7.2411313E0,2.747067E0,2.3685019E1,1.2488775E0,7.7378626E0,1.7213755E1,6.471266E0],"tree_param":{"num_deleted":"8","num_feature":"12","num_nodes":"33","size_leaf_vector":"0"}},{"base_weights":[-1.9094539E-1,-5.3273475E-1,8.1034064E-1,-7.6009965E-1,9.2668074E-1,1.70911E-1,1.118513E0,-5.954285E-1,-1.6938617E0,6.3541E-2,1.3664029E0,5.911663E-1,-5.7778363E-3,-6.559296E-2,1.3764439E0,-1.0306687E0,4.024973E-2,2.8515607E-1,-2.7283428E-2,1.10325955E-1,8.2197076E-1,5.541947E-1,-8.994925E-2,-3.3298126E-1,5.6328803E-1,-6.952042E-1,-1.2539576E0,5.6889623E-1,-5.996751E-1,8.360353E-1,-1.6965376E-1,9.9648885E-2,-1.8324934E-1,6.2696254E-1,-3.9899194E-1,-4.1698942E-1,1.428571E0,-5.31546E-1,9.3243286E-2,3.3579922E-1,-1.0031319E0,-2.725119E-1,8.903069E-1,-2.0384732E-1,-7.651692E-1,-9.1640073E-1,-1.3570882E0,-2.2872941E-1,1.0793589E0,-1.3076642E0,1.5453336E-1,-9.5321596E-1,5.226725E-1,-2.7342218E-1,-9.221081E-2,3.349965E-1,-9.395836E-1,6.0297745E-1,-8.894494E-2],"categories":[],"categories_nodes":[],"categories_segments":[],"categories_sizes":[],"default_left":[1,1,1,1,1,1,1,1,0,1,0,1,1,1,0,1,1,1,1,1,1,0,1,1,1,1,1,1,1,0,0,1,1,0,0,0,0,1,1,0,0,0,0,0,0,1,1,0,0,0,0,0,0,1,1,0,0,0,0],"id":6,"left_children":[1,3,5,7,9,11,13,15,-1,17,-1,19,21,23,-1,25,27,29,31,33,35,-1,37,39,41,43,-1,47,49,-1,-1,51,-1,-1,-1,-1,-1,55,57,-1,-1,-1,-1,-1,-1,-1,-1,-1,-1,-1,-1,-1,-1,-1,-1,-1,-1,-1,-1],"loss_changes":[1.0629383E2,7.742618E1,1.5399033E1,2.983619E1,1.1913008E1,2.0015976E0,1.6340378E1,4.7648026E1,0E0,2.4367163E-1,0E0,7.9435086E-1,9.894696E-1,1.9483656E0,0E0,6.781639E0,2.432414E1,1.0172739E0,2.0089707E-1,1.2346448E0,4.5287952E0,0E0,1.521133E0,3.9114776E0,1.1980073E0,1.3248444E0,8.4856415E-1,1.6262688E1,1.758728E1,0E0,0E0,3.0520043E0,1.1659563E-2,0E0,0E0,0E0,0E0,2.2533941E0,1.3266376E0,0E0,0E0,0E0,0E0,0E0,0E0,0E0,0E0,0E0,0E0,0E0,0E0,0E0,0E0,0E0,0E0,0E0,0E0,0E0,0E0],"parents":[2147483647,0,0,1,1,2,2,3,3,4,4,5,5,6,6,7,7,9,9,11,11,12,12,13,13,15,15,16,16,17,17,18,18,19,19,20,20,22,22,23,23,24,24,25,25,26,26,27,27,28,28,31,31,32,32,37,37,38,38],"right_children":[2,4,6,8,10,12,14,16,-1,18,-1,20,22,24,-1,26,28,30,32,34,36,-1,38,40,42,44,-1,48,50,-1,-1,52,-1,-1,-1,-1,-1,56,58,-1,-1,-1,-1,-1,-1,-1,-1,-1,-1,-1,-1,-1,-1,-1,-1,-1,-1,-1,-1],"split_conditions":[1.5E0,7.5E0,4.5E0,6.5E0,5E-1,1.5E0,5E-1,3E0,-3.3877235E-2,5E-1,2.7328057E-2,5E-1,5E-1,7.5E0,2.7528876E-2,1.5E0,1.5E0,5E-1,1.5E0,1.5E0,5E-1,1.10838935E-2,5E-1,5.5E0,5E-1,1.5E0,-2.5079152E-2,5E-1,5E-1,1.6720707E-2,-3.3930752E-3,3E0,-3.6649867E-3,1.2539251E-2,-7.979839E-3,-8.339788E-3,2.857142E-2,3E0,3E0,6.715984E-3,-2.0062637E-2,-5.450238E-3,1.7806137E-2,-4.076946E-3,-1.5303384E-2,-1.8328015E-2,-2.7141763E-2,-4.574588E-3,2.1587178E-2,-2.6153283E-2,3.090667E-3,-1.9064318E-2,1.045345E-2,-5.4684435E-3,-1.8442161E-3,6.6999295E-3,-1.8791672E-2,1.2059549E-2,-1.7788988E-3],"split_indices":[10,4,4,4,7,4,7,4,0,10,0,4,7,4,0,0,0,0,0,0,0,0,0,4,0,1,1,7,7,0,0,1,1,0,0,0,0,1,1,0,0,0,0,0,0,2147483647,2147483647,0,0,0,0,0,0,2147483647,2147483647,0,0,0,0],"split_type":[0,0,0,0,0,0,0,0,0,0,0,0,0,0,0,0,0,0,0,0,0,0,0,0,0,0,0,0,0,0,0,0,0,0,0,0,0,0,0,0,0,0,0,0,0,0,0,0,0,0,0,0,0,0,0,0,0,0,0],"sum_hessian":[3.0833136E2,2.3021524E2,7.811611E1,1.995986E2,3.0616638E1,2.590994E1,5.2206173E1,1.7106802E2,2.8530579E1,1.0719538E1,1.98971E1,6.9747224E0,1.8935219E1,9.4712715E0,4.27349E1,1.0117412E2,6.9893906E1,2.4941282E0,8.2254095E0,2.7414336E0,4.233289E0,1.7446113E0,1.7190607E1,6.9758077E0,2.4954634E0,4.2075E1,5.909912E1,3.833559E1,3.1558313E1,7.488682E-1,1.74526E0,4.7338595E0,3.4915497E0,1.2462703E0,1.4951634E0,1.4941396E0,2.739149E0,4.482851E0,1.2707756E1,3.7411883E0,3.2346194E0,7.4867254E-1,1.746791E0,5.7321672E0,3.6342834E1,1.6143995E1,4.2955124E1,1.5175293E1,2.31603E1,1.589942E1,1.5658894E1,9.97597E-1,3.7362626E0,7.4764574E-1,2.7439039E0,1.4924232E0,2.990428E0,2.7379003E0,9.969856E0],"tree_param":{"num_deleted":"4","num_feature":"12","num_nodes":"59","size_leaf_vector":"0"}},{"base_weights":[-1.6035698E-1,1.1173117E0,-9.209712E-1,3.986053E-1,1.417569E0,-1.0567862E0,2.6635683E-1,-4.7757494E-1,6.0238385E-1,8.496948E-1,1.4719794E0,-1.1566895E0,-4.4066033E-1,1.4538485E-1,5.234949E-1,-7.859753E-1,-1.8147218E-1,4.4072875E-1,8.8098896E-1,1.0880039E0,-2.7739272E-2,-4.5062944E-2,-1.2191089E0,-1.651435E-1,-6.393932E-1,6.4650916E-2,3.141278E-1,6.589132E-1,-6.376473E-1,-3.201576E-1,7.958064E-1,-1.4631312E0,6.868491E-1,-4.4477224E-1,5.870371E-1,-4.2178777E-1,-9.530562E-1,-4.8845744E-1,1.3764147E0,4.430771E-1,2.06877E-2,-1.2749434E0,3.2990798E-1,-7.7369586E-2,-1.4876413E0,9.304349E-1,-8.893346E-1,4.073497E-2,-5.7966536E-1,1.1994282E0,-5.479977E-1,-5.3050107E-1,2.6834358E-2,5.7312094E-2,-1.2042866E0,3.162327E-1,-6.0006905E-1],"categories":[],"categories_nodes":[],"categories_segments":[],"categories_sizes":[],"default_left":[1,1,1,1,1,1,1,1,1,1,0,1,1,1,0,0,1,1,1,0,0,1,1,1,1,1,1,0,0,1,0,1,1,1,1,1,1,1,0,1,1,0,0,0,0,0,0,1,1,0,0,1,1,0,0,1,1],"id":7,"left_children":[1,3,5,7,9,11,13,15,-1,19,-1,21,23,25,-1,-1,27,-1,-1,-1,-1,29,31,33,35,37,-1,-1,-1,41,-1,43,45,-1,49,-1,53,-1,-1,-1,-1,-1,-1,-1,-1,-1,-1,-1,-1,-1,-1,-1,-1,-1,-1,-1,-1],"loss_changes":[3.0081033E2,2.4373352E1,3.1551147E1,6.616167E0,1.2557068E0,1.0213409E1,5.67888E-1,5.190433E-1,9.2676735E-1,2.0079074E0,0E0,1.030365E1,1.3137388E0,1.9035876E-1,0E0,0E0,2.3357477E0,0E0,0E0,0E0,0E0,2.3309605E0,6.672864E1,2.829387E0,6.021185E-1,9.174754E0,1.7038429E-1,0E0,0E0,5.0607667E0,0E0,4.150696E0,7.24665E0,6.438459E-1,3.2570806E0,5.253308E-1,1.3970094E0,9.963746E-1,0E0,0E0,0E0,0E0,0E0,0E0,0E0,0E0,0E0,0E0,0E0,0E0,0E0,0E0,0E0,0E0,0E0,0E0,0E0],"parents":[2147483647,0,0,1,1,2,2,3,3,4,4,5,5,6,6,7,7,8,8,9,9,11,11,12,12,13,13,16,16,21,21,22,22,23,23,24,24,25,25,26,26,29,29,31,31,32,32,33,33,34,34,35,35,36,36,37,37],"right_children":[2,4,6,8,10,12,14,16,-1,20,-1,22,24,26,-1,-1,28,-1,-1,-1,-1,30,32,34,36,38,-1,-1,-1,42,-1,44,46,-1,50,-1,54,-1,-1,-1,-1,-1,-1,-1,-1,-1,-1,-1,-1,-1,-1,-1,-1,-1,-1,-1,-1],"split_conditions":[5E-1,3E0,7.5E0,5.5E0,5.5E0,1.5E0,1.5E0,2E0,1.2047676E-2,3.5E0,2.9439587E-2,3.5E0,5E-1,5E-1,1.0469898E-2,-1.5719505E-2,4.5E0,8.814575E-3,1.761978E-2,2.1760076E-2,-5.547854E-4,4.5E0,4.5E0,4.5E0,1.5E0,4.5E0,6.282556E-3,1.3178264E-2,-1.2752946E-2,3E0,1.5916128E-2,5E-1,6.5E0,-8.895445E-3,5.5E0,-8.435755E-3,1.5E0,-9.769148E-3,2.7528293E-2,8.861542E-3,4.1375397E-4,-2.5498867E-2,6.5981597E-3,-1.5473916E-3,-2.9752826E-2,1.8608697E-2,-1.7786693E-2,8.1469934E-4,-1.1593307E-2,2.3988564E-2,-1.0959954E-2,-1.0610021E-2,5.3668715E-4,1.1462418E-3,-2.408573E-2,6.324654E-3,-1.200138E-2],"split_indices":[5,4,4,11,11,10,10,11,10,11,0,11,7,7,0,0,11,2147483647,2147483647,0,0,5,5,5,5,5,5,0,0,4,0,9,4,4,4,4,4,9,0,2147483647,2147483647,0,0,0,0,0,0,2147483647,2147483647,0,0,2147483647,2147483647,0,0,2147483647,2147483647],"split_type":[0,0,0,0,0,0,0,0,0,0,0,0,0,0,0,0,0,0,0,0,0,0,0,0,0,0,0,0,0,0,0,0,0,0,0,0,0,0,0,0,0,0,0,0,0,0,0,0,0,0,0,0,0,0,0,0,0],"sum_hessian":[3.0747635E2,1.1456417E2,1.9291217E2,3.4444405E1,8.011976E1,1.7320923E2,1.9702944E1,6.2458262E0,2.819858E1,8.45826E0,7.166151E1,1.482874E2,2.4921827E1,1.44637785E1,5.239165E0,2.2490103E0,3.996816E0,1.9478485E1,8.720094E0,6.4629526E0,1.9953067E0,7.975399E0,1.4031201E2,1.1210684E1,1.37111435E1,1.0718647E1,3.745132E0,1.2498528E0,2.746963E0,6.475998E0,1.4994013E0,1.2459259E2,1.5719413E1,8.470428E0,2.7402554E0,9.479444E0,4.2317E0,7.9810505E0,2.7375963E0,2.247535E0,1.497597E0,2.2338178E0,4.24218E0,2.237633E0,1.2235496E2,1.3970139E1,1.7492744E0,1.9934878E0,6.4769406E0,1.7430735E0,9.971819E-1,7.4834814E0,1.9959619E0,9.963945E-1,3.2353055E0,7.4883294E-1,7.2322173E0],"tree_param":{"num_deleted":"10","num_feature":"12","num_nodes":"57","size_leaf_vector":"0"}},{"base_weights":[-1.8347038E-1,-4.909497E-1,7.136945E-1,7.846484E-1,-1.3244348E0,1.315254E0,-4.6395382E-1,1.0041534E0,4.377103E-1,-9.2436975E-1,-1.5655518E0,6.535867E-1,1.3422139E0,-1.4406626E-1,-8.443957E-1,4.6829084E-1,1.3680743E0,-8.0531585E-1,8.672692E-1,-1.515687E-1,-1.078618E0,-1.6960429E0,-1.1759624E0,-6.851417E-1,2.7306148E-1,-1.3329343E0,-1.1494847E-1,1.1493949E0,2.4965475E-1,-3.4838006E-1,2.093101E-3,-1.1010295E0,-1.5961881E-1,-5.6038573E-2,-1.2587477E0,3.109857E-1,-2.3512347E-1,3.4386957E-1,1.8954474E-1,-6.834133E-1,2.901087E-1,-9.571065E-1,6.9151294E-1,-1.3020887E0,-6.9416076E-1,-1.9171809E-1,9.067516E-2,1.9374654E-1,-6.215069E-1],"categories":[],"categories_nodes":[],"categories_segments":[],"categories_sizes":[],"default_left":[1,1,1,1,1,1,1,1,1,1,1,1,1,1,1,1,0,0,0,1,1,0,1,0,0,0,1,0,1,1,1,1,0,1,0,1,1,1,1,0,0,0,0,0,0,1,1,1,1],"id":8,"left_children":[1,3,5,7,9,-1,13,15,17,19,21,-1,-1,23,25,27,-1,-1,-1,29,31,-1,33,-1,-1,-1,-1,-1,-1,39,41,43,-1,-1,-1,-1,-1,-1,-1,-1,-1,-1,-1,-1,-1,-1,-1,-1,-1],"loss_changes":[8.438093E1,2.4286734E2,5.597973E1,6.4536476E0,1.1858826E1,5.0239563E-2,3.1843004E0,1.001997E1,2.0373945E1,6.3109055E0,2.3076935E0,0E0,0E0,3.7898188E0,4.195265E0,3.2319722E0,0E0,0E0,0E0,3.0921924E-1,7.534065E-1,0E0,2.2003975E0,0E0,0E0,0E0,3.7966663E-1,0E0,4.33625E-2,1.1562449E0,5.1072206E0,2.6848984E0,0E0,7.177898E-2,0E0,0E0,9.887895E-1,0E0,0E0,0E0,0E0,0E0,0E0,0E0,0E0,0E0,0E0,0E0,0E0],"parents":[2147483647,0,0,1,1,2,2,3,3,4,4,5,5,6,6,7,7,8,8,9,9,10,10,13,13,14,14,15,15,19,19,20,20,22,22,26,26,28,28,29,29,30,30,31,31,33,33,36,36],"right_children":[2,4,6,8,10,-1,14,16,18,20,22,-1,-1,24,26,28,-1,-1,-1,30,32,-1,34,-1,-1,-1,-1,-1,-1,40,42,44,-1,-1,-1,-1,-1,-1,-1,-1,-1,-1,-1,-1,-1,-1,-1,-1,-1],"split_conditions":[1.5E0,5E-1,5E-1,1.5E0,1.5E0,2.630508E-2,1.5E0,5E-1,2.5E0,5E-1,2.5E0,1.30717335E-2,2.6844276E-2,1.5E0,2.5E0,5E-1,2.7361486E-2,-1.6106317E-2,1.7345384E-2,5E-1,2.5E0,-3.3920858E-2,5E-1,-1.3702833E-2,5.4612295E-3,-2.6658684E-2,-2.2989693E-3,2.2987897E-2,4.993095E-3,1.5E0,5E-1,5E-1,-3.192376E-3,-1.1207714E-3,-2.5174953E-2,6.219714E-3,-4.7024693E-3,6.877391E-3,3.7908948E-3,-1.3668266E-2,5.802174E-3,-1.9142129E-2,1.38302585E-2,-2.6041774E-2,-1.3883214E-2,-3.8343617E-3,1.8135032E-3,3.8749306E-3,-1.2430138E-2],"split_indices":[10,3,3,0,0,7,0,0,0,10,0,2147483647,2147483647,3,0,10,0,0,0,0,3,0,10,0,0,0,3,0,7,3,7,7,0,7,0,2147483647,2147483647,2147483647,2147483647,0,0,0,0,0,0,2147483647,2147483647,2147483647,2147483647],"split_type":[0,0,0,0,0,0,0,0,0,0,0,0,0,0,0,0,0,0,0,0,0,0,0,0,0,0,0,0,0,0,0,0,0,0,0,0,0,0,0,0,0,0,0,0,0,0,0,0,0],"sum_hessian":[3.0361337E2,2.2645482E2,7.715856E1,8.951546E1,1.3693936E2,5.099351E1,2.6165052E1,5.3666664E1,3.584879E1,5.3313892E1,8.362547E1,2.9846785E0,4.800883E1,1.4962657E1,1.12023945E1,2.2630594E1,3.103607E1,8.98215E0,2.6866638E1,9.200582E0,4.411331E1,6.013135E1,2.349412E1,6.233882E0,8.728775E0,6.2135935E0,4.988801E0,4.4647393E0,1.8165855E1,3.4783251E0,5.7222567E0,4.286978E1,1.2435309E0,1.7325826E0,2.1761536E1,7.4841887E-1,4.240382E0,5.236944E0,1.2928911E1,2.2351286E0,1.2431965E0,2.2305636E0,3.491693E0,2.7218937E1,1.5650845E1,7.407731E-1,9.918095E-1,2.2459893E0,1.9943929E0],"tree_param":{"num_deleted":"10","num_feature":"12","num_nodes":"49","size_leaf_vector":"0"}},{"base_weights":[-2.1303846E-1,1.0416257E0,-9.565678E-1,3.507837E-1,1.1768745E0,-4.5626366E-1,-1.3449184E0,1.3110112E-1,9.2942727E-1,1.3125969E0,4.600754E-1,-7.5257087E-1,9.370396E-1,-1.47093E0,4.4036335E-1,4.9903023E-1,-1.9125779E-1,1.1436055E0,1.107457E-1,9.4469684E-1,1.4566633E0,-3.7202138E-1,-1.166041E0,-7.924681E-3,1.0018893E0,-1.1986848E0,-1.6282209E0,5.999592E-1,-2.5462033E-2,-5.6595482E-2,8.6201036E-1,4.16748E-1,-7.912881E-1,9.405341E-2,1.074294E0,6.9310004E-1,-4.4813842E-1,-1.4359319E-1,-1.250746E0,6.201281E-1,1.1928095E0,-1.465054E0,-8.203706E-1,-4.1721165E-1,-1.6410452E0,1.0240712E-1,9.903435E-1,-2.7386102E-1,1.7924881E-1,-2.4596669E-1,1.9967282E-1,7.849873E-2,9.275249E-1,2.2829203E-1,-1.0242965E0,-6.279978E-1,7.8376013E-1,4.9812898E-1,1.1469482E0,-6.803694E-1,1.2887307E-1,-3.314846E-1,2.6028255E-1,-1.3559854E0,-5.4370314E-1,2.734803E-1,1.133168E0,1.3653288E0,-7.262911E-2,-6.1160427E-2,-8.916915E-1,-1.6936228E0,-7.537423E-1],"categories":[],"categories_nodes":[],"categories_segments":[],"categories_sizes":[],"default_left":[1,1,1,1,1,1,1,1,1,1,0,1,1,1,1,1,1,1,1,1,0,1,1,0,1,1,1,1,1,1,0,1,1,1,1,0,1,1,1,1,1,0,1,0,1,0,0,1,1,1,1,1,1,0,0,0,0,1,1,0,0,1,1,0,0,1,1,0,0,1,1,0,0],"id":9,"left_children":[1,3,5,7,9,11,13,15,-1,19,-1,21,23,25,27,29,31,-1,-1,33,-1,35,37,-1,39,41,43,45,-1,-1,-1,-1,53,55,-1,-1,59,-1,63,-1,67,-1,-1,-1,71,-1,-1,-1,-1,-1,-1,-1,-1,-1,-1,-1,-1,-1,-1,-1,-1,-1,-1,-1,-1,-1,-1,-1,-1,-1,-1,-1,-1],"loss_changes":[2.9028027E2,1.0413223E1,3.7318527E1,2.4706492E0,8.781433E0,3.6553185E1,2.5259064E1,1.986786E0,8.2860565E-1,2.8944702E0,0E0,1.09200325E1,9.6839523E-1,2.43396E0,6.0871387E-1,1.606565E0,3.6943603E0,0E0,0E0,2.7121468E0,0E0,3.4760208E0,2.7749596E0,0E0,3.298607E-1,2.9594307E0,2.8012085E-1,1.0613029E0,2.0144762E-1,2.427692E-1,0E0,8.317892E-1,1.4185345E0,2.718149E0,3.5165405E-1,0E0,5.051953E0,3.7006724E-1,1.5973282E0,9.305613E-1,1.9983511E0,0E0,9.9238396E-1,0E0,1.5753479E0,0E0,0E0,0E0,0E0,0E0,0E0,0E0,0E0,0E0,0E0,0E0,0E0,0E0,0E0,0E0,0E0,0E0,0E0,0E0,0E0,0E0,0E0,0E0,0E0,0E0,0E0,0E0,0E0],"parents":[2147483647,0,0,1,1,2,2,3,3,4,4,5,5,6,6,7,7,8,8,9,9,11,11,12,12,13,13,14,14,15,15,16,16,19,19,21,21,22,22,24,24,25,25,26,26,27,27,28,28,29,29,31,31,32,32,33,33,34,34,36,36,37,37,38,38,39,39,40,40,42,42,44,44],"right_children":[2,4,6,8,10,12,14,16,-1,20,-1,22,24,26,28,30,32,-1,-1,34,-1,36,38,-1,40,42,44,46,-1,-1,-1,-1,54,56,-1,-1,60,-1,64,-1,68,-1,-1,-1,72,-1,-1,-1,-1,-1,-1,-1,-1,-1,-1,-1,-1,-1,-1,-1,-1,-1,-1,-1,-1,-1,-1,-1,-1,-1,-1,-1,-1],"split_conditions":[5E-1,8.5E0,1.5E0,1.5E0,5.5E0,4.5E0,4.5E0,4.5E0,1.8588545E-2,3E0,9.201508E-3,1.5E0,5.5E0,1.5E0,5.5E0,5E-1,1.5E0,2.2872109E-2,2.214914E-3,5E-1,2.9133264E-2,3.5E0,5E-1,-1.5849361E-4,5E-1,2.5E0,1E0,2.5E0,-5.0924066E-4,-1.1319097E-3,1.7240208E-2,8.33496E-3,3E0,1.5E0,2.1485878E-2,1.3862001E-2,1.5E0,-2.8718638E-3,1.5E0,1.24025615E-2,1.5E0,-2.930108E-2,-1.6407412E-2,-8.344233E-3,1.5E0,2.0481423E-3,1.980687E-2,-5.4772203E-3,3.584976E-3,-4.919334E-3,3.9934563E-3,1.5699746E-3,1.8550498E-2,4.5658406E-3,-2.048593E-2,-1.2559956E-2,1.5675202E-2,9.962579E-3,2.2938963E-2,-1.3607387E-2,2.5774613E-3,-6.6296915E-3,5.205651E-3,-2.7119707E-2,-1.0874063E-2,5.469606E-3,2.2663359E-2,2.7306575E-2,-1.4525822E-3,-1.2232085E-3,-1.7833829E-2,-3.3872455E-2,-1.5074845E-2],"split_indices":[5,11,0,10,1,5,5,11,1,1,0,5,11,5,1,11,0,2147483647,2147483647,0,0,11,3,0,0,0,11,0,0,0,0,0,1,10,1,0,10,0,10,1,10,0,10,0,10,0,0,2147483647,2147483647,2147483647,2147483647,2147483647,2147483647,0,0,0,0,2147483647,2147483647,0,0,2147483647,2147483647,0,0,2147483647,2147483647,0,0,2147483647,2147483647,0,0],"split_type":[0,0,0,0,0,0,0,0,0,0,0,0,0,0,0,0,0,0,0,0,0,0,0,0,0,0,0,0,0,0,0,0,0,0,0,0,0,0,0,0,0,0,0,0,0,0,0,0,0,0,0,0,0,0,0,0,0,0,0,0,0,0,0,0,0,0,0,0,0,0,0,0,0],"sum_hessian":[3.0909775E2,1.1486633E2,1.9423143E2,1.9394436E1,9.547189E1,8.583143E1,1.084E2,1.4946535E1,4.4479003E0,7.95738E1,1.5898095E1,7.115838E1,1.4673051E1,1.01417656E2,6.982343E0,6.723972E0,8.222563E0,3.2109778E0,1.2369225E0,2.4518553E1,5.505525E1,3.8043587E1,3.3114788E1,9.986675E-1,1.3674383E1,4.0294758E1,6.11229E1,4.9861097E0,1.9962333E0,2.9904587E0,3.733513E0,4.235858E0,3.9867053E0,3.4697459E0,2.1048807E1,1.9967631E0,3.6046825E1,2.7397165E0,3.0375072E1,5.9749866E0,7.699397E0,2.1960144E1,1.8334614E1,9.918766E-1,6.0131023E1,2.7471457E0,2.2389643E0,7.492674E-1,1.2469659E0,1.7428019E0,1.247657E0,3.2423666E0,9.934913E-1,7.453784E-1,3.2413268E0,1.7388362E0,1.7309096E0,3.2367542E0,1.7812054E1,2.5574629E1,1.0472197E1,1.9921622E0,7.475542E-1,2.5640764E1,4.7343087E0,4.4806113E0,1.4943752E0,6.7061934E0,9.932035E-1,1.7339766E0,1.6600637E1,5.5909355E1,4.221667E0],"tree_param":{"num_deleted":"16","num_feature":"12","num_nodes":"73","size_leaf_vector":"0"}},{"base_weights":[-1.8348607E-1,9.5670766E-1,-1.1426606E0,7.7850705E-1,1.2405032E0,-7.918031E-1,-1.4465044E0,1.2570636E0,6.382433E-1,-4.3386066E-1,-1.1458368E0,-1.5734998E0,-2.956227E-1,2.03765E-1,7.741369E-1,6.1641637E-2,-5.1198936E-1,-1.4665397E0,-7.101499E-1,-8.529109E-1,-1.6229086E0,-7.4280924E-1,3.5219032E-1,-8.4871477E-1,2.9784888E-1,2.7071837E-1,8.905586E-1,5.1885223E-1,-1.16176985E-1,2.3864466E-1,-5.4620904E-1,-4.3887287E-1,-1.2842077E0,-1.1159854E0,-3.5936543E-1,4.221402E-1,4.469771E-2,3.72891E-1,1.1396702E-1,1.4289679E-1,5.212326E-1,7.7650774E-1,1.152732E0,-7.05479E-1,-1.02644466E-1,3.4226695E-1,-5.079397E-1],"categories":[],"categories_nodes":[],"categories_segments":[],"categories_sizes":[],"default_left":[1,1,1,1,0,1,1,0,1,1,1,1,1,1,1,1,1,0,1,1,0,0,1,0,1,1,1,1,1,0,1,1,0,1,1,1,1,1,1,1,1,1,1,0,0,1,1],"id":10,"left_children":[1,3,5,7,-1,9,11,-1,13,15,17,19,21,23,25,-1,29,-1,31,-1,-1,-1,-1,-1,-1,-1,-1,-1,-1,-1,43,-1,-1,-1,-1,-1,-1,-1,-1,-1,-1,-1,-1,-1,-1,-1,-1],"loss_changes":[3.3429318E2,6.1014557E0,1.6543274E1,5.1399918E0,0E0,9.541237E0,1.2354355E1,0E0,4.004341E0,1.618763E0,4.437954E0,1.420044E0,3.1434906E0,2.0502675E0,2.8851185E0,5.8683413E-1,1.0428E0,0E0,2.327632E0,5.28821E-1,0E0,0E0,8.3106756E-2,0E0,1.976465E-1,2.9233217E-1,3.871994E-1,0E0,0E0,0E0,2.3492002E0,9.360175E-1,0E0,0E0,0E0,0E0,0E0,0E0,0E0,0E0,0E0,0E0,0E0,0E0,0E0,0E0,0E0],"parents":[2147483647,0,0,1,1,2,2,3,3,5,5,6,6,8,8,9,9,10,10,11,11,12,12,13,13,14,14,15,15,16,16,18,18,19,19,22,22,24,24,25,25,26,26,30,30,31,31],"right_children":[2,4,6,8,-1,10,12,-1,14,16,18,20,22,24,26,-1,30,-1,32,-1,-1,-1,-1,-1,-1,-1,-1,-1,-1,-1,44,-1,-1,-1,-1,-1,-1,-1,-1,-1,-1,-1,-1,-1,-1,-1,-1],"split_conditions":[5E-1,1.5E0,1.5E0,5E-1,2.4810063E-2,1.5E0,1.5E0,2.5141273E-2,5E-1,5E-1,2.5E0,5E-1,1.5E0,5E-1,2.5E0,1.2328327E-3,1.5E0,-2.9330794E-2,2.5E0,-1.7058218E-2,-3.245817E-2,-1.4856185E-2,7.0438064E-3,-1.6974295E-2,5.9569776E-3,5.414367E-3,1.7811172E-2,1.0377045E-2,-2.3235397E-3,4.772893E-3,1.5E0,-8.777457E-3,-2.5684154E-2,-2.2319708E-2,-7.1873083E-3,8.442804E-3,8.939542E-4,7.4578202E-3,2.2793403E-3,2.8579356E-3,1.0424652E-2,1.5530154E-2,2.3054639E-2,-1.410958E-2,-2.0528892E-3,6.8453387E-3,-1.0158794E-2],"split_indices":[3,10,5,10,0,0,10,0,0,10,0,10,3,6,6,6,6,0,3,3,0,0,3,0,5,5,5,2147483647,2147483647,0,10,9,0,2147483647,2147483647,2147483647,2147483647,2147483647,2147483647,2147483647,2147483647,2147483647,2147483647,0,0,2147483647,2147483647],"split_type":[0,0,0,0,0,0,0,0,0,0,0,0,0,0,0,0,0,0,0,0,0,0,0,0,0,0,0,0,0,0,0,0,0,0,0,0,0,0,0,0,0,0,0,0,0,0,0],"sum_hessian":[3.036693E2,1.3874379E2,1.649255E2,8.752708E1,5.121672E1,7.821466E1,8.671084E1,1.8034437E1,6.949264E1,3.9999264E1,3.82154E1,7.77628E1,8.94804E0,1.7152428E1,5.234021E1,5.476652E0,3.452261E1,2.0649538E1,1.756586E1,6.1616845E0,7.160111E1,5.2069983E0,3.7410421E0,7.4931395E-1,1.6403114E1,1.0455399E1,4.188481E1,9.965165E-1,4.4801354E0,1.2447261E0,3.3277885E1,1.31270485E1,4.438813E0,3.1966267E0,2.965058E0,2.7439814E0,9.9706066E-1,1.0919135E1,5.4839787E0,7.962866E0,2.4925334E0,3.19484E1,9.936411E0,2.4051334E1,9.22655E0,7.4504673E-1,1.2382002E1],"tree_param":{"num_deleted":"14","num_feature":"12","num_nodes":"47","size_leaf_vector":"0"}},{"base_weights":[-1.8778645E-1,9.202098E-1,-1.1305426E0,9.983185E-1,5.0507945E-1,-7.2404313E-1,-1.4231727E0,8.2581663E-1,1.5520211E0,7.106433E-1,5.4784905E-2,-9.390117E-1,1.0357269E0,-8.772164E-1,-1.5610799E0,1.3189274E0,2.2291988E-1,5.6765103E-1,1.1767507E0,-4.3498373E-1,8.2494366E-1,-2.8710938E-1,-1.3065481E0,1.2198714E0,2.217258E-1,-1.0111643E0,7.1736354E-1,-1.6172831E0,-2.4189216E-1,-8.536089E-1,5.165784E-1,9.6127474E-1,2.0977737E-1,-7.4248266E-1,2.9490107E-1,-3.8544035E-1,1.0042086E0,4.4932714E-1,1.3602048E0,-2.222464E-1,4.9729913E-1,-1.1328954E-1,-1.0636303E0,-1.0720414E0,5.967071E-1,3.1906497E-1,9.832238E-1,2.5282896E-1,1.2070636E0,-3.428329E-2,5.5991274E-1,-1.1184795E0,1.3327561E-1,3.2079878E-1,-4.2299992E-1,-1.142238E0,-2.624089E-1],"categories":[],"categories_nodes":[],"categories_segments":[],"categories_sizes":[],"default_left":[1,1,1,1,1,1,1,1,0,1,1,1,1,1,1,0,1,1,0,1,0,1,0,1,1,1,0,0,1,0,1,1,1,1,0,1,0,1,1,1,1,1,1,0,0,0,0,1,1,1,1,0,0,1,1,1,1],"id":11,"left_children":[1,3,5,7,9,11,13,15,-1,17,19,21,-1,25,27,-1,29,31,-1,33,-1,35,-1,-1,-1,-1,-1,-1,43,-1,45,-1,-1,51,-1,-1,-1,-1,-1,-1,-1,-1,-1,-1,-1,-1,-1,-1,-1,-1,-1,-1,-1,-1,-1,-1,-1],"loss_changes":[3.1953732E2,4.058693E0,1.8619125E1,9.932938E0,2.211153E0,2.7898323E1,5.7839813E0,2.6955925E1,0E0,4.38797E-1,3.6413908E0,1.4947849E1,9.622116E-1,5.3052425E0,5.13739E0,0E0,1.3858374E1,1.8605728E0,0E0,1.5598261E0,0E0,3.4774737E0,0E0,9.000492E-2,4.4566876E-1,8.308811E-1,0E0,0E0,3.5795546E0,0E0,2.8171844E0,8.6014986E-1,7.8376305E-1,1.6267841E0,0E0,7.5478673E-1,0E0,0E0,0E0,0E0,0E0,0E0,8.9450264E-1,0E0,0E0,0E0,0E0,0E0,0E0,0E0,0E0,0E0,0E0,0E0,0E0,0E0,0E0],"parents":[2147483647,0,0,1,1,2,2,3,3,4,4,5,5,6,6,7,7,9,9,10,10,11,11,12,12,13,13,14,14,16,16,17,17,19,19,21,21,23,23,24,24,25,25,28,28,30,30,31,31,32,32,33,33,35,35,42,42],"right_children":[2,4,6,8,10,12,14,16,-1,18,20,22,-1,26,28,-1,30,32,-1,34,-1,36,-1,-1,-1,-1,-1,-1,44,-1,46,-1,-1,52,-1,-1,-1,-1,-1,-1,-1,-1,-1,-1,-1,-1,-1,-1,-1,-1,-1,-1,-1,-1,-1,-1,-1],"split_conditions":[5E-1,5.5E0,1.5E0,4.5E0,2.5E0,4.5E0,2.5E0,2.5E0,3.1040423E-2,5.5E0,6.5E0,2.5E0,2.0714538E-2,1.5E0,4.5E0,2.6378548E-2,3.5E0,3E0,2.3535013E-2,4.5E0,1.6498873E-2,1.5E0,-2.6130961E-2,2.4397427E-2,4.434516E-3,-2.0223286E-2,1.434727E-2,-3.234566E-2,1.5E0,-1.7072178E-2,1.5E0,1.9225495E-2,4.195547E-3,1.5E0,5.898021E-3,-7.708807E-3,2.008417E-2,8.986543E-3,2.7204096E-2,-4.444928E-3,9.945982E-3,-2.2657907E-3,-2.1272607E-2,-2.1440828E-2,1.1934142E-2,6.3812993E-3,1.9664476E-2,5.056579E-3,2.414127E-2,-6.856658E-4,1.1198254E-2,-2.236959E-2,2.6655123E-3,6.4159757E-3,-8.459998E-3,-2.284476E-2,-5.2481783E-3],"split_indices":[3,1,0,2,0,2,2,2,0,2,1,2,1,2,2,0,2,2,0,2,0,2,0,2147483647,2147483647,1,0,0,3,0,10,2,10,10,0,9,0,2147483647,2147483647,2147483647,2147483647,2147483647,2147483647,0,0,0,0,2147483647,2147483647,2147483647,2147483647,0,0,2147483647,2147483647,2147483647,2147483647],"split_type":[0,0,0,0,0,0,0,0,0,0,0,0,0,0,0,0,0,0,0,0,0,0,0,0,0,0,0,0,0,0,0,0,0,0,0,0,0,0,0,0,0,0,0,0,0,0,0,0,0,0,0,0,0,0,0,0,0],"sum_hessian":[3.0390714E2,1.3972086E2,1.6418628E2,1.1641249E2,2.3308363E1,7.017658E1,9.4009705E1,9.065962E1,2.5752872E1,1.5605929E1,7.7024326E0,6.295284E1,7.2237396E0,2.0442286E1,7.356742E1,4.9217144E1,4.144248E1,1.3639472E1,1.966458E0,4.9743114E0,2.7281215E0,2.3338438E1,3.96144E1,5.4844317E0,1.739308E0,1.9195684E1,1.2466023E0,7.0344475E1,3.2229497E0,8.473284E0,3.2969193E1,5.692377E0,7.947095E0,3.4876933E0,1.4866179E0,2.2338896E1,9.995429E-1,1.4923072E0,3.9921246E0,7.4023646E-1,9.990716E-1,1.2341646E0,1.796152E1,1.4797443E0,1.7432055E0,2.434754E1,8.621654E0,1.9887565E0,3.7036204E0,5.2144594E0,2.7326355E0,2.2461703E0,1.2415231E0,7.472453E-1,2.159165E1,1.5969167E1,1.992352E0],"tree_param":{"num_deleted":"16","num_feature":"12","num_nodes":"57","size_leaf_vector":"0"}},{"base_weights":[-1.783273E-1,1.0095025E0,-8.914588E-1,2.6412734E-1,1.3115765E0,-1.12707E0,8.599962E-1,4.2193246E-1,-3.4743923E-1,1.4283943E0,6.199308E-1,-1.2564212E0,1.2797575E-1,1.0477276E0,3.7622854E-1,-3.0759954E-1,7.257673E-1,-8.191559E-1,3.4213892E-1,7.5488406E-1,1.4956126E0,-2.823697E-1,7.791091E-1,-4.4611797E-1,-1.290969E0,-2.8935513E-1,2.5230643E-1,4.9808364E-2,1.3511928E0,5.894921E-1,-2.4295723E-1,-1.0307043E0,-8.0955885E-2,1.283328E0,3.7321627E-1,-2.6068723E-1,-1.0571402E0,1.0255812E0,-5.6418274E-2,1.7792942E-1,-5.417211E-1,1.2747749E0,4.862386E-1,5.082189E-1,-6.646667E-1,1.7289947E0,-1.4289465E0,3.5154264E-2,-5.938094E-1,1.3972931E0,-1.4545238E-1,6.253936E-1,-3.3448067E-1,-6.374362E-3,7.051744E-1,2.618799E-1,-1.5513232E-1,7.0117295E-2,6.2456363E-1,1.1060084E0,1.8434255E-1,-1.2053968E0,-1.5781667E0,7.3444046E-2,-3.8934442E-1,9.618761E-1,3.8428003E-1],"categories":[],"categories_nodes":[],"categories_segments":[],"categories_sizes":[],"default_left":[1,1,1,1,1,1,1,1,1,1,1,1,1,1,1,1,1,1,0,1,0,1,1,1,1,1,1,1,0,1,0,0,1,0,1,1,1,1,0,1,1,0,0,0,0,0,1,1,1,0,1,0,0,1,1,1,1,1,1,1,1,0,0,1,1,1,1],"id":12,"left_children":[1,3,5,7,9,11,13,15,17,19,21,23,25,27,29,31,33,-1,-1,37,-1,-1,41,43,45,-1,49,51,-1,-1,-1,-1,-1,-1,-1,-1,-1,-1,-1,-1,-1,-1,-1,-1,-1,-1,61,-1,-1,-1,-1,-1,-1,-1,-1,-1,-1,-1,-1,-1,-1,-1,-1,-1,-1,-1,-1],"loss_changes":[2.5464636E2,2.5061485E1,7.843013E1,3.4081373E0,5.5822144E0,2.7090927E1,1.6786919E0,6.2778745E0,2.7134535E0,1.936615E0,2.1350293E0,3.636612E0,9.243213E-1,4.7426395E0,1.1918706E0,1.3478968E0,3.3701668E0,3.5390973E-1,0E0,1.8508296E0,0E0,4.2270514E-1,1.0640731E0,1.9399052E0,6.2388977E1,4.3897086E-1,6.203636E0,1.2580702E0,0E0,4.3177938E-1,0E0,0E0,2.3732355E-1,0E0,9.7754264E-1,0E0,0E0,2.1381903E-1,0E0,0E0,0E0,0E0,0E0,0E0,0E0,0E0,2.703186E0,0E0,0E0,0E0,5.989868E-1,0E0,0E0,0E0,5.870676E-2,0E0,0E0,0E0,0E0,0E0,0E0,0E0,0E0,0E0,0E0,0E0,0E0],"parents":[2147483647,0,0,1,1,2,2,3,3,4,4,5,5,6,6,7,7,8,8,9,9,10,10,11,11,12,12,13,13,14,14,15,15,16,16,17,17,19,19,21,21,22,22,23,23,24,24,25,25,26,26,27,27,29,29,32,32,34,34,37,37,46,46,50,50,54,54],"right_children":[2,4,6,8,10,12,14,16,18,20,22,24,26,28,30,32,34,-1,-1,38,-1,-1,42,44,46,-1,50,52,-1,-1,-1,-1,-1,-1,-1,-1,-1,-1,-1,-1,-1,-1,-1,-1,-1,-1,62,-1,-1,-1,-1,-1,-1,-1,-1,-1,-1,-1,-1,-1,-1,-1,-1,-1,-1,-1,-1],"split_conditions":[5E-1,3E0,4.5E0,4.5E0,5.5E0,7.5E0,5.5E0,8.5E0,6.5E0,5.5E0,2.5E0,3.5E0,3E0,3E0,4.5E0,5E-1,1.5E0,-1.6383117E-2,6.842778E-3,3.5E0,2.9912252E-2,-5.647394E-3,1.5E0,1.5E0,5E-1,-5.7871025E-3,5E-1,8E0,2.7023856E-2,1.1789842E-2,-4.859145E-3,-2.0614084E-2,-1.6191177E-3,2.5666561E-2,7.464325E-3,-5.2137445E-3,-2.1142805E-2,2.0511623E-2,-1.1283654E-3,3.5585882E-3,-1.0834422E-2,2.5495498E-2,9.724772E-3,1.0164377E-2,-1.3293334E-2,3.4579895E-2,1.5E0,7.030853E-4,-1.1876188E-2,2.7945861E-2,-2.9090475E-3,1.2507873E-2,-6.689613E-3,-1.2748723E-4,1.4103487E-2,5.2375975E-3,-3.1026464E-3,1.4023458E-3,1.2491273E-2,2.2120168E-2,3.686851E-3,-2.4107935E-2,-3.1563334E-2,1.4688809E-3,-7.786888E-3,1.9237522E-2,7.6856003E-3],"split_indices":[5,4,5,1,1,4,4,11,1,11,6,11,1,6,1,11,8,8,0,11,0,11,8,8,8,1,8,11,0,11,0,0,8,0,1,2147483647,2147483647,1,0,2147483647,2147483647,0,0,0,0,0,5,2147483647,2147483647,0,5,0,0,2147483647,2147483647,2147483647,2147483647,2147483647,2147483647,2147483647,2147483647,0,0,2147483647,2147483647,2147483647,2147483647],"split_type":[0,0,0,0,0,0,0,0,0,0,0,0,0,0,0,0,0,0,0,0,0,0,0,0,0,0,0,0,0,0,0,0,0,0,0,0,0,0,0,0,0,0,0,0,0,0,0,0,0,0,0,0,0,0,0,0,0,0,0,0,0,0,0,0,0,0,0],"sum_hessian":[2.9855466E2,1.1184464E2,1.8671E2,3.2795437E1,7.904921E1,1.6488557E2,2.1824427E1,2.6315273E1,6.4801626E0,6.6715805E1,1.2333404E1,1.4947849E2,1.540709E1,1.4883107E1,6.94132E0,7.733685E0,1.8581589E1,3.7363474E0,2.743815E0,7.1640615E0,5.9551746E1,1.7334492E0,1.0599955E1,6.681429E0,1.4279706E2,3.2318144E0,1.2175276E1,3.7419996E0,1.1141108E1,5.198707E0,1.7426128E0,9.989276E-1,6.7347574E0,6.175266E0,1.2406323E1,1.742556E0,1.9937913E0,5.1737003E0,1.9903611E0,7.378505E-1,9.955987E-1,2.6917083E0,7.908246E0,9.980068E-1,5.683422E0,5.7353077E0,1.3706175E2,1.9925473E0,1.239267E0,2.491201E0,9.684075E0,1.2469392E0,2.4950604E0,9.988162E-1,4.199891E0,7.478364E-1,5.986921E0,6.203957E0,6.202366E0,4.434955E0,7.387454E-1,5.849988E1,7.856187E1,5.4718666E0,4.2122083E0,1.223588E0,2.976303E0],"tree_param":{"num_deleted":"18","num_feature":"12","num_nodes":"67","size_leaf_vector":"0"}},{"base_weights":[-1.6808377E-1,-3.9481363E-1,1.2692014E0,8.573904E-1,-9.83589E-1,1.4166424E0,9.0845966E-1,1.3583908E0,2.5225073E-1,4.3776524E-1,-1.2009683E0,1.2088163E0,7.011379E-1,5.59556E-1,1.5175433E-1,-6.183379E-1,6.873278E-1,-9.0726924E-1,-1.4011213E0,1.1297253E0,-3.6452264E-1,-3.2412672E-1,8.0078524E-1,3.3504164E-1,-3.429213E-2,-1.6218555E-1,-9.0542406E-1,2.7440172E-1,8.1132513E-1,1.0835091E0,-9.5426744E-1,-1.5529214E0,-9.911704E-1,-9.713588E-1,2.623632E-1,-5.9817183E-1,1.7616366E-1,-7.826324E-1,6.5689874E-1,-5.3060883E-1,1.5403335E-1,4.243846E-1,-6.112159E-1,-5.0595224E-1,5.211949E-1,9.9056125E-1,5.2546465E-1,-2.1241951E-1,-1.3903257E0,-3.7774128E-1,-1.565151E0,-1.4327124E-1,-1.359258E0],"categories":[],"categories_nodes":[],"categories_segments":[],"categories_sizes":[],"default_left":[1,1,1,1,1,0,1,0,1,1,1,0,1,1,1,1,1,1,1,0,1,1,0,1,1,1,0,1,1,0,1,1,1,0,0,1,1,0,0,0,0,0,0,0,0,1,1,0,0,1,1,0,0],"id":13,"left_children":[1,3,5,7,9,-1,11,-1,13,15,17,-1,19,21,23,25,27,29,31,-1,33,-1,-1,37,39,41,-1,43,-1,-1,47,-1,51,-1,-1,-1,-1,-1,-1,-1,-1,-1,-1,-1,-1,-1,-1,-1,-1,-1,-1,-1,-1],"loss_changes":[9.957976E1,1.9502055E2,9.290619E-1,2.5356216E1,5.601999E1,0E0,7.8775406E-2,0E0,1.1386945E0,6.8976274E0,7.9022064E0,0E0,5.518947E0,2.2616036E0,1.0763946E0,5.367923E-1,8.18697E-1,7.2168617E0,4.121765E0,0E0,1.7625642E0,4.7909796E-1,0E0,6.2064857E0,1.6150887E0,1.111363E0,0E0,1.4592464E0,2.5469494E-1,0E0,2.0760681E1,3.375244E-1,8.3400955E0,0E0,0E0,0E0,0E0,0E0,0E0,0E0,0E0,0E0,0E0,0E0,0E0,0E0,0E0,0E0,0E0,0E0,0E0,0E0,0E0],"parents":[2147483647,0,0,1,1,2,2,3,3,4,4,6,6,8,8,9,9,10,10,12,12,13,13,14,14,15,15,16,16,17,17,18,18,20,20,21,21,23,23,24,24,25,25,27,27,28,28,30,30,31,31,32,32],"right_children":[2,4,6,8,10,-1,12,-1,14,16,18,-1,20,22,24,26,28,30,32,-1,34,-1,-1,38,40,42,-1,44,-1,-1,48,-1,52,-1,-1,-1,-1,-1,-1,-1,-1,-1,-1,-1,-1,-1,-1,-1,-1,-1,-1,-1,-1],"split_conditions":[4.5E0,5E-1,5E-1,2.5E0,5E-1,2.8332848E-2,5E-1,2.7167816E-2,1.5E0,4E0,1.5E0,2.4176326E-2,1.5E0,5E-1,1.5E0,1.5E0,5E-1,5E-1,2.5E0,2.2594506E-2,2.5E0,-6.482534E-3,1.6015705E-2,7.5E0,3.5E0,2E0,-1.8108482E-2,8E0,1.6226502E-2,2.1670181E-2,2.5E0,-3.1058427E-2,2.5E0,-1.9427175E-2,5.2472637E-3,-1.1963436E-2,3.5232732E-3,-1.5652647E-2,1.3137975E-2,-1.0612177E-2,3.080667E-3,8.487692E-3,-1.22243175E-2,-1.0119044E-2,1.0423897E-2,1.9811224E-2,1.0509293E-2,-4.24839E-3,-2.7806513E-2,-7.5548254E-3,-3.130302E-2,-2.8654246E-3,-2.718516E-2],"split_indices":[2,5,5,2,3,0,3,0,9,5,0,0,0,0,0,0,0,9,0,0,0,9,0,11,2,2,0,11,2,0,2,11,2,0,0,2147483647,2147483647,0,0,0,0,0,0,0,0,2147483647,2147483647,0,0,2147483647,2147483647,0,0],"split_type":[0,0,0,0,0,0,0,0,0,0,0,0,0,0,0,0,0,0,0,0,0,0,0,0,0,0,0,0,0,0,0,0,0,0,0,0,0,0,0,0,0,0,0,0,0,0,0,0,0,0,0,0,0],"sum_hessian":[3.0303836E2,2.6237445E2,4.066392E1,8.376574E1,1.7860872E2,2.6788143E1,1.3875778E1,4.514502E1,3.8620716E1,2.3558102E1,1.5505061E2,3.693787E0,1.0181992E1,8.391784E0,3.0228931E1,4.22041E0,1.9337692E1,6.508277E1,8.9967834E1,7.2186694E0,2.9633222E0,1.7258648E0,6.6659184E0,1.4823964E1,1.5404967E1,2.23467E0,1.9857401E0,5.2078595E0,1.4129832E1,9.9238706E-1,6.4090385E1,6.3621456E1,2.6346378E1,1.2265257E0,1.7367965E0,9.886568E-1,7.372079E-1,2.9943237E0,1.182964E1,3.737521E0,1.1667446E1,9.927383E-1,1.2419316E0,9.989852E-1,4.208874E0,7.1693926E0,6.96044E0,2.4276653E1,3.9813736E1,9.8368657E-1,6.263777E1,8.395761E0,1.7950617E1],"tree_param":{"num_deleted":"6","num_feature":"12","num_nodes":"53","size_leaf_vector":"0"}},{"base_weights":[-1.5054607E-1,-7.6605254E-1,2.1413548E-1,-1.169679E0,8.1076753E-1,9.9697644E-1,-9.0648335E-1,-1.3072554E0,-6.594585E-2,2.999545E-2,9.831058E-1,7.639708E-1,1.297942E0,-2.5778183E-1,-1.3210614E0,-1.4033575E0,-3.9336848E-1,-2.5585717E-1,4.6214363E-1,4.8406693E-1,-3.3578694E-1,1.1812502E0,5.147457E-1,-3.7214556E-3,1.2305746E0,8.9085084E-1,1.4159123E0,-9.2952365E-1,6.099591E-1,-1.4019163E0,9.8048806E-2,-4.0393114E-2,-8.259739E-1,-4.5437044E-1,2.1780992E-1,8.124863E-1,3.1766534E-2,8.17206E-1,-4.9865823E-2,2.4558946E-1,-1.0545642E-1,6.386863E-1,1.3084503E0,2.6950827E-1,9.4600123E-1,3.1521392E-1,-1.0008541E0,8.222636E-1,-3.2492112E-3,2.4284309E-1,-1.8661018E-1,-2.4770205E-1,3.671493E-2,8.547888E-2,-5.6848353E-1,4.231906E-1,-2.0147876E-1,8.4603E-2,3.172936E-1,2.1926007E-1,-3.3581638E-1,1.254816E0,-1.8335737E-2,1.5381202E0,9.623095E-1,-1.2535528E0,-4.38029E-1,9.558064E-1,4.2285106E-1,-6.160963E-1,7.8540516E-1,5.64576E-1,-2.6344007E-1],"categories":[],"categories_nodes":[],"categories_segments":[],"categories_sizes":[],"default_left":[1,1,1,1,1,1,1,1,1,1,1,1,1,1,1,0,1,1,1,1,0,0,0,1,1,1,0,1,1,0,1,1,0,1,1,1,1,1,1,1,1,1,1,1,1,0,1,1,1,1,1,1,1,1,1,1,1,1,1,0,0,0,0,0,0,0,0,1,1,0,0,1,1],"id":14,"left_children":[1,3,5,7,9,11,13,15,17,19,21,23,25,27,29,-1,31,-1,-1,-1,-1,-1,-1,39,41,-1,-1,45,47,-1,-1,-1,-1,-1,-1,-1,-1,-1,-1,-1,59,61,63,-1,-1,-1,65,-1,69,-1,-1,-1,-1,-1,-1,-1,-1,-1,-1,-1,-1,-1,-1,-1,-1,-1,-1,-1,-1,-1,-1,-1,-1],"loss_changes":[6.711535E1,7.171571E1,1.6590065E2,1.3419006E1,3.0992374E0,6.8068085E0,2.0603287E1,6.388794E0,1.2124497E0,1.0321698E0,1.1567192E0,2.3327381E1,1.000351E0,1.8990492E1,5.561249E0,0E0,1.3270655E0,9.140356E-1,4.6303993E-1,5.2911496E-1,0E0,0E0,0E0,6.754752E-1,1.0310593E0,2.0004082E-1,0E0,1.9324522E0,1.8767338E0,0E0,1.8886226E-1,1.04327165E-1,0E0,4.44849E-1,3.6392283E-1,0E0,0E0,0E0,0E0,6.229958E-2,1.4864894E0,2.7200854E0,1.2892952E0,0E0,0E0,0E0,1.9347305E0,1.6639805E-1,2.7546391E0,5.955313E-1,0E0,0E0,0E0,0E0,0E0,0E0,0E0,0E0,0E0,0E0,0E0,0E0,0E0,0E0,0E0,0E0,0E0,0E0,0E0,0E0,0E0,0E0,0E0],"parents":[2147483647,0,0,1,1,2,2,3,3,4,4,5,5,6,6,7,7,8,8,9,9,10,10,11,11,12,12,13,13,14,14,16,16,17,17,18,18,19,19,23,23,24,24,25,25,27,27,28,28,30,30,31,31,33,33,34,34,39,39,40,40,41,41,42,42,46,46,47,47,48,48,49,49],"right_children":[2,4,6,8,10,12,14,16,18,20,22,24,26,28,30,-1,32,-1,-1,-1,-1,-1,-1,40,42,-1,-1,46,48,-1,-1,-1,-1,-1,-1,-1,-1,-1,-1,-1,60,62,64,-1,-1,-1,66,-1,70,-1,-1,-1,-1,-1,-1,-1,-1,-1,-1,-1,-1,-1,-1,-1,-1,-1,-1,-1,-1,-1,-1,-1,-1],"split_conditions":[5E-1,4.5E0,5E-1,1.5E0,2.5E0,1.5E0,1.5E0,7.5E0,7.5E0,1.5E0,5.5E0,3E0,4.5E0,4.5E0,7.5E0,-2.806715E-2,2E0,-5.1171435E-3,9.242873E-3,9.681338E-3,-6.7157387E-3,2.3625003E-2,1.0294914E-2,2.5E0,2.5E0,1.7817017E-2,2.8318245E-2,1.5E0,1.5E0,-2.8038325E-2,1.960976E-3,-8.0786226E-4,-1.6519478E-2,-9.087409E-3,4.356198E-3,1.6249726E-2,6.353307E-4,1.634412E-2,-9.973164E-4,4.911789E-3,1.5E0,5.5E0,6.5E0,5.3901654E-3,1.8920025E-2,6.304278E-3,1.5E0,1.6445272E-2,7.5E0,4.8568617E-3,-3.7322035E-3,-4.954041E-3,7.342986E-4,1.7095775E-3,-1.1369671E-2,8.463812E-3,-4.0295753E-3,1.6920599E-3,6.3458723E-3,4.3852013E-3,-6.7163277E-3,2.509632E-2,-3.6671472E-4,3.0762402E-2,1.9246189E-2,-2.5071055E-2,-8.76058E-3,1.9116128E-2,8.457021E-3,-1.2321926E-2,1.5708102E-2,1.1291521E-2,-5.2688015E-3],"split_indices":[7,5,5,10,6,10,0,4,4,4,4,4,4,4,4,0,5,5,5,6,0,0,0,6,6,6,0,6,5,0,5,10,0,2147483647,2147483647,2147483647,2147483647,2147483647,2147483647,4,4,4,4,2147483647,2147483647,0,10,4,4,2147483647,2147483647,2147483647,2147483647,2147483647,2147483647,2147483647,2147483647,2147483647,2147483647,0,0,0,0,0,0,0,0,2147483647,2147483647,0,0,2147483647,2147483647],"split_type":[0,0,0,0,0,0,0,0,0,0,0,0,0,0,0,0,0,0,0,0,0,0,0,0,0,0,0,0,0,0,0,0,0,0,0,0,0,0,0,0,0,0,0,0,0,0,0,0,0,0,0,0,0,0,0,0,0,0,0,0,0,0,0,0,0,0,0,0,0,0,0,0,0],"sum_hessian":[2.9727213E2,1.101914E2,1.8708073E2,8.793933E1,2.2252066E1,1.102045E2,7.6876236E1,7.802892E1,9.91041E0,4.235832E0,1.8016233E1,6.4109634E1,4.6094868E1,3.0606771E1,4.6269463E1,7.0119705E1,7.9092164E0,7.6682577E0,2.2421517E0,1.7455652E0,2.490267E0,1.15906105E1,6.425624E0,2.461053E1,3.94991E1,1.2277882E1,3.3816986E1,1.7211603E1,1.3395168E1,4.3786793E1,2.4826717E0,4.957566E0,2.9516504E0,5.432319E0,2.2359388E0,7.465695E-1,1.4955823E0,7.481977E-1,9.973675E-1,6.722474E0,1.7888056E1,5.6625624E0,3.383654E1,1.4808561E0,1.0797026E1,7.4755186E-1,1.646405E1,9.696971E0,3.6981971E0,1.7429852E0,7.3968655E-1,7.4423903E-1,4.213327E0,9.9169743E-1,4.440622E0,1.4945538E0,7.4138504E-1,2.7432835E0,3.9791906E0,7.4436445E0,1.0444411E1,2.45268E0,3.209882E0,1.827029E1,1.5566249E1,1.0515518E1,5.948533E0,6.22322E0,3.4737515E0,2.2041771E0,1.4940202E0,9.9533236E-1,7.4765295E-1],"tree_param":{"num_deleted":"22","num_feature":"12","num_nodes":"73","size_leaf_vector":"0"}},{"base_weights":[-1.7713453E-1,8.8953775E-1,-1.0614552E0,1.2254841E0,6.3305956E-1,-1.1745071E0,6.863876E-1,8.074536E-1,1.3288461E0,1.5737246E0,4.3675065E-1,1.8074925E0,-1.341583E0,8.195664E-2,1.4695868E0,9.883792E-1,3.174056E-1,-1.1574509E0,6.598408E-1,-8.282386E-1,-1.5282942E0,-7.4657136E-1,1.1149653E0,7.641478E-1,7.199594E-2,3.1357086E-1,1.2256325E0,-1.0073972E0,-1.5245408E-1,1.8944386E-1,-1.5628144E0,1.1296427E-1,1.1962048E0,-8.772786E-3,1.4013826E0,-1.2342776E0,-7.950783E-1,8.624574E-1,-3.337663E-1,-7.0164835E-1,7.9149836E-1],"categories":[],"categories_nodes":[],"categories_segments":[],"categories_sizes":[],"default_left":[1,1,1,1,1,1,1,1,0,0,1,0,1,1,0,1,1,0,1,1,1,0,0,1,1,1,1,1,1,1,0,0,0,0,0,1,1,0,0,0,0],"id":15,"left_children":[1,3,5,7,9,11,13,-1,-1,-1,17,-1,19,21,-1,-1,-1,-1,25,27,29,-1,-1,-1,-1,31,33,-1,37,39,-1,-1,-1,-1,-1,-1,-1,-1,-1,-1,-1],"loss_changes":[2.7839432E2,1.0758385E1,3.2672287E1,1.3849564E0,1.3712429E1,7.8074615E1,4.816265E0,9.1210556E-1,0E0,0E0,2.4201004E1,0E0,1.2570465E1,6.776479E0,0E0,0E0,5.152084E-1,0E0,1.1066378E1,4.772213E0,6.5028534E0,0E0,0E0,0E0,0E0,6.5225677E0,4.751686E0,5.5918884E-1,2.073556E0,2.140128E0,0E0,0E0,0E0,0E0,0E0,0E0,0E0,0E0,0E0,0E0,0E0],"parents":[2147483647,0,0,1,1,2,2,3,3,4,4,5,5,6,6,7,7,10,10,12,12,13,13,16,16,18,18,19,19,20,20,25,25,26,26,27,27,28,28,29,29],"right_children":[2,4,6,8,10,12,14,-1,-1,-1,18,-1,20,22,-1,-1,-1,-1,26,28,30,-1,-1,-1,-1,32,34,-1,38,40,-1,-1,-1,-1,-1,-1,-1,-1,-1,-1,-1],"split_conditions":[5E-1,2.5E0,4.5E0,3E0,5E-1,5E-1,5.5E0,1.6149072E-2,2.6576921E-2,3.1474493E-2,3.5E0,3.614985E-2,2.5E0,5.5E0,2.9391736E-2,1.9767582E-2,6.348112E-3,-2.3149017E-2,4.5E0,1.5E0,5E-1,-1.4931427E-2,2.2299306E-2,1.5282956E-2,1.4399186E-3,7.5E0,3E0,-2.0147944E-2,1.5E0,1.5E0,-3.1256285E-2,2.2592854E-3,2.3924096E-2,-1.7545572E-4,2.802765E-2,-2.4685552E-2,-1.5901566E-2,1.7249148E-2,-6.6753263E-3,-1.4032966E-2,1.5829967E-2],"split_indices":[3,2,2,4,8,8,4,4,0,0,2,0,2,2,0,2147483647,2147483647,0,2,10,9,0,0,2147483647,2147483647,4,4,4,9,4,0,0,0,0,0,2147483647,2147483647,0,0,0,0],"split_type":[0,0,0,0,0,0,0,0,0,0,0,0,0,0,0,0,0,0,0,0,0,0,0,0,0,0,0,0,0,0,0,0,0,0,0,0,0,0,0,0,0],"sum_hessian":[2.9313324E2,1.3286494E2,1.602683E2,5.5885532E1,7.6979416E1,1.5083987E2,9.428419E0,1.2825758E1,4.3059772E1,1.2079721E1,6.48997E1,7.4819703E0,1.433579E2,5.945018E0,3.4834008E0,8.6246395E0,4.2011185E0,7.4529166E0,5.7446777E1,3.968465E1,1.0367325E2,3.4528959E0,2.4921222E0,7.400932E-1,3.4610252E0,3.6600895E1,2.0845882E1,3.0980616E1,8.704037E0,1.9539897E0,1.0171926E2,3.0741825E1,5.85907E0,2.7164671E0,1.8129416E1,1.26498575E1,1.8330757E1,7.4986243E-1,7.954174E0,7.2117126E-1,1.2328185E0],"tree_param":{"num_deleted":"6","num_feature":"12","num_nodes":"41","size_leaf_vector":"0"}},{"base_weights":[-1.6385047E-1,-3.7967837E-1,1.2132877E0,4.9495277E-1,-9.065609E-1,2.2000979E-1,1.2262241E0,1.2139887E0,-5.297521E-1,2.1660647E-1,-1.4374026E0,5.269549E-1,1.4024966E0,9.1384375E-1,1.2839066E0,-1.8630472E-1,-8.653315E-1,-5.17312E-1,4.1089725E-1,-5.5512476E-1,-1.450175E0,8.9562166E-1,-3.0270144E-1,7.7826804E-1,-3.679052E-1,-9.8998094E-1,3.0825147E-1,-5.566847E-1,-5.1683005E-2,-8.3599496E-1,4.7723806E-1,1.0789332E0,2.2043669E-1,-8.103271E-1,5.3863114E-1,1.1768985E-1,9.7219414E-1,-6.072689E-1,1.3668952E-2,-1.2952143E0,-3.7729493E-1,-2.0813769E-1,-7.83121E-1,6.40679E-1,-7.455776E-2,-1.9783838E-1,4.7578728E-1],"categories":[],"categories_nodes":[],"categories_segments":[],"categories_sizes":[],"default_left":[1,1,1,1,1,0,1,1,1,1,1,1,0,1,1,1,1,1,1,1,1,1,1,1,1,1,0,1,1,0,1,1,1,0,0,1,1,0,0,0,0,1,1,0,0,1,1],"id":16,"left_children":[1,3,5,7,9,-1,11,-1,15,17,-1,21,-1,-1,-1,23,25,-1,29,-1,-1,-1,33,-1,37,39,-1,-1,-1,-1,43,-1,-1,-1,-1,-1,-1,-1,-1,-1,-1,-1,-1,-1,-1,-1,-1],"loss_changes":[8.879145E1,1.1919562E2,2.5066376E-1,7.2495255E1,9.64003E1,0E0,4.1623383E0,3.5697937E-2,4.55365E0,7.711976E0,4.2970276E-1,3.2097313E0,0E0,0E0,0E0,4.050949E0,3.291875E0,1.8116689E-1,3.8849173E0,0E0,0E0,6.167102E-1,2.018027E0,3.6291242E-1,1.7222464E0,3.00733E0,0E0,6.6224194E-1,0E0,0E0,3.713769E0,0E0,3.8582182E-1,0E0,0E0,0E0,0E0,0E0,0E0,0E0,0E0,0E0,0E0,0E0,0E0,0E0,0E0],"parents":[2147483647,0,0,1,1,2,2,3,3,4,4,6,6,7,7,8,8,9,9,10,10,11,11,15,15,16,16,17,17,18,18,21,21,22,22,23,23,24,24,25,25,27,27,30,30,32,32],"right_children":[2,4,6,8,10,-1,12,-1,16,18,-1,22,-1,-1,-1,24,26,-1,30,-1,-1,-1,34,-1,38,40,-1,-1,-1,-1,44,-1,-1,-1,-1,-1,-1,-1,-1,-1,-1,-1,-1,-1,-1,-1,-1],"split_conditions":[4.5E0,2.5E0,5E-1,5E-1,5E-1,4.4001956E-3,5E-1,2.4279773E-2,1.5E0,8.5E0,-2.8748052E-2,1.5E0,2.804993E-2,1.8276874E-2,2.5678132E-2,1.5E0,5.5E0,-1.0346239E-2,5E-1,-1.1102495E-2,-2.9003501E-2,1.7912433E-2,1.5E0,1.5565361E-2,5E-1,2.5E0,6.1650295E-3,-1.1133693E-2,-1.03366E-3,-1.6719898E-2,5.5E0,2.1578664E-2,4.408734E-3,-1.6206542E-2,1.0772622E-2,2.353797E-3,1.9443883E-2,-1.2145379E-2,2.7337903E-4,-2.5904285E-2,-7.545898E-3,-4.162754E-3,-1.5662419E-2,1.2813579E-2,-1.4911551E-3,-3.9567677E-3,9.515746E-3],"split_indices":[2,2,11,3,3,0,7,0,0,11,11,0,0,2147483647,2147483647,1,1,1,1,2147483647,2147483647,3,3,7,7,0,0,2147483647,2147483647,0,1,2147483647,2147483647,0,0,2147483647,2147483647,0,0,0,0,2147483647,2147483647,0,0,2147483647,2147483647],"split_type":[0,0,0,0,0,0,0,0,0,0,0,0,0,0,0,0,0,0,0,0,0,0,0,0,0,0,0,0,0,0,0,0,0,0,0,0,0,0,0,0,0,0,0,0,0,0,0],"sum_hessian":[2.9618512E2,2.5668173E2,3.9503384E1,9.651925E1,1.6016248E2,7.3937714E-1,3.8764004E1,5.6610744E1,3.990851E1,5.1592926E1,1.0856956E2,8.607536E0,3.0156467E1,1.335413E1,4.3256615E1,2.049162E1,1.9416887E1,1.0451316E1,4.114161E1,2.1837833E0,1.0638577E2,5.904361E0,2.7031758E0,2.7261329E0,1.7765486E1,1.7694006E1,1.7228824E0,9.456166E0,9.951495E-1,1.4922819E0,3.9649326E1,4.173328E0,1.7310332E0,1.70893E0,9.942457E-1,9.833586E-1,1.7427742E0,1.0553641E1,7.2118454E0,1.1066704E1,6.627302E0,4.47977E0,4.976396E0,3.0464666E1,9.18466E0,7.4155813E-1,9.8947513E-1],"tree_param":{"num_deleted":"14","num_feature":"12","num_nodes":"47","size_leaf_vector":"0"}},{"base_weights":[-1.8856558E-1,8.2601583E-1,-1.0376781E0,9.150435E-1,4.1186896E-1,-7.1628493E-1,-1.3054657E0,2.4759136E-1,1.0475651E0,5.478458E-1,-7.262345E-1,-8.8320464E-1,6.5335083E-1,-1.3562083E0,3.2277784E-1,8.641695E-1,-2.3970029E-1,1.3287009E0,8.408531E-1,8.983158E-1,2.2843343E-1,-1.0273082E0,-2.6068566E-2,-2.3430818E-1,-1.2681563E0,-4.087054E-2,1.1535327E0,3.755895E-1,-1.3856388E0,-9.274534E-2,7.882061E-1,7.6517665E-1,-3.7480867E-1,8.793506E-1,1.1043534E-1,-4.5751223E-1,1.3421932E-1,1.3718374E-1,-1.3041034E0,-2.5045872E-1,2.0085675E-1,-7.713627E-1,8.609401E-1,-6.306386E-1,3.0388266E-1,-5.5018646E-1,5.1256895E-1,-5.767964E-1,2.8503314E-1,-7.22323E-2,-1.3392823E0],"categories":[],"categories_nodes":[],"categories_segments":[],"categories_sizes":[],"default_left":[1,1,1,1,1,1,1,1,1,1,1,1,1,1,1,0,1,0,0,0,1,1,1,1,1,1,0,0,0,1,1,0,1,0,1,1,1,0,1,1,1,0,0,0,0,0,0,0,0,0,0],"id":17,"left_children":[1,3,5,7,9,11,13,15,17,19,-1,23,25,27,-1,-1,31,-1,-1,-1,33,-1,-1,35,37,-1,-1,-1,-1,-1,-1,-1,41,-1,43,45,47,-1,49,-1,-1,-1,-1,-1,-1,-1,-1,-1,-1,-1,-1],"loss_changes":[2.5959225E2,4.688797E0,1.3174622E1,9.670525E0,4.4412217E0,1.8118732E1,7.726059E0,6.1881976E0,4.3081055E0,2.4712648E0,6.5167344E-1,1.6893383E1,3.14104E0,4.890396E0,7.44914E-1,0E0,1.9026961E0,0E0,0E0,0E0,9.6664256E-1,0E0,0E0,2.2701035E0,2.349533E0,2.8827384E-1,0E0,0E0,0E0,0E0,0E0,0E0,6.1342373E0,0E0,2.0363731E0,1.8058057E0,1.3333944E0,0E0,1.7229843E0,0E0,0E0,0E0,0E0,0E0,0E0,0E0,0E0,0E0,0E0,0E0,0E0],"parents":[2147483647,0,0,1,1,2,2,3,3,4,4,5,5,6,6,7,7,8,8,9,9,10,10,11,11,12,12,13,13,14,14,16,16,20,20,23,23,24,24,25,25,32,32,34,34,35,35,36,36,38,38],"right_children":[2,4,6,8,10,12,14,16,18,20,-1,24,26,28,-1,-1,32,-1,-1,-1,34,-1,-1,36,38,-1,-1,-1,-1,-1,-1,-1,42,-1,44,46,48,-1,50,-1,-1,-1,-1,-1,-1,-1,-1,-1,-1,-1,-1],"split_conditions":[5E-1,1.5E0,1.5E0,8.5E0,5E-1,4.5E0,4.5E0,2.5E0,2.5E0,2.5E0,-1.452469E-2,2.5E0,5E-1,5E-1,6.4555565E-3,1.728339E-2,1E0,2.6574017E-2,1.6817061E-2,1.7966315E-2,1.5E0,-2.0546164E-2,-5.213713E-4,1.5E0,5E-1,-8.1741076E-4,2.3070654E-2,7.5117894E-3,-2.7712775E-2,-1.8549068E-3,1.5764121E-2,1.5303533E-2,4.5E0,1.7587012E-2,3.5E0,1.5E0,7E0,2.7436747E-3,3.5E0,-5.0091743E-3,4.0171347E-3,-1.5427254E-2,1.7218802E-2,-1.2612771E-2,6.0776533E-3,-1.1003729E-2,1.0251379E-2,-1.1535928E-2,5.7006627E-3,-1.4446459E-3,-2.6785646E-2],"split_indices":[3,5,5,11,7,2,2,2,2,2,2,2,7,9,7,0,9,0,0,0,9,2147483647,2147483647,3,9,3,0,0,0,2147483647,2147483647,0,2,0,2,2,11,0,11,2147483647,2147483647,0,0,0,0,0,0,0,0,0,0],"split_type":[0,0,0,0,0,0,0,0,0,0,0,0,0,0,0,0,0,0,0,0,0,0,0,0,0,0,0,0,0,0,0,0,0,0,0,0,0,0,0,0,0,0,0,0,0,0,0,0,0,0,0],"sum_hessian":[2.993331E2,1.3639073E2,1.6294235E2,1.11263374E2,2.5127357E1,7.572888E1,8.721347E1,1.890677E1,9.2356606E1,2.290891E1,2.218448E0,6.781885E1,7.9100375E0,8.4739716E1,2.473757E0,8.00478E0,1.0901992E1,3.6833687E1,5.552292E1,1.0059207E1,1.2849703E1,1.2246212E0,9.938267E-1,2.5851223E1,4.1967625E1,3.6970508E0,4.212987E0,1.2194786E0,8.352023E1,1.7299925E0,7.437644E-1,7.393799E-1,1.0162612E1,9.817568E-1,1.1867946E1,1.5949635E1,9.901588E0,9.7647023E-1,4.0991154E1,1.960816E0,1.7362347E0,7.97819E0,2.1844225E0,1.9888588E0,9.879087E0,1.4953897E1,9.957372E-1,1.2384279E0,8.66316E0,1.2228699E0,3.9768284E1],"tree_param":{"num_deleted":"6","num_feature":"12","num_nodes":"51","size_leaf_vector":"0"}},{"base_weights":[-1.5064774E-1,-4.3942186E-1,7.100586E-1,1.230318E0,-7.153365E-1,1.5878738E0,4.3941885E-1,1.3313711E0,-3.6822185E-1,4.363571E-1,-1.3006017E0,1.0578827E0,-6.135954E-1,1.6771564E0,6.528328E-1,4.8106974E-1,2.928609E-1,-1.066601E0,-1.4386437E0,1.1354951E0,1.0784121E-1,-8.8598984E-1,-2.6617897E-1,-4.975242E-2,7.96726E-1,1.0392656E0,2.6965457E-1,-1.0222112E0,5.6308585E-1,1.4487475E-1,-1.1298715E0,-7.8299433E-1,-1.4867523E0,4.6244067E-1,1.1988474E0,-2.7860832E-1,2.844775E-1,-8.936656E-1,-1.2020074E-1,1.9092727E-1,-3.286884E-1,1.1537287E0,-4.5464623E-1,2.1339469E-1,1.0716317E0,-1.1167405E-1,3.7401572E-1,2.58305E-3,7.674749E-1,5.241965E-1,-2.2073035E-1,-1.2950166E0,-8.7049425E-1,6.8654996E-1,-1.8933593E-1,5.840458E-1,-3.2987705E-1],"categories":[],"categories_nodes":[],"categories_segments":[],"categories_sizes":[],"default_left":[1,1,1,1,1,0,1,1,0,1,1,1,1,0,1,1,1,1,1,1,1,0,1,1,1,1,1,0,1,1,1,0,0,1,1,1,1,0,1,1,1,0,0,1,1,0,0,0,0,1,1,1,1,1,1,0,0],"id":18,"left_children":[1,3,5,7,9,-1,11,13,-1,15,17,19,21,-1,23,25,27,29,31,-1,-1,-1,37,-1,41,-1,45,-1,47,-1,-1,-1,-1,-1,-1,-1,-1,-1,55,-1,-1,-1,-1,-1,-1,-1,-1,-1,-1,-1,-1,-1,-1,-1,-1,-1,-1],"loss_changes":[7.481791E1,1.0457274E2,1.7283836E1,5.705555E0,1.3118956E2,0E0,3.9226067E1,6.0806313E0,0E0,2.8286648E-1,2.6241913E0,2.6562195E0,1.8982182E0,0E0,1.2488847E0,5.478571E0,7.059723E0,4.121567E0,1.2995605E0,9.266281E-1,3.4895888E-1,0E0,9.313126E-1,2.6244736E-1,4.986028E0,1.2027931E-1,1.5040295E0,0E0,1.8058953E0,5.940487E-1,9.795799E-1,0E0,0E0,8.0425394E-1,0E0,0E0,0E0,0E0,1.7217412E0,0E0,0E0,0E0,0E0,0E0,0E0,0E0,0E0,0E0,0E0,0E0,0E0,0E0,0E0,0E0,0E0,0E0,0E0],"parents":[2147483647,0,0,1,1,2,2,3,3,4,4,6,6,7,7,9,9,10,10,11,11,12,12,14,14,15,15,16,16,17,17,18,18,19,19,20,20,22,22,23,23,24,24,25,25,26,26,28,28,29,29,30,30,33,33,38,38],"right_children":[2,4,6,8,10,-1,12,14,-1,16,18,20,22,-1,24,26,28,30,32,-1,-1,-1,38,-1,42,-1,46,-1,48,-1,-1,-1,-1,-1,-1,-1,-1,-1,56,-1,-1,-1,-1,-1,-1,-1,-1,-1,-1,-1,-1,-1,-1,-1,-1,-1,-1],"split_conditions":[1.5E0,1.5E0,5E-1,2.5E0,5E-1,3.1757474E-2,5E-1,5E-1,-7.364437E-3,1E0,1.5E0,1.5E0,1.5E0,3.354313E-2,8E0,5E-1,4E0,3.5E0,5E-1,2.27099E-2,2.156824E-3,-1.7719796E-2,7E0,-9.950484E-4,5E-1,2.0785313E-2,5.5E0,-2.0444224E-2,3E0,2.897495E-3,-2.2597428E-2,-1.5659885E-2,-2.9735046E-2,9.248814E-3,2.3976948E-2,-5.5721663E-3,5.6895497E-3,-1.7873311E-2,3E0,3.8185453E-3,-6.5737683E-3,2.3074575E-2,-9.092924E-3,4.2678937E-3,2.1432633E-2,-2.2334808E-3,7.480314E-3,5.1660998E-5,1.5349497E-2,1.048393E-2,-4.414607E-3,-2.5900332E-2,-1.7409885E-2,1.3730999E-2,-3.7867185E-3,1.1680916E-2,-6.597541E-3],"split_indices":[10,8,8,3,3,0,3,8,0,5,5,5,3,0,11,10,5,11,10,11,5,0,11,11,3,11,11,0,6,11,3,0,0,2147483647,2147483647,2147483647,2147483647,0,6,2147483647,2147483647,0,0,2147483647,2147483647,0,0,0,0,2147483647,2147483647,2147483647,2147483647,2147483647,2147483647,0,0],"split_type":[0,0,0,0,0,0,0,0,0,0,0,0,0,0,0,0,0,0,0,0,0,0,0,0,0,0,0,0,0,0,0,0,0,0,0,0,0,0,0,0,0,0,0,0,0,0,0,0,0,0,0,0,0,0,0,0,0],"sum_hessian":[2.9876254E2,2.2407349E2,7.468905E1,3.128549E1,1.92788E2,1.6453924E1,5.8235123E1,2.9582539E1,1.7029524E0,6.50453E1,1.277427E2,3.6684624E1,2.1550499E1,1.8621326E1,1.0961212E1,4.7798923E1,1.724638E1,5.0635338E1,7.710736E1,3.3733597E1,2.9510272E0,1.1210556E1,1.0339944E1,1.9745152E0,8.986697E0,1.2054879E1,3.574404E1,2.4654157E0,1.4780964E1,2.4492054E0,4.8186134E1,6.4519753E0,7.065539E1,3.6160674E0,3.011753E1,7.446226E-1,2.2064044E0,9.848145E-1,9.355129E0,1.2293164E0,7.451987E-1,7.0526752E0,1.9340217E0,7.4097294E-1,1.1313907E1,7.6653385E0,2.8078705E1,4.220255E0,1.0560708E1,9.891583E-1,1.4600471E0,2.7001509E1,2.1184624E1,2.6511383E0,9.649289E-1,1.7366668E0,7.6184626E0],"tree_param":{"num_deleted":"14","num_feature":"12","num_nodes":"57","size_leaf_vector":"0"}},{"base_weights":[-1.7935716E-1,-4.514478E-1,6.038575E-1,-8.673507E-1,-1.3462733E-1,1.3453989E0,4.801861E-1,4.8752993E-1,-9.0429235E-1,6.059686E-1,-3.1494203E-1,8.265587E-3,6.916798E-1,-1.0296162E0,1.5905681E-1,-1.7204171E-1,1.078844E0,-9.0498585E-1,2.748257E-1,-5.4622287E-1,-1.1995952E0,-5.5094454E-2,1.0012758E0,7.276853E-1,-4.9901742E-1,1.6980831E-1,-1.1431307E0,5.986276E-2,1.0879123E0,-6.105657E-1,-1.4646402E-1,-1.0361485E0,-1.4413269E0,1.0995353E0,-8.660368E-1,7.3370624E-1,-4.245088E-1,-4.535298E-1,-1.2309502E0,-2.2759198E-1,1.122996E0],"categories":[],"categories_nodes":[],"categories_segments":[],"categories_sizes":[],"default_left":[1,1,1,1,1,0,0,1,1,1,1,1,1,1,1,1,0,1,1,1,1,0,0,0,1,1,1,1,0,1,1,1,1,0,0,0,0,0,0,0,0],"id":19,"left_children":[1,3,5,7,9,-1,-1,-1,13,15,17,-1,-1,19,21,23,-1,25,27,-1,-1,-1,-1,-1,33,35,37,39,-1,-1,-1,-1,-1,-1,-1,-1,-1,-1,-1,-1,-1],"loss_changes":[6.384941E1,2.9133709E1,6.447336E0,5.23584E0,1.7175362E1,0E0,0E0,3.066383E-1,1.2638306E1,9.473342E0,3.6071114E1,0E0,0E0,6.236305E0,1.9914398E0,3.424441E0,0E0,1.3424908E1,9.067264E0,5.190458E-1,9.252548E-1,0E0,0E0,0E0,5.7781153E0,3.7454605E0,2.012207E0,1.3207837E1,0E0,0E0,0E0,0E0,0E0,0E0,0E0,0E0,0E0,0E0,0E0,0E0,0E0],"parents":[2147483647,0,0,1,1,2,2,3,3,4,4,7,7,8,8,9,9,10,10,13,13,14,14,15,15,17,17,18,18,19,19,20,20,24,24,25,25,26,26,27,27],"right_children":[2,4,6,8,10,-1,-1,-1,14,16,18,-1,-1,20,22,24,-1,26,28,-1,-1,-1,-1,-1,34,36,38,40,-1,-1,-1,-1,-1,-1,-1,-1,-1,-1,-1,-1,-1],"split_conditions":[1.5E0,5E-1,1.5E0,5E-1,5E-1,2.6907977E-2,9.603722E-3,9.750598E-3,7.5E0,3E0,3E0,1.6531172E-4,1.3833595E-2,2.5E0,4.5E0,2E0,2.1576878E-2,1.5E0,4.5E0,-1.0924457E-2,-2.3991903E-2,-1.1018891E-3,2.0025516E-2,1.4553705E-2,1.5E0,1.5E0,1.5E0,7.5E0,2.1758245E-2,-1.2211314E-2,-2.9292803E-3,-2.072297E-2,-2.8826537E-2,2.1990707E-2,-1.7320735E-2,1.4674124E-2,-8.490176E-3,-9.070596E-3,-2.4619004E-2,-4.5518395E-3,2.2459919E-2],"split_indices":[10,7,9,9,10,0,0,4,4,4,4,2147483647,2147483647,2,2,2,0,2,2,4,4,0,0,0,9,4,9,4,0,2147483647,2147483647,2147483647,2147483647,0,0,0,0,0,0,0,0],"split_type":[0,0,0,0,0,0,0,0,0,0,0,0,0,0,0,0,0,0,0,0,0,0,0,0,0,0,0,0,0,0,0,0,0,0,0,0,0,0,0,0,0],"sum_hessian":[2.9733502E2,2.2098714E2,7.634786E1,9.480074E1,1.2618639E2,9.500924E0,6.684694E1,2.1924553E0,9.260829E1,2.4245142E1,1.0194125E2,9.657465E-1,1.2267087E0,8.287281E1,9.735477E0,9.405947E0,1.4839195E1,5.0691525E1,5.1249733E1,2.265605E1,6.0216763E1,8.506988E0,1.22849E0,2.1804848E0,7.2254615E0,9.24663E0,4.1444893E1,4.1382656E1,9.867077E0,1.90608E1,3.5952492E0,3.907952E1,2.1137243E1,9.7649336E-1,6.248968E0,4.624393E0,4.622237E0,5.3780675E0,3.6066826E1,3.3193558E1,8.189099E0],"tree_param":{"num_deleted":"6","num_feature":"12","num_nodes":"41","size_leaf_vector":"0"}},{"base_weights":[-1.3203487E-1,-3.793432E-1,9.637833E-1,3.7912875E-1,-7.1507764E-1,7.4301136E-1,1.4310386E0,1.1774852E0,-2.2316118E-1,3.996866E-1,-1.1607753E0,1.2523417E0,2.244149E-2,1.8229893E-1,1.2601464E0,-6.937148E-1,5.6954347E-2,-2.7364941E-2,1.335553E0,-1.2785273E0,3.4523615E-1,1.026205E0,-1.0099087E-1,5.9223753E-1,-3.487261E-1,8.307497E-1,1.3979071E0,-5.3654814E-1,-1.0394588E0,-3.080628E-1,1.191982E-1,1.6672122E-1,-1.5691576E0,5.1338094E-1,1.4855864E0,-8.259349E-2,-1.3231299E0,9.67638E-1,1.6091004E-1,-2.2920783E-1,-5.6879586E-1,-6.22003E-1,5.3126987E-2,-4.4106296E-3,1.0324969E0,-7.726052E-1,3.907662E-1,-6.4542377E-1,3.147167E-1,1.4372657E-1,-1.351056E0,2.7663894E-2,3.7392515E-1],"categories":[],"categories_nodes":[],"categories_segments":[],"categories_sizes":[],"default_left":[1,1,1,1,1,1,0,1,1,1,1,0,1,1,1,1,1,1,1,1,1,0,0,0,0,1,1,1,1,1,1,1,0,0,0,1,1,1,1,1,1,1,1,0,0,0,0,0,0,0,0,1,1],"id":20,"left_children":[1,3,5,7,9,11,-1,13,15,17,19,-1,21,23,-1,-1,29,31,33,35,-1,-1,-1,-1,-1,-1,-1,-1,-1,-1,43,45,-1,-1,-1,47,49,-1,-1,-1,-1,-1,-1,-1,-1,-1,-1,-1,-1,-1,-1,-1,-1],"loss_changes":[8.128377E1,6.2487255E1,4.6372337E0,3.662381E1,8.4781685E1,1.4508612E1,0E0,2.4583359E0,5.831628E0,1.9705956E1,2.1985992E1,0E0,2.2620616E0,1.0065556E0,6.1338425E-1,3.374381E-1,6.835541E-1,1.0667421E1,1.1420135E0,5.912628E0,9.4538224E-1,0E0,0E0,0E0,0E0,0E0,0E0,2.357006E-3,0E0,5.349724E-1,2.8317273E0,6.992151E0,0E0,0E0,0E0,1.3492965E0,4.649658E0,0E0,2.338712E-1,0E0,0E0,0E0,0E0,0E0,0E0,0E0,0E0,0E0,0E0,0E0,0E0,0E0,0E0],"parents":[2147483647,0,0,1,1,2,2,3,3,4,4,5,5,7,7,8,8,9,9,10,10,12,12,13,13,14,14,15,15,16,16,17,17,18,18,19,19,20,20,27,27,29,29,30,30,31,31,35,35,36,36,38,38],"right_children":[2,4,6,8,10,12,-1,14,16,18,20,-1,22,24,-1,-1,30,32,34,36,-1,-1,-1,-1,-1,-1,-1,-1,-1,-1,44,46,-1,-1,-1,48,50,-1,-1,-1,-1,-1,-1,-1,-1,-1,-1,-1,-1,-1,-1,-1,-1],"split_conditions":[7.5E0,2.5E0,4.5E0,5E-1,5E-1,5E-1,2.8620772E-2,5.5E0,5E-1,4.5E0,4.5E0,2.5046835E-2,5E-1,3.5E0,2.5202926E-2,-1.3874296E-2,5.5E0,6.5E0,3E0,3.5E0,6.904723E-3,2.0524098E-2,-2.0198172E-3,1.18447505E-2,-6.9745216E-3,1.6614994E-2,2.7958142E-2,-1.0730962E-2,-2.0789174E-2,-6.1612558E-3,1.5E0,3.5E0,-3.1383153E-2,1.0267619E-2,2.9711727E-2,3.5E0,5E-1,1.935276E-2,3.2182008E-3,-4.5841564E-3,-1.1375917E-2,-1.244006E-2,1.0625398E-3,-8.821259E-5,2.0649938E-2,-1.5452104E-2,7.815324E-3,-1.29084755E-2,6.294334E-3,2.8745313E-3,-2.702112E-2,5.5327785E-4,7.478503E-3],"split_indices":[4,2,2,5,5,5,0,11,2,2,2,0,9,11,4,4,11,4,4,11,11,0,0,0,0,2147483647,2147483647,2147483647,2147483647,6,2,2,0,0,0,2,9,2147483647,2147483647,2147483647,2147483647,2147483647,2147483647,0,0,0,0,0,0,0,0,2147483647,2147483647],"split_type":[0,0,0,0,0,0,0,0,0,0,0,0,0,0,0,0,0,0,0,0,0,0,0,0,0,0,0,0,0,0,0,0,0,0,0,0,0,0,0,0,0,0,0,0,0,0,0,0,0,0,0,0,0],"sum_hessian":[2.975855E2,2.4332487E2,5.426064E1,7.461951E1,1.6870537E2,3.8608696E1,1.5651942E1,3.1676363E1,4.2943146E1,4.821496E1,1.2049041E2,2.2187565E1,1.6421131E1,2.6751132E0,2.900125E1,1.5473452E1,2.7469694E1,3.377405E1,1.4440907E1,1.118928E2,8.597611E0,9.97277E-1,1.5423855E1,1.4446249E0,1.2304883E0,8.751973E0,2.0249275E1,1.2392153E1,3.0812988E0,3.4264786E0,2.4043217E1,3.078997E1,2.9840822E0,2.9109392E0,1.1529967E1,4.1255713E0,1.0776723E2,9.9346036E-1,7.604151E0,1.9466933E0,1.0445459E1,1.4468265E0,1.9796523E0,2.2053583E1,1.9896333E0,5.458083E0,2.5331886E1,1.4487649E0,2.6768062E0,1.9358712E0,1.0583135E2,5.3730474E0,2.2311037E0],"tree_param":{"num_deleted":"12","num_feature":"12","num_nodes":"53","size_leaf_vector":"0"}},{"base_weights":[-1.310019E-1,-3.3301157E-1,1.1618166E0,-8.255453E-1,-1.1286029E-2,4.3026906E-1,1.3371376E0,-9.1042024E-1,-6.554997E-2,-2.4248986E-1,5.165147E-1,1.4604652E-1,4.9995118E-1,1.4157007E0,9.385267E-2,2.1604562E-1,-9.67633E-1,-2.2892456E-1,-3.1584676E-2,3.0383816E-1,-3.0886102E-1,1.2882161E0,3.6352506E-1,-1.050085E0,-2.068677E-1,8.7650913E-1,-4.6826702E-1,-2.7343062E-1,4.948291E-1,1.3558799E-1,-4.1644987E-1,-6.4807373E-1,4.3118986E-1,-4.7565338E-1,-1.3099742E0,4.8053324E-1,-5.107132E-1,4.0814096E-1,-1.0397756E0,1.0741969E-1,-4.0308216E-1,6.635859E-1,-4.6859503E-1,9.9595577E-1,-7.683274E-1,5.120789E-1,-8.7445456E-1,2.246836E-1,-1.0343007E0,7.2239316E-1,8.342678E-2],"categories":[],"categories_nodes":[],"categories_segments":[],"categories_sizes":[],"default_left":[1,1,1,1,1,1,1,1,1,1,1,1,1,0,0,0,1,0,1,1,1,0,1,1,1,0,1,1,1,1,1,1,1,0,0,0,0,0,0,1,1,0,0,0,0,0,0,0,0,0,0],"id":21,"left_children":[1,3,5,7,9,-1,13,15,17,19,21,-1,-1,-1,-1,-1,23,-1,25,27,29,-1,31,33,35,-1,37,-1,41,43,45,47,49,-1,-1,-1,-1,-1,-1,-1,-1,-1,-1,-1,-1,-1,-1,-1,-1,-1,-1],"loss_changes":[7.58772E1,3.9727905E1,4.4632607E0,6.330719E0,1.8759306E1,1.066041E-1,2.9162064E0,5.9474716E0,5.3975545E-2,3.968874E0,5.0610895E0,0E0,0E0,0E0,0E0,0E0,5.1093826E0,0E0,4.4915566E0,1.4672166E0,4.6367455E0,0E0,3.0502071E0,1.0777939E1,2.2398174E0,0E0,4.2317467E0,2.2339636E-1,1.8446422E0,1.5870118E1,3.3348263E1,1.2225223E0,3.8428216E0,0E0,0E0,0E0,0E0,0E0,0E0,0E0,0E0,0E0,0E0,0E0,0E0,0E0,0E0,0E0,0E0,0E0,0E0],"parents":[2147483647,0,0,1,1,2,2,3,3,4,4,5,5,6,6,7,7,8,8,9,9,10,10,16,16,18,18,19,19,20,20,22,22,23,23,24,24,26,26,27,27,28,28,29,29,30,30,31,31,32,32],"right_children":[2,4,6,8,10,-1,14,16,18,20,22,-1,-1,-1,-1,-1,24,-1,26,28,30,-1,32,34,36,-1,38,-1,42,44,46,48,50,-1,-1,-1,-1,-1,-1,-1,-1,-1,-1,-1,-1,-1,-1,-1,-1,-1,-1],"split_conditions":[4.5E0,5E-1,5E-1,1.5E0,1.5E0,8.6053815E-3,6.5E0,1.5E0,6E0,1.5E0,1.5E0,2.9209303E-3,9.999024E-3,2.8314013E-2,1.8770533E-3,4.320912E-3,4.5E0,-4.578491E-3,3E0,3E0,3E0,2.5764322E-2,5E-1,2.5E0,2E0,1.7530182E-2,2.5E0,-5.468612E-3,5E0,2.5E0,2.5E0,5E-1,2.5E0,-9.513067E-3,-2.6199482E-2,9.610665E-3,-1.02142645E-2,8.162819E-3,-2.0795511E-2,2.1483938E-3,-8.061643E-3,1.3271717E-2,-9.3719E-3,1.9919114E-2,-1.5366548E-2,1.0241577E-2,-1.748909E-2,4.493672E-3,-2.0686014E-2,1.4447863E-2,1.6685356E-3],"split_indices":[2,7,7,10,10,1,1,9,11,9,9,2147483647,2147483647,0,0,0,1,0,1,1,1,0,1,2,2,0,2,2,1,2,2,2,2,0,0,0,0,0,0,2147483647,2147483647,0,0,0,0,0,0,0,0,0,0],"split_type":[0,0,0,0,0,0,0,0,0,0,0,0,0,0,0,0,0,0,0,0,0,0,0,0,0,0,0,0,0,0,0,0,0,0,0,0,0,0,0,0,0,0,0,0,0,0,0,0,0,0,0],"sum_hessian":[2.880557E2,2.4977022E2,3.828549E1,9.8069046E1,1.5170117E2,8.06935E0,3.0216137E1,8.803908E1,1.0029974E1,1.05866684E2,4.5834476E1,2.198383E0,5.870968E0,2.8289827E1,1.9263086E0,4.121159E0,8.3917915E1,7.3837966E-1,9.291594E0,1.1080523E1,9.478616E1,6.3556104E0,3.9478867E1,7.5369095E1,8.548823E0,2.690149E0,6.6014447E0,2.6473331E0,8.433188E0,1.8422533E1,7.636363E1,1.9373592E0,3.7541508E1,2.4358923E1,5.101017E1,2.442212E0,6.1066113E0,2.7184925E0,3.8829525E0,7.1588904E-1,1.9314442E0,7.4410157E0,9.921733E-1,9.386459E0,9.036075E0,2.5185707E1,5.1177925E1,7.226489E-1,1.2147102E0,1.9845991E1,1.7695518E1],"tree_param":{"num_deleted":"4","num_feature":"12","num_nodes":"51","size_leaf_vector":"0"}},{"base_weights":[-1.3384612E-1,-3.8859433E-1,6.1328477E-1,1.670198E0,-5.913489E-1,1.5472535E0,3.544604E-1,5.4139054E-1,-7.090338E-1,1.2640877E0,1.7991401E-1,8.6226803E-1,7.401829E-2,3.3424664E-1,-7.876533E-1,-2.53621E-1,2.9597682E-1,5.718058E-1,1.2386072E0,-7.340552E-2,7.314404E-1,1.1263134E-1,1.0901098E0,-9.0393364E-1,5.809173E-1,2.916559E-1,-6.833894E-1,9.70939E-2,1.0075899E0,8.2125664E-1,-8.266219E-1,-1.4987786E-1,2.9669204E-1,3.942459E-2,4.4367763E-1,-9.5543253E-1,-4.759622E-1,7.8397685E-1,-3.40218E-1,8.54008E-1,-1.6705394E-1,-6.411709E-1,1.6390814E-1,-4.8172593E-1,1.1986929E0],"categories":[],"categories_nodes":[],"categories_segments":[],"categories_sizes":[],"default_left":[1,1,1,0,1,0,1,1,1,0,1,1,1,1,1,1,1,1,0,1,1,1,0,1,1,1,0,1,1,0,0,1,1,1,1,0,0,0,0,0,0,0,0,0,0],"id":22,"left_children":[1,3,5,-1,7,-1,9,11,13,-1,15,17,-1,21,23,25,27,29,-1,-1,-1,-1,-1,35,37,39,-1,41,43,-1,-1,-1,-1,-1,-1,-1,-1,-1,-1,-1,-1,-1,-1,-1,-1],"loss_changes":[5.549151E1,9.161104E1,1.7388933E1,0E0,2.6828316E1,0E0,9.203453E0,2.821159E0,1.5038475E1,0E0,2.6413417E0,5.283289E-1,9.1868883E-1,2.1093893E0,2.7230171E1,2.8494954E0,5.661338E0,3.5540428E0,0E0,2.7651495E-1,0E0,2.592595E-1,0E0,2.9627914E0,2.8386383E0,1.6092812E0,0E0,1.7284724E0,3.0769272E0,0E0,0E0,0E0,0E0,0E0,0E0,0E0,0E0,0E0,0E0,0E0,0E0,0E0,0E0,0E0,0E0],"parents":[2147483647,0,0,1,1,2,2,4,4,6,6,7,7,8,8,10,10,11,11,12,12,13,13,14,14,15,15,16,16,17,17,19,19,21,21,23,23,24,24,25,25,27,27,28,28],"right_children":[2,4,6,-1,8,-1,10,12,14,-1,16,18,-1,22,24,26,28,30,-1,-1,-1,-1,-1,36,38,40,-1,42,44,-1,-1,-1,-1,-1,-1,-1,-1,-1,-1,-1,-1,-1,-1,-1,-1],"split_conditions":[1.5E0,5E-1,5E-1,3.340396E-2,1.5E0,3.0945068E-2,1.5E0,5E-1,1.5E0,2.5281753E-2,5E-1,4.5E0,1.4803658E-3,4.5E0,4.5E0,3.5E0,4.5E0,5.5E0,2.4772143E-2,-1.4681104E-3,1.4628808E-2,2.252627E-3,2.1802196E-2,4.5E0,6.5E0,3E0,-1.3667788E-2,5E-1,1.5E0,1.6425133E-2,-1.6532438E-2,-2.9975572E-3,5.9338408E-3,7.884918E-4,8.873552E-3,-1.910865E-2,-9.519244E-3,1.5679536E-2,-6.80436E-3,1.708016E-2,-3.3410788E-3,-1.2823418E-2,3.2781628E-3,-9.634518E-3,2.3973858E-2],"split_indices":[10,8,8,0,9,0,9,9,8,0,7,2,2,2,2,2,2,1,0,2147483647,2147483647,1,0,1,1,1,0,1,8,0,0,2147483647,2147483647,2147483647,2147483647,0,0,0,0,0,0,0,0,0,0],"split_type":[0,0,0,0,0,0,0,0,0,0,0,0,0,0,0,0,0,0,0,0,0,0,0,0,0,0,0,0,0,0,0,0,0,0,0,0,0,0,0,0,0,0,0,0,0],"sum_hessian":[2.8930164E2,2.1609865E2,7.320298E1,1.8725033E1,1.9737361E2,1.4804151E1,5.839883E1,1.823716E1,1.7913646E2,8.396961E0,5.000187E1,1.0312273E1,7.924886E0,1.2325523E1,1.6681094E2,1.0308992E1,3.969288E1,7.2421217E0,3.0701509E0,7.1989083E0,7.259778E-1,1.0419569E1,1.905955E0,1.5406071E2,1.2750228E1,4.6855173E0,5.6234746E0,3.1910826E1,7.7820535E0,6.4960823E0,7.460395E-1,6.4592757E0,7.3963255E-1,9.449107E0,9.7046137E-1,1.364133E2,1.7647415E1,1.0569203E1,2.1810248E0,1.7178142E0,2.9677033E0,1.9348917E0,2.9975933E1,7.120552E-1,7.0699983E0],"tree_param":{"num_deleted":"6","num_feature":"12","num_nodes":"45","size_leaf_vector":"0"}},{"base_weights":[-1.2177528E-1,8.18045E-1,-9.52052E-1,1.5269395E0,6.481404E-1,1.7487544E0,-1.1304512E0,2.2185269E-1,7.418882E-1,-9.011291E-1,-1.3104333E0,-4.016401E-2,3.005556E-1,-1.06579E0,-7.432669E-1,-1.4027112E0,-1.0957421E0,1.0540467E-1,-1.9546078E-1,-1.0150039E0,4.4476008E-1,-9.3063974E-1,-4.3116668E-1,9.111708E-1,-5.174081E-1,-3.5249716E-1,-7.3559633E-3,9.265304E-1,1.2453877E-1,-1.0765736E0,7.139298E-1,-6.2130755E-1,1.0368754E0],"categories":[],"categories_nodes":[],"categories_segments":[],"categories_sizes":[],"default_left":[1,1,1,0,1,0,1,1,0,1,1,1,1,0,1,1,1,1,1,0,1,1,1,0,0,1,1,0,0,0,0,0,0],"id":23,"left_children":[1,3,5,-1,7,-1,9,11,-1,13,-1,17,19,-1,21,-1,-1,23,-1,-1,27,29,31,-1,-1,-1,-1,-1,-1,-1,-1,-1,-1],"loss_changes":[2.3209238E2,1.5822464E1,7.803418E1,0E0,4.4046326E0,0E0,4.955719E0,4.6652722E-1,0E0,9.9048996E-1,6.967163E-2,1.5562291E-1,3.6888852E0,0E0,1.8395119E0,0E0,0E0,2.3446004E0,9.311785E-2,0E0,2.364522E0,6.3077145E0,5.17673E0,0E0,0E0,0E0,0E0,0E0,0E0,0E0,0E0,0E0,0E0],"parents":[2147483647,0,0,1,1,2,2,4,4,6,6,7,7,9,9,10,10,11,11,12,12,14,14,17,17,18,18,20,20,21,21,22,22],"right_children":[2,4,6,-1,8,-1,10,12,-1,14,-1,18,20,-1,22,-1,-1,24,-1,-1,28,30,32,-1,-1,-1,-1,-1,-1,-1,-1,-1,-1],"split_conditions":[5E-1,5E-1,5E-1,3.053879E-2,2.5E0,3.4975085E-2,1.5E0,5E-1,1.4837764E-2,5E-1,-2.6208665E-2,1.5E0,5E-1,-2.13158E-2,1.5E0,-2.8054222E-2,-2.1914842E-2,2E0,-3.9092153E-3,-2.0300077E-2,2E0,4.5E0,4.5E0,1.8223416E-2,-1.0348162E-2,-7.049943E-3,-1.4711927E-4,1.8530607E-2,2.4907754E-3,-2.1531472E-2,1.4278595E-2,-1.2426151E-2,2.0737506E-2],"split_indices":[3,8,8,0,6,0,5,7,0,7,3,6,6,0,3,2147483647,2147483647,2,2,0,2,2,2,0,0,2147483647,2147483647,0,0,0,0,0,0],"split_type":[0,0,0,0,0,0,0,0,0,0,0,0,0,0,0,0,0,0,0,0,0,0,0,0,0,0,0,0,0,0,0,0,0],"sum_hessian":[2.9543768E2,1.3858408E2,1.5685359E2,2.5249277E1,1.133348E2,9.173433E0,1.4768016E2,2.1037981E1,9.229682E1,6.7580284E1,8.0099884E1,4.972678E0,1.6065302E1,3.0262772E1,3.7317513E1,5.2150917E1,2.7948965E1,2.7325604E0,2.240118E0,9.904953E-1,1.5074807E1,2.20798E1,1.5237714E1,9.894556E-1,1.7431048E0,7.4457836E-1,1.4955397E0,5.2631035E0,9.811704E0,2.0597425E1,1.4823738E0,1.4001072E1,1.2366418E0],"tree_param":{"num_deleted":"4","num_feature":"12","num_nodes":"33","size_leaf_vector":"0"}},{"base_weights":[-1.3519219E-1,-4.041732E-1,6.4372665E-1,-5.829142E-1,7.372142E-1,4.0182412E-1,1.1537396E0,-9.2444557E-1,-2.9689392E-1,1.936314E-1,1.0254608E0,-1.4559425E-1,5.444937E-1,1.4042374E-1,1.2112972E0,2.923278E-1,-9.5590514E-1,5.467451E-1,-4.6752048E-1,3.8524717E-1,1.4535718E-1,1.0742861E0,4.654544E-1,5.156071E-1,1.2708393E0,-2.6303196E-1,-9.647503E-1,1.2766205E0,3.8054493E-1,2.1788378E-1,-5.4564714E-1,3.2427442E-1,6.995173E-2,7.2503364E-1,-1.1448792E0,1.2355477E0,1.0803784E-1,8.93071E-1,3.8325235E-2,1.5138521E0,-8.1759226E-1,1.126197E0,-3.3235005E-1],"categories":[],"categories_nodes":[],"categories_segments":[],"categories_sizes":[],"default_left":[1,1,1,1,1,1,1,1,1,1,0,0,1,0,1,0,1,1,1,0,1,0,0,1,1,0,1,0,1,1,1,0,1,0,0,0,0,0,0,0,0,0,0],"id":24,"left_children":[1,3,5,7,9,11,13,15,17,19,-1,-1,21,-1,-1,-1,25,27,29,-1,31,-1,-1,-1,-1,-1,33,-1,35,37,39,-1,41,-1,-1,-1,-1,-1,-1,-1,-1,-1,-1],"loss_changes":[6.1688812E1,4.501683E1,8.868952E0,1.8238586E1,4.50712E0,4.2063217E0,1.2181149E0,3.5677567E0,1.5314529E1,5.1670045E-2,0E0,0E0,1.2641048E0,0E0,2.7225494E-1,0E0,2.6087952E-1,1.7049456E0,4.807276E0,0E0,1.2441681E-1,0E0,0E0,0E0,0E0,0E0,2.5953407E1,0E0,3.6258438E0,1.1385393E0,4.541659E1,0E0,4.1755357E0,0E0,0E0,0E0,0E0,0E0,0E0,0E0,0E0,0E0,0E0],"parents":[2147483647,0,0,1,1,2,2,3,3,4,4,5,5,6,6,7,7,8,8,9,9,12,12,14,14,16,16,17,17,18,18,20,20,26,26,28,28,29,29,30,30,32,32],"right_children":[2,4,6,8,10,12,14,16,18,20,-1,-1,22,-1,-1,-1,26,28,30,-1,32,-1,-1,-1,-1,-1,34,-1,36,38,40,-1,42,-1,-1,-1,-1,-1,-1,-1,-1,-1,-1],"split_conditions":[1.5E0,7.5E0,7.5E0,5E-1,5E-1,5E-1,1.5E0,5E-1,5E-1,1.5E0,2.0509217E-2,-2.911885E-3,1.5E0,2.808475E-3,2.4225943E-2,5.846556E-3,1.5E0,1.5E0,1.5E0,7.7049434E-3,5E-1,2.1485722E-2,9.309088E-3,1.0312142E-2,2.5416786E-2,-5.260639E-3,1.5E0,2.553241E-2,5E-1,3E0,5E-1,6.4854883E-3,1.5E0,1.4500673E-2,-2.2897584E-2,2.4710953E-2,2.1607566E-3,1.786142E-2,7.665047E-4,3.0277042E-2,-1.6351845E-2,2.252394E-2,-6.6470006E-3],"split_indices":[10,4,4,7,7,7,6,9,10,9,0,0,9,0,7,0,9,9,9,0,10,0,0,2147483647,2147483647,0,8,0,8,6,8,0,8,0,0,0,0,0,0,0,0,0,0],"split_type":[0,0,0,0,0,0,0,0,0,0,0,0,0,0,0,0,0,0,0,0,0,0,0,0,0,0,0,0,0,0,0,0,0,0,0,0,0,0,0,0,0,0,0],"sum_hessian":[2.9219534E2,2.1755057E2,7.464478E1,1.8851799E2,2.9032578E1,5.184312E1,2.2801666E1,8.490383E1,1.0361415E2,1.0639705E1,1.8392872E1,1.0713868E1,4.112925E1,1.4104292E0,2.1391237E1,1.9308661E0,8.297297E1,1.7059835E1,8.655432E1,7.363816E-1,9.903323E0,3.7047665E0,3.7424484E1,2.4480298E0,1.8943207E1,1.4333223E0,8.153964E1,1.9249804E0,1.5134855E1,8.673447E0,7.7880875E1,1.9577315E0,7.945592E0,7.5633183E0,7.3976326E1,2.8038023E0,1.2331053E1,9.8728645E-1,7.6861596E0,8.551531E0,6.9329346E1,1.6952696E0,6.2503223E0],"tree_param":{"num_deleted":"2","num_feature":"12","num_nodes":"43","size_leaf_vector":"0"}},{"base_weights":[-1.2071627E-1,8.23964E-1,-9.399018E-1,1.1367155E0,5.982938E-1,-1.0530244E0,5.852128E-1,7.3601484E-1,1.2563562E0,-8.9313436E-1,7.9889953E-1,-4.8570257E-1,-1.2837591E0,5.2605993E-3,1.1397663E0,-2.698057E-1,8.837064E-1,2.1851517E-1,8.893129E-1,-2.1572731E-1,-9.1121614E-1,-2.799919E-1,-1.3116856E0,-2.0432878E-1,1.753513E-1,1.0697767E0,2.5791436E-1,-1.0803341E-1,7.9797506E-1,5.891188E-1,1.2544432E0,-3.2524496E-1,9.255886E-1,-1.2611777E0,-5.517749E-1,-6.402932E-1,-1.7692748E-2,2.0098358E-1,-1.3435261E0,-4.569691E-1,1.0851236E-1,8.7793887E-1,1.7688495E-1,-5.3697723E-1,1.922669E-2,-9.532491E-1,-9.558736E-2,-5.519601E-1,6.483412E-1,3.8021567E-1,-1.4625253E-1],"categories":[],"categories_nodes":[],"categories_segments":[],"categories_sizes":[],"default_left":[1,1,1,1,1,1,1,1,0,0,1,1,1,1,0,0,1,1,1,1,1,1,1,1,1,0,0,1,1,0,0,1,0,0,1,0,1,1,0,1,1,1,1,0,0,0,0,0,0,1,1],"id":25,"left_children":[1,3,5,7,9,11,13,15,-1,-1,17,19,21,-1,-1,-1,25,27,29,31,33,35,37,-1,-1,-1,-1,-1,-1,-1,-1,43,-1,-1,45,-1,47,-1,-1,-1,-1,-1,-1,-1,-1,-1,-1,-1,-1,-1,-1],"loss_changes":[2.2741446E2,8.957268E0,2.7757645E1,1.7657166E0,2.507567E1,1.859439E1,3.694455E0,2.5139513E0,0E0,0E0,3.5996437E0,4.8644085E0,2.5412292E0,2.7213976E-1,0E0,0E0,1.3066111E0,2.1810553E0,6.0820465E0,3.8338833E0,1.4162893E0,3.7425435E-1,5.119095E0,0E0,0E0,0E0,0E0,6.511542E-1,4.8800945E-2,0E0,0E0,1.9452617E0,0E0,0E0,1.7515678E0,0E0,1.5639795E0,2.3891559E-1,0E0,0E0,0E0,0E0,0E0,0E0,0E0,0E0,0E0,0E0,0E0,0E0,0E0],"parents":[2147483647,0,0,1,1,2,2,3,3,4,4,5,5,6,6,7,7,10,10,11,11,12,12,13,13,16,16,17,17,18,18,19,19,20,20,21,21,22,22,27,27,28,28,31,31,34,34,36,36,37,37],"right_children":[2,4,6,8,10,12,14,16,-1,-1,18,20,22,-1,-1,-1,26,28,30,32,34,36,38,-1,-1,-1,-1,-1,-1,-1,-1,44,-1,-1,46,-1,48,-1,-1,-1,-1,-1,-1,-1,-1,-1,-1,-1,-1,-1,-1],"split_conditions":[5E-1,2.5E0,4.5E0,5E-1,3.5E0,2.5E0,5E-1,8.5E0,2.5127124E-2,-1.7862687E-2,8.5E0,1.5E0,3.5E0,1.05211984E-4,2.2795327E-2,-5.3961137E-3,4E0,4.5E0,4.5E0,1.5E0,5E-1,3.5E0,5E-1,-4.0865755E-3,3.507026E-3,2.1395532E-2,5.158287E-3,-2.1606681E-3,1.5959501E-2,1.1782375E-2,2.5088863E-2,1.5E0,1.8511772E-2,-2.5223553E-2,1.5E0,-1.2805863E-2,1.5E0,4.0196716E-3,-2.6870523E-2,-9.139382E-3,2.170247E-3,1.7558778E-2,3.5376989E-3,-1.0739544E-2,3.845338E-4,-1.9064981E-2,-1.9117472E-3,-1.1039202E-2,1.2966823E-2,7.6043135E-3,-2.9250504E-3],"split_indices":[3,2,2,2,2,2,7,11,0,0,11,5,11,3,0,0,5,2,2,2,2,2,9,2147483647,2147483647,0,0,11,11,0,0,3,0,0,3,0,11,3,0,2147483647,2147483647,2147483647,2147483647,0,0,0,0,0,0,2147483647,2147483647],"split_type":[0,0,0,0,0,0,0,0,0,0,0,0,0,0,0,0,0,0,0,0,0,0,0,0,0,0,0,0,0,0,0,0,0,0,0,0,0,0,0,0,0,0,0,0,0,0,0,0,0,0,0],"sum_hessian":[2.9186633E2,1.3554767E2,1.5631866E2,5.5120415E1,8.042726E1,1.458128E2,1.05058565E1,1.43181E1,4.0802315E1,9.126083E0,7.130118E1,4.305523E1,1.02757576E2,5.628772E0,4.877085E0,1.7273755E0,1.2590724E1,1.0070856E1,6.123032E1,2.7264027E1,1.5791203E1,3.0799522E0,9.967763E1,2.431425E0,3.1973464E0,9.158192E0,3.4325323E0,6.9613957E0,3.10946E0,3.5037483E1,2.6192835E1,2.5529325E1,1.7346998E0,6.7299886E0,9.0612135E0,6.9045043E-1,2.3895018E0,1.9453771E0,9.773225E1,2.2406347E0,4.720761E0,2.3884127E0,7.210473E-1,1.5464873E1,1.0064453E1,4.2400765E0,4.821137E0,1.4209456E0,9.6855605E-1,1.2204452E0,7.249319E-1],"tree_param":{"num_deleted":"8","num_feature":"12","num_nodes":"51","size_leaf_vector":"0"}},{"base_weights":[-1.3490199E-1,7.84005E-1,-9.1956097E-1,1.1238024E0,5.4094446E-1,-1.0141594E0,4.7567374E-1,6.149055E-1,2.2777401E-1,2.9794216E-1,-1.0409459E0,7.494659E-2,7.235241E-1,-8.6318964E-1,8.5508186E-1,-1.5685385E-1,8.032946E-1,6.7560546E-2,3.5630924E-1,-4.7046116E-1,-1.2794415E0,-3.5192424E-1,6.7728084E-1,8.891231E-1,-2.3686121E-1,6.694055E-1,1.1468744E0,-5.3480804E-1,3.241954E-1,-7.437318E-1,-1.0606111E-1,-6.6602194E-1,-1.3207766E0,3.5803324E-1,1.2251041E0,3.4039578E-1,-7.9094213E-1,-2.4517235E-1,1.0983866E0,-2.7736247E-1,-1.3534317E0],"categories":[],"categories_nodes":[],"categories_segments":[],"categories_sizes":[],"default_left":[1,1,1,0,1,1,1,1,1,1,1,1,1,0,1,1,0,1,1,1,1,0,0,0,0,1,0,0,0,1,1,0,1,0,0,0,0,0,0,0,0],"id":26,"left_children":[1,3,5,-1,7,9,11,13,15,-1,19,21,23,-1,25,27,-1,-1,-1,29,31,-1,-1,-1,-1,33,-1,-1,-1,35,37,-1,39,-1,-1,-1,-1,-1,-1,-1,-1],"loss_changes":[2.0747766E2,1.0345131E1,2.0958237E1,0E0,1.6953754E0,5.4276123E0,9.917352E-1,2.3286001E1,3.8288102E0,2.5552452E-2,1.884259E1,1.5599395E0,1.2270458E0,0E0,2.2196503E0,2.1484716E0,0E0,0E0,0E0,4.2741404E0,1.660965E0,0E0,0E0,0E0,0E0,5.8075047E0,0E0,0E0,0E0,1.5392723E0,3.6035318E0,0E0,2.7885132E0,0E0,0E0,0E0,0E0,0E0,0E0,0E0,0E0],"parents":[2147483647,0,0,1,1,2,2,4,4,5,5,6,6,7,7,8,8,9,9,10,10,11,11,12,12,14,14,15,15,19,19,20,20,25,25,29,29,30,30,32,32],"right_children":[2,4,6,-1,8,10,12,14,16,-1,20,22,24,-1,26,28,-1,-1,-1,30,32,-1,-1,-1,-1,34,-1,-1,-1,36,38,-1,40,-1,-1,-1,-1,-1,-1,-1,-1],"split_conditions":[5E-1,2.5E0,4.5E0,2.2476047E-2,5.5E0,5E-1,1.5E0,3.5E0,4.5E0,5.958843E-3,2.5E0,5.5E0,5.5E0,-1.7263792E-2,1.5E0,1.5E0,1.6065892E-2,1.3512109E-3,7.1261846E-3,1.5E0,5E-1,-7.038485E-3,1.35456165E-2,1.778246E-2,-4.737224E-3,4.5E0,2.2937488E-2,-1.0696161E-2,6.4839083E-3,1E0,1.5E0,-1.3320439E-2,3.5E0,7.1606645E-3,2.4502082E-2,6.8079154E-3,-1.5818842E-2,-4.903447E-3,2.1967733E-2,-5.547249E-3,-2.7068634E-2],"split_indices":[3,2,2,0,1,9,3,2,2,2,2,2,1,0,10,10,0,2147483647,2147483647,3,10,0,0,0,0,2,0,0,0,11,2,0,11,0,0,0,0,0,0,0,0],"split_type":[0,0,0,0,0,0,0,0,0,0,0,0,0,0,0,0,0,0,0,0,0,0,0,0,0,0,0,0,0,0,0,0,0,0,0,0,0,0,0,0,0],"sum_hessian":[2.8575244E2,1.3161737E2,1.5413507E2,5.3375336E1,7.8242035E1,1.4460388E2,9.5311775E0,6.2514584E1,1.5727455E1,2.69049E0,1.4191339E2,4.1399875E0,5.3911896E0,8.375577E0,5.4139004E1,9.863205E0,5.86425E0,9.799653E-1,1.7105248E0,4.271387E1,9.9199524E1,2.6661997E0,1.4737878E0,4.661594E0,7.295958E-1,3.509874E1,1.9040266E1,5.460896E0,4.4023085E0,2.3814182E1,1.889969E1,7.3428674E0,9.185666E1,2.3548307E1,1.1550432E1,7.3460793E-1,2.3079575E1,1.7656809E1,1.2428812E0,3.0756435E0,8.878101E1],"tree_param":{"num_deleted":"2","num_feature":"12","num_nodes":"41","size_leaf_vector":"0"}},{"base_weights":[-1.4901234E-1,8.051112E-1,-7.3117495E-1,8.4955044E-2,1.118854E0,-8.3663845E-1,6.3299847E-1,7.063254E-1,-1.7304829E-1,-1.9213308E-1,-1.138283E0,2.461313E-1,1.1070837E0,-1.0455728E0,3.1827107E-2,1.0151589E0,-4.8373908E-1,-1.2631253E0,3.8864377E-1,-2.086826E-1,7.261639E-1,2.7965483E-1,-4.6803378E-2,-5.7737446E-1,9.8613286E-1,3.5328558E-1,-1.2939241E0,-4.48922E-1,5.4531604E-1,-3.452477E-1,-9.2094946E-1],"categories":[],"categories_nodes":[],"categories_segments":[],"categories_sizes":[],"default_left":[1,1,1,1,0,1,1,0,1,1,1,1,0,0,1,0,1,1,1,0,0,1,1,1,0,0,0,0,0,0,0],"id":27,"left_children":[1,3,5,7,-1,9,11,-1,13,15,17,19,-1,-1,-1,-1,23,25,27,-1,-1,-1,-1,29,-1,-1,-1,-1,-1,-1,-1],"loss_changes":[1.5722878E2,2.4157455E1,2.5802528E1,5.5176067E0,0E0,3.1565521E1,2.143958E0,0E0,4.4278536E0,1.9264517E1,2.1681473E1,2.0162253E0,0E0,0E0,4.199637E-1,0E0,6.5740433E0,5.5847015E0,1.4476722E0,0E0,0E0,0E0,0E0,3.0034666E0,0E0,0E0,0E0,0E0,0E0,0E0,0E0],"parents":[2147483647,0,0,1,1,2,2,3,3,5,5,6,6,8,8,9,9,10,10,11,11,14,14,16,16,17,17,18,18,23,23],"right_children":[2,4,6,8,-1,10,12,-1,14,16,18,20,-1,-1,-1,-1,24,26,28,-1,-1,-1,-1,30,-1,-1,-1,-1,-1,-1,-1],"split_conditions":[5E-1,3E0,4.5E0,2E0,2.2377081E-2,2.5E0,5E-1,1.4126508E-2,3.5E0,5E-1,4.5E0,3.5E0,2.2141673E-2,-2.0911455E-2,6.365421E-4,2.0303177E-2,1.5E0,5E-1,3.5E0,-4.173652E-3,1.4523278E-2,5.5930964E-3,-9.3606755E-4,2.5E0,1.9722657E-2,7.0657115E-3,-2.5878482E-2,-8.97844E-3,1.0906321E-2,-6.9049536E-3,-1.8418988E-2],"split_indices":[5,4,2,2,0,2,7,0,2,3,5,5,0,0,9,0,2,9,2,0,0,2147483647,2147483647,5,0,0,0,0,0,0,0],"split_type":[0,0,0,0,0,0,0,0,0,0,0,0,0,0,0,0,0,0,0,0,0,0,0,0,0,0,0,0,0,0,0],"sum_hessian":[2.8100317E2,1.0633865E2,1.7466454E2,3.2654724E1,7.368393E1,1.6248929E2,1.2175248E1,9.070894E0,2.3583832E1,5.2325527E1,1.1016376E2,7.54086E0,4.634388E0,3.7043345E0,1.9879498E1,9.697047E0,4.262848E1,1.0199719E2,8.166569E0,4.162404E0,3.3784564E0,4.172387E0,1.5707109E1,4.0646374E1,1.9821059E0,1.711324E0,1.00285866E2,9.929465E-1,7.1736217E0,2.5453976E1,1.5192396E1],"tree_param":{"num_deleted":"2","num_feature":"12","num_nodes":"31","size_leaf_vector":"0"}},{"base_weights":[-1.456051E-1,8.082574E-1,-7.140199E-1,2.5063914E-1,9.2826945E-1,-2.4977869E-1,-1.1047794E0,7.5323236E-1,-1.2748657E-1,1.2040149E0,7.356132E-1,-4.8667333E-1,8.7997603E-1,-1.2056745E0,3.7263662E-1,8.766192E-1,-1.8110633E-2,-1.923079E-1,3.1269735E-1,9.3224466E-1,6.551062E-2,-2.0472611E-1,-8.3024144E-1,9.6314895E-1,3.2356656E-1,-9.320023E-1,-1.3672463E0,7.311748E-1,2.1075685E-1,1.2927908E-1,-4.3440396E-1,5.502288E-1,1.1057787E0,-5.574296E-1,6.2709135E-1,6.5342754E-1,-2.804532E-1,-1.014555E0,-7.7663936E-2,6.869793E-1,1.3282726E0,6.5134406E-1,-3.6099264E-1,-3.4669334E-1,-9.834224E-1,-1.4053543E0,-6.426046E-1,3.6074138E-1,1.1243048E-1,-3.4277073E-1,1.0111911E0,4.4086948E-1,-9.71472E-1,-3.6738402E-1,6.952589E-1,-2.2071338E-1,-7.4908686E-1,8.490257E-1,2.0405275E-1,9.309178E-2,8.3639836E-1,-5.1779795E-1,-2.7728988E-2,1.5236697E-1,