{"learner":{"attributes":{"best_iteration":"999","best_ntree_limit":"1000","scikit_learn":"{\"use_label_encoder\": null, \"n_estimators\": 1000, \"objective\": \"binary:logistic\", \"max_depth\": 5, \"max_leaves\": 0, \"max_bin\": 256, \"grow_policy\": \"depthwise\", \"learning_rate\": 0.01, \"verbosity\": null, \"booster\": \"gbtree\", \"tree_method\": \"auto\", \"gamma\": 0.8, \"min_child_weight\": 2, \"max_delta_step\": 0, \"subsample\": 1, \"sampling_method\": \"uniform\", \"colsample_bytree\": 0.7, \"colsample_bylevel\": 1, \"colsample_bynode\": 1, \"reg_alpha\": 0, \"reg_lambda\": 0.1, \"scale_pos_weight\": 2, \"base_score\": 0.5, \"missing\": NaN, \"num_parallel_tree\": 1, \"random_state\": 0, \"n_jobs\": 0, \"monotone_constraints\": \"()\", \"interaction_constraints\": \"\", \"importance_type\": null, \"gpu_id\": -1, \"validate_parameters\": 1, \"predictor\": \"auto\", \"enable_categorical\": false, \"feature_types\": null, \"max_cat_to_onehot\": 4, \"max_cat_threshold\": 64, \"eval_metric\": null, \"early_stopping_rounds\": null, \"callbacks\": null, \"classes_\": [0, 1], \"n_classes_\": 2, \"_estimator_type\": \"classifier\"}"},"feature_names":["loan_amnt","home_ownership","annual_inc","desc","inq_last_6mths","revol_util","last_fico_range_high","last_fico_range_low","pub_rec_bankruptcies"],"feature_types":["int","int","int","int","int","int","int","int","int"],"gradient_booster":{"model":{"gbtree_model_param":{"num_parallel_tree":"1","num_trees":"1000","size_leaf_vector":"0"},"tree_info":[0,0,0,0,0,0,0,0,0,0,0,0,0,0,0,0,0,0,0,0,0,0,0,0,0,0,0,0,0,0,0,0,0,0,0,0,0,0,0,0,0,0,0,0,0,0,0,0,0,0,0,0,0,0,0,0,0,0,0,0,0,0,0,0,0,0,0,0,0,0,0,0,0,0,0,0,0,0,0,0,0,0,0,0,0,0,0,0,0,0,0,0,0,0,0,0,0,0,0,0,0,0,0,0,0,0,0,0,0,0,0,0,0,0,0,0,0,0,0,0,0,0,0,0,0,0,0,0,0,0,0,0,0,0,0,0,0,0,0,0,0,0,0,0,0,0,0,0,0,0,0,0,0,0,0,0,0,0,0,0,0,0,0,0,0,0,0,0,0,0,0,0,0,0,0,0,0,0,0,0,0,0,0,0,0,0,0,0,0,0,0,0,0,0,0,0,0,0,0,0,0,0,0,0,0,0,0,0,0,0,0,0,0,0,0,0,0,0,0,0,0,0,0,0,0,0,0,0,0,0,0,0,0,0,0,0,0,0,0,0,0,0,0,0,0,0,0,0,0,0,0,0,0,0,0,0,0,0,0,0,0,0,0,0,0,0,0,0,0,0,0,0,0,0,0,0,0,0,0,0,0,0,0,0,0,0,0,0,0,0,0,0,0,0,0,0,0,0,0,0,0,0,0,0,0,0,0,0,0,0,0,0,0,0,0,0,0,0,0,0,0,0,0,0,0,0,0,0,0,0,0,0,0,0,0,0,0,0,0,0,0,0,0,0,0,0,0,0,0,0,0,0,0,0,0,0,0,0,0,0,0,0,0,0,0,0,0,0,0,0,0,0,0,0,0,0,0,0,0,0,0,0,0,0,0,0,0,0,0,0,0,0,0,0,0,0,0,0,0,0,0,0,0,0,0,0,0,0,0,0,0,0,0,0,0,0,0,0,0,0,0,0,0,0,0,0,0,0,0,0,0,0,0,0,0,0,0,0,0,0,0,0,0,0,0,0,0,0,0,0,0,0,0,0,0,0,0,0,0,0,0,0,0,0,0,0,0,0,0,0,0,0,0,0,0,0,0,0,0,0,0,0,0,0,0,0,0,0,0,0,0,0,0,0,0,0,0,0,0,0,0,0,0,0,0,0,0,0,0,0,0,0,0,0,0,0,0,0,0,0,0,0,0,0,0,0,0,0,0,0,0,0,0,0,0,0,0,0,0,0,0,0,0,0,0,0,0,0,0,0,0,0,0,0,0,0,0,0,0,0,0,0,0,0,0,0,0,0,0,0,0,0,0,0,0,0,0,0,0,0,0,0,0,0,0,0,0,0,0,0,0,0,0,0,0,0,0,0,0,0,0,0,0,0,0,0,0,0,0,0,0,0,0,0,0,0,0,0,0,0,0,0,0,0,0,0,0,0,0,0,0,0,0,0,0,0,0,0,0,0,0,0,0,0,0,0,0,0,0,0,0,0,0,0,0,0,0,0,0,0,0,0,0,0,0,0,0,0,0,0,0,0,0,0,0,0,0,0,0,0,0,0,0,0,0,0,0,0,0,0,0,0,0,0,0,0,0,0,0,0,0,0,0,0,0,0,0,0,0,0,0,0,0,0,0,0,0,0,0,0,0,0,0,0,0,0,0,0,0,0,0,0,0,0,0,0,0,0,0,0,0,0,0,0,0,0,0,0,0,0,0,0,0,0,0,0,0,0,0,0,0,0,0,0,0,0,0,0,0,0,0,0,0,0,0,0,0,0,0,0,0,0,0,0,0,0,0,0,0,0,0,0,0,0,0,0,0,0,0,0,0,0,0,0,0,0,0,0,0,0,0,0,0,0,0,0,0,0,0,0,0,0,0,0,0,0,0,0,0,0,0,0,0,0,0,0,0,0,0,0,0,0,0,0,0,0,0,0,0,0,0,0,0,0,0,0,0,0,0,0,0,0,0,0,0,0,0,0,0,0,0,0,0,0,0,0,0,0,0,0,0,0,0,0,0,0,0,0,0,0,0,0,0,0,0,0,0,0,0,0,0,0,0,0,0,0,0,0,0,0,0,0,0,0,0,0,0,0,0,0,0,0,0,0,0,0,0,0,0,0,0,0,0,0,0,0,0,0,0,0,0,0,0,0,0,0,0,0,0,0,0,0,0,0,0,0,0,0,0,0,0,0,0,0,0,0,0,0,0,0,0,0,0,0,0,0,0,0,0,0,0,0,0,0,0,0,0,0,0,0,0,0,0,0,0,0,0,0,0,0],"trees":[{"base_weights":[9.537572E-1,5.626922E-1,1.9885002E0,1.5571914E0,-1.1967952E0,1.0474861E0,1.9029496E0,-1.2970169E0,-8.533917E-1,1.0983763E0,9.043928E-1,1.7747858E0,1.981352E0,-1.0732197E0,-1.7001828E0,-4.3103448E-1,-1.277533E0,1.1864407E0,8.5106385E-1,1.240876E0,7.1428573E-1,1.5727003E0,1.9087137E0,-8.303249E-1,-1.1634349E0,-1.9736842E0,-1.5869018E0,-1.2149533E0,2.3622048E-1,-7.2164947E-1,-1.6666666E0],"categories":[],"categories_nodes":[],"categories_segments":[],"categories_sizes":[],"default_left":[1,1,0,1,1,1,1,1,1,1,1,1,0,1,1,1,1,0,0,0,0,0,0,0,0,1,1,0,0,0,0],"id":0,"left_children":[1,3,-1,5,7,9,11,13,15,17,19,21,-1,23,-1,27,29,-1,-1,-1,-1,-1,-1,-1,-1,-1,-1,-1,-1,-1,-1],"loss_changes":[1.5389856E2,4.8374597E2,0E0,3.0923737E1,3.3258057E0,4.220581E-1,7.044678E-1,6.774063E0,4.0382633E0,1.039177E0,1.1491442E0,8.0540466E-1,0E0,9.957504E-1,5.341644E-1,6.0963545E0,2.334879E0,0E0,0E0,0E0,0E0,0E0,0E0,0E0,0E0,0E0,0E0,0E0,0E0,0E0,0E0],"parents":[2147483647,0,0,1,1,3,3,4,4,5,5,6,6,7,7,8,8,9,9,10,10,11,11,13,13,14,14,15,15,16,16],"right_children":[2,4,-1,6,8,10,12,14,16,18,20,22,-1,24,-1,28,30,-1,-1,-1,-1,-1,-1,-1,-1,-1,-1,-1,-1,-1,-1],"split_conditions":[2.5E0,1.5E0,1.9885002E-2,5E-1,2.5E0,1.5E0,1.5E0,1.5E0,1.5E0,2.5E0,1E0,1E0,1.9813519E-2,5E-1,-1.7001828E-2,1E0,1E0,1.1864407E-2,8.510638E-3,1.2408759E-2,7.142857E-3,1.5727002E-2,1.9087136E-2,-8.303248E-3,-1.1634348E-2,-1.9736841E-2,-1.5869018E-2,-1.2149532E-2,2.3622047E-3,-7.2164945E-3,-1.6666666E-2],"split_indices":[6,6,0,6,2,4,3,2,3,3,1,1,0,3,1,1,1,0,0,0,0,0,0,0,0,2147483647,2147483647,0,0,0,0],"split_type":[0,0,0,0,0,0,0,0,0,0,0,0,0,0,0,0,0,0,0,0,0,0,0,0,0,0,0,0,0,0,0],"sum_hessian":[3.805E2,2.7625E2,1.0425E2,1.765E2,9.975E1,7.15E1,1.05E2,7.7E1,2.275E1,5.225E1,1.925E1,4.075E1,6.425E1,4.975E1,2.725E1,1.15E1,1.125E1,3.825E1,1.4E1,6.75E0,1.25E1,1.675E1,2.4E1,1.375E1,3.6E1,7.5E0,1.975E1,5.25E0,6.25E0,4.75E0,6.5E0],"tree_param":{"num_deleted":"2","num_feature":"9","num_nodes":"31","size_leaf_vector":"0"}},{"base_weights":[9.4429594E-1,5.571058E-1,1.9688293E0,1.5417742E0,-1.1849473E0,1.0370964E0,1.8841434E0,-1.045265E0,-1.5468118E0,1.3673369E0,7.131702E-2,1.7572621E0,1.9617621E0,-1.1847003E0,-4.973973E-1,-1.4545734E0,-1.7336799E0,9.6576357E-1,1.5182855E0,-3.3283547E-1,6.473604E-1,1.3209703E0,1.8554248E0,-8.5251147E-1,-1.6429386E0,-7.6737595E-1,4.5229056E-1,-1.9531782E0,-1.2514664E0,-1.9478403E0,-1.4188585E0],"categories":[],"categories_nodes":[],"categories_segments":[],"categories_sizes":[],"default_left":[1,1,0,1,1,1,1,1,1,1,1,1,0,1,1,1,1,0,0,0,0,0,0,0,0,0,0,0,0,1,1],"id":1,"left_children":[1,3,-1,5,7,9,11,13,15,17,19,21,-1,23,25,27,-1,-1,-1,-1,-1,-1,-1,-1,-1,-1,-1,-1,-1,-1,-1],"loss_changes":[1.5085995E2,4.7419128E2,0E0,3.031662E1,4.885132E0,2.2825684E1,6.902466E-1,5.4677963E0,2.2353363E-1,3.087181E0,4.2934775E0,1.5042572E0,0E0,8.627487E0,3.8420777E0,1.6897507E0,3.034401E-1,0E0,0E0,0E0,0E0,0E0,0E0,0E0,0E0,0E0,0E0,0E0,0E0,0E0,0E0],"parents":[2147483647,0,0,1,1,3,3,4,4,5,5,6,6,7,7,8,8,9,9,10,10,11,11,13,13,14,14,15,15,16,16],"right_children":[2,4,-1,6,8,10,12,14,16,18,20,22,-1,24,26,28,-1,-1,-1,-1,-1,-1,-1,-1,-1,-1,-1,-1,-1,-1,-1],"split_conditions":[2.5E0,1.5E0,1.9688291E-2,5E-1,2.5E0,2.5E0,1.5E0,2.5E0,2.5E0,5E-1,2.5E0,5E-1,1.961762E-2,1.5E0,1.5E0,5E-1,-1.7336799E-2,9.657635E-3,1.5182855E-2,-3.3283546E-3,6.4736037E-3,1.3209702E-2,1.8554248E-2,-8.5251145E-3,-1.6429385E-2,-7.6737595E-3,4.5229057E-3,-1.953178E-2,-1.2514664E-2,-1.9478403E-2,-1.4188585E-2],"split_indices":[6,6,0,6,0,0,3,2,5,5,2,0,0,2,0,3,2,0,0,0,0,0,0,0,0,0,0,0,0,2147483647,2147483647],"split_type":[0,0,0,0,0,0,0,0,0,0,0,0,0,0,0,0,0,0,0,0,0,0,0,0,0,0,0,0,0,0,0],"sum_hessian":[3.8047403E2,2.762343E2,1.042397E2,1.7648846E2,9.974586E1,7.149798E1,1.0499048E2,7.22469E1,2.7498959E1,5.32485E1,1.8249481E1,4.074678E1,6.42437E1,5.74973E1,1.4749603E1,1.8999268E1,8.49969E0,1.474956E1,3.849894E1,1.0749702E1,7.499779E0,7.7494407E0,3.2997337E1,3.3499035E1,2.3998264E1,1.14996605E1,3.249943E0,5.2498426E0,1.3749426E1,4.7498465E0,3.749844E0],"tree_param":{"num_deleted":"2","num_feature":"9","num_nodes":"31","size_leaf_vector":"0"}},{"base_weights":[9.3504864E-1,5.516286E-1,1.9497324E0,1.5267029E0,-1.173313E0,1.0268584E0,1.8658534E0,-1.034961E0,-1.5317465E0,1.3538715E0,7.062168E-2,1.7858499E0,1.9251022E0,-1.9476932E-1,-1.0616516E0,-1.7881119E0,-1.3304124E0,1.4555144E0,1.1200765E0,2.912855E-1,-8.415623E-1,1.8405578E0,1.6169097E0,-1.1217954E0,-9.142055E-1,-1.2729281E-1,-1.6397456E0],"categories":[],"categories_nodes":[],"categories_segments":[],"categories_sizes":[],"default_left":[1,1,0,1,1,1,1,1,1,1,1,1,1,0,1,0,1,0,0,0,0,1,1,1,1,0,0],"id":2,"left_children":[1,3,-1,5,7,9,-1,13,15,17,19,-1,-1,-1,-1,-1,25,-1,-1,-1,-1,-1,-1,-1,-1,-1,-1],"loss_changes":[1.479249E2,4.648806E2,0E0,2.973825E1,4.7922516E0,2.237722E1,1.5426636E-1,1.6015472E0,1.1864243E0,1.1045761E0,3.7179704E0,1.2832642E-1,0E0,0E0,5.189972E-1,0E0,5.876854E0,0E0,0E0,0E0,0E0,0E0,0E0,0E0,0E0,0E0,0E0],"parents":[2147483647,0,0,1,1,3,3,4,4,5,5,6,6,7,7,8,8,9,9,10,10,11,11,14,14,16,16],"right_children":[2,4,-1,6,8,10,-1,14,16,18,20,-1,-1,-1,-1,-1,26,-1,-1,-1,-1,-1,-1,-1,-1,-1,-1],"split_conditions":[2.5E0,1.5E0,1.9497324E-2,5E-1,2.5E0,2.5E0,1.8658534E-2,5E-1,1.5E0,1.5E0,1.5E0,1.78585E-2,1.9251022E-2,-1.9476932E-3,-1.0616516E-2,-1.788112E-2,2.5E0,1.4555144E-2,1.1200765E-2,2.912855E-3,-8.415623E-3,1.8405577E-2,1.6169097E-2,-1.1217954E-2,-9.142055E-3,-1.2729281E-3,-1.6397456E-2],"split_indices":[6,6,0,6,0,0,1,8,1,0,4,2147483647,2147483647,0,0,0,1,0,0,0,0,2147483647,2147483647,2147483647,2147483647,0,0],"split_type":[0,0,0,0,0,0,0,0,0,0,0,0,0,0,0,0,0,0,0,0,0,0,0,0,0,0,0],"sum_hessian":[3.803972E2,2.76188E2,1.0420919E2,1.7645375E2,9.973422E1,7.149146E1,1.0496229E2,7.223927E1,2.7494946E1,5.324217E1,1.8249298E1,4.5984135E1,5.8978157E1,2.249741E0,6.998953E1,1.1747868E1,1.5747079E1,3.674474E1,1.6497429E1,1.4749383E1,3.4999146E0,3.398824E1,1.1995895E1,4.9242508E1,2.0747026E1,3.2495277E0,1.2497551E1],"tree_param":{"num_deleted":"6","num_feature":"9","num_nodes":"27","size_leaf_vector":"0"}},{"base_weights":[9.2600834E-1,1.0519861E0,5.3998697E-1,1.1422682E0,7.396449E-1,7.277618E-1,-6.470181E-3,1.2540684E0,8.658281E-1,1.0910373E0,4.1722387E-1,3.644831E-1,1.2743375E0,2.4251086E-1,-1.0672152E0,9.900192E-1,1.4071279E0,1.0909566E0,6.397707E-1,3.8917166E-1,1.3148534E0,-2.0830882E-1,1.0310667E0,-2.092721E-1,7.444776E-1,8.329901E-1,1.6691914E0,-2.0268054E-1,5.35385E-1,-2.1569397E-1,-1.8732113E0,5.3751636E-1,1.1217699E0,1.4747239E0,1.2026476E0,1.4067166E0,8.7561274E-1,-2.3364364E-1,8.7098765E-1,1.5372371E-3,8.1985736E-1,1.4839777E0,8.3877546E-1,-1.0197951E0,7.351646E-2,8.081347E-1,1.5397946E0,-8.3709985E-1,4.794333E-1,1.1586936E0,4.670813E-1,4.7453403E-1,1.3602283E0,1.8423911E0,1.2186438E0,3.7532488E-1,-1.2296213E0,1.0337173E0,-8.9304134E-2],"categories":[],"categories_nodes":[],"categories_segments":[],"categories_sizes":[],"default_left":[1,1,1,1,1,1,1,1,1,1,1,1,1,1,1,1,1,1,1,1,1,1,1,1,1,1,1,1,1,0,0,0,0,0,0,0,0,0,0,0,0,0,0,0,0,0,0,0,0,0,0,0,0,0,0,0,0,0,0],"id":3,"left_children":[1,3,5,7,9,11,13,15,17,19,21,23,25,27,29,31,33,35,37,39,41,43,45,47,49,51,53,55,57,-1,-1,-1,-1,-1,-1,-1,-1,-1,-1,-1,-1,-1,-1,-1,-1,-1,-1,-1,-1,-1,-1,-1,-1,-1,-1,-1,-1,-1,-1],"loss_changes":[1.8440735E1,7.9993896E0,9.624981E0,6.759033E0,7.2696114E0,1.3814842E1,6.3873487E0,6.2461853E0,3.2031593E0,4.7923775E0,1.30126915E1,9.189262E0,4.711315E0,2.5650144E0,3.1149416E0,3.4163017E0,1.2018585E0,2.0581894E0,6.549635E0,1.268192E0,1.7544746E0,3.858808E0,1.8141022E0,7.322528E0,2.8568382E0,2.4570274E0,9.1404724E-1,4.7032795E0,3.696152E0,0E0,0E0,0E0,0E0,0E0,0E0,0E0,0E0,0E0,0E0,0E0,0E0,0E0,0E0,0E0,0E0,0E0,0E0,0E0,0E0,0E0,0E0,0E0,0E0,0E0,0E0,0E0,0E0,0E0,0E0],"parents":[2147483647,0,0,1,1,2,2,3,3,4,4,5,5,6,6,7,7,8,8,9,9,10,10,11,11,12,12,13,13,14,14,15,15,16,16,17,17,18,18,19,19,20,20,21,21,22,22,23,23,24,24,25,25,26,26,27,27,28,28],"right_children":[2,4,6,8,10,12,14,16,18,20,22,24,26,28,30,32,34,36,38,40,42,44,46,48,50,52,54,56,58,-1,-1,-1,-1,-1,-1,-1,-1,-1,-1,-1,-1,-1,-1,-1,-1,-1,-1,-1,-1,-1,-1,-1,-1,-1,-1,-1,-1,-1,-1],"split_conditions":[2.5E0,2.5E0,1.5E0,1.5E0,1.5E0,2.5E0,2.5E0,5E-1,1E0,5E-1,2.5E0,5E-1,5E-1,1.5E0,2.5E0,5E-1,1.5E0,5E-1,5E-1,1.5E0,1.5E0,5E-1,2.5E0,1E0,5E-1,2.5E0,2.5E0,1.5E0,2.5E0,-2.1569396E-3,-1.8732112E-2,5.3751636E-3,1.1217698E-2,1.4747239E-2,1.2026476E-2,1.4067166E-2,8.756127E-3,-2.3364364E-3,8.709877E-3,1.537237E-5,8.198573E-3,1.4839777E-2,8.387755E-3,-1.01979505E-2,7.3516456E-4,8.081347E-3,1.5397945E-2,-8.370998E-3,4.7943327E-3,1.1586935E-2,4.6708127E-3,4.7453404E-3,1.3602283E-2,1.8423911E-2,1.2186438E-2,3.7532486E-3,-1.2296213E-2,1.0337172E-2,-8.930413E-4],"split_indices":[0,5,4,4,2,2,5,4,1,4,2,4,4,3,1,0,0,5,5,0,4,3,1,1,5,3,3,2,1,0,0,0,0,0,0,0,0,0,0,0,0,0,0,0,0,0,0,0,0,0,0,0,0,0,0,0,0,0,0],"split_type":[0,0,0,0,0,0,0,0,0,0,0,0,0,0,0,0,0,0,0,0,0,0,0,0,0,0,0,0,0,0,0,0,0,0,0,0,0,0,0,0,0,0,0,0,0,0,0,0,0,0,0,0,0,0,0,0,0,0,0],"sum_hessian":[3.8027173E2,2.8657556E2,9.369616E1,2.221092E2,6.446637E1,6.9709305E1,2.3986853E1,1.5789743E2,6.421177E1,3.0733215E1,3.373315E1,4.1976517E1,2.7732788E1,1.9489388E1,4.4974656E0,5.8215073E1,9.968236E1,3.1980288E1,3.2231476E1,7.497056E0,2.3236158E1,1.6740211E1,1.699294E1,1.6742252E1,2.5234264E1,1.3242245E1,1.4490544E1,7.7458663E0,1.1743521E1,2.2486093E0,2.2488565E0,1.3242202E1,4.4972874E1,7.444987E1,2.5232496E1,1.2742558E1,1.9237732E1,6.746344E0,2.5485132E1,3.998554E0,3.4985023E0,1.6989143E1,6.247016E0,4.247662E0,1.2492549E1,1.1995285E1,4.997656E0,8.7469425E0,7.99531E0,9.993695E0,1.5240569E1,7.995981E0,5.246263E0,1.0243723E1,4.246822E0,4.99687E0,2.7489963E0,6.4960003E0,5.2475204E0],"tree_param":{"num_deleted":"0","num_feature":"9","num_nodes":"59","size_leaf_vector":"0"}},{"base_weights":[9.169817E-1,5.3777575E-1,1.9209375E0,1.5025067E0,-1.1680286E0,1.0080917E0,1.8381222E0,-1.033019E0,-1.5178038E0,1.3304238E0,6.590151E-2,1.7259283E0,1.8705304E0,-2.0279458E-1,-1.059381E0,-1.7343587E0,-1.3898032E0,9.3032855E-1,1.4809042E0,2.833464E-1,-8.327885E-1,1.90737E0,1.6440793E0,-1.1192467E0,-9.126073E-1,-1.1537988E0,-1.5497118E0],"categories":[],"categories_nodes":[],"categories_segments":[],"categories_sizes":[],"default_left":[1,1,0,1,1,1,1,1,1,1,1,1,1,0,1,1,1,0,0,0,0,1,1,1,1,1,1],"id":4,"left_children":[1,3,-1,5,7,9,-1,13,-1,17,19,-1,-1,-1,-1,-1,-1,-1,-1,-1,-1,-1,-1,-1,-1,-1,-1],"loss_changes":[1.4467648E2,4.5465436E2,0E0,2.9093262E1,4.5571594E0,2.1725891E1,5.8898926E-2,1.5616989E0,5.236511E-1,3.0723648E0,3.609053E0,5.5030823E-2,0E0,0E0,5.1368713E-1,0E0,4.9453354E-1,0E0,0E0,0E0,0E0,0E0,0E0,0E0,0E0,0E0,0E0],"parents":[2147483647,0,0,1,1,3,3,4,4,5,5,6,6,7,7,8,8,9,9,10,10,11,11,14,14,16,16],"right_children":[2,4,-1,6,8,10,-1,14,-1,18,20,-1,-1,-1,-1,-1,-1,-1,-1,-1,-1,-1,-1,-1,-1,-1,-1],"split_conditions":[2.5E0,1.5E0,1.9209376E-2,5E-1,2.5E0,2.5E0,1.8381221E-2,5E-1,-1.5178038E-2,5E-1,1.5E0,1.7259283E-2,1.8705303E-2,-2.0279458E-3,-1.059381E-2,-1.7343586E-2,-1.3898032E-2,9.303285E-3,1.4809042E-2,2.8334642E-3,-8.3278855E-3,1.9073699E-2,1.6440792E-2,-1.1192467E-2,-9.126073E-3,-1.1537988E-2,-1.5497118E-2],"split_indices":[6,6,0,6,0,0,0,8,4,5,4,2147483647,2147483647,0,0,2147483647,2147483647,0,0,0,0,2147483647,2147483647,2147483647,2147483647,2147483647,2147483647],"split_type":[0,0,0,0,0,0,0,0,0,0,0,0,0,0,0,0,0,0,0,0,0,0,0,0,0,0,0],"sum_hessian":[3.8019284E2,2.760711E2,1.0412173E2,1.7634802E2,9.972308E1,7.146665E1,1.0488137E2,7.2236046E1,2.7487036E1,5.3218796E1,1.8247852E1,2.4721941E1,8.0159424E1,2.2498713E0,6.9986176E1,9.745088E0,1.7741947E1,1.4741784E1,3.8477013E1,1.4747946E1,3.4999068E0,6.9919405E0,1.7730001E1,4.9239803E1,2.0746372E1,7.49776E0,1.0244187E1],"tree_param":{"num_deleted":"10","num_feature":"9","num_nodes":"27","size_leaf_vector":"0"}},{"base_weights":[9.082871E-1,5.32625E-1,1.9032063E0,1.4882946E0,-1.1566254E0,9.9831766E-1,1.8210374E0,-1.0228662E0,-1.5032359E0,1.3176488E0,6.521445E-2,1.7088189E0,1.8534728E0,-1.1602819E0,-4.8310265E-1,-1.7199987E0,-1.3752024E0,9.213086E-1,1.466743E0,-3.3091265E-1,6.2999064E-1,1.440803E0,1.7609919E0,-8.3329624E-1,-1.611523E0,-7.5009716E-1,4.5570445E-1,-1.3717536E0,-1.9115672E0,-1.8909653E0,-1.2474122E0],"categories":[],"categories_nodes":[],"categories_segments":[],"categories_sizes":[],"default_left":[1,1,0,1,1,1,1,1,1,1,1,1,1,1,1,1,1,0,0,0,0,1,1,0,0,0,0,1,1,0,0],"id":5,"left_children":[1,3,-1,5,7,9,-1,13,15,17,19,-1,-1,23,25,-1,29,-1,-1,-1,-1,-1,-1,-1,-1,-1,-1,-1,-1,-1,-1],"loss_changes":[1.4196176E2,4.4582788E2,0E0,2.8570435E1,4.473282E0,2.131009E1,6.5093994E-2,5.3084183E0,5.288086E-1,3.0144196E0,4.125572E0,9.312439E-2,0E0,8.361168E0,3.7558637E0,3.9431763E-1,9.396553E-1,0E0,0E0,0E0,0E0,0E0,0E0,0E0,0E0,0E0,0E0,0E0,0E0,0E0,0E0],"parents":[2147483647,0,0,1,1,3,3,4,4,5,5,6,6,7,7,8,8,9,9,10,10,11,11,13,13,14,14,15,15,16,16],"right_children":[2,4,-1,6,8,10,-1,14,16,18,20,-1,-1,24,26,-1,30,-1,-1,-1,-1,-1,-1,-1,-1,-1,-1,-1,-1,-1,-1],"split_conditions":[2.5E0,1.5E0,1.9032063E-2,5E-1,2.5E0,2.5E0,1.8210374E-2,2.5E0,5E-1,5E-1,2.5E0,1.7088188E-2,1.8534727E-2,1.5E0,1.5E0,-1.7199988E-2,5E-1,9.213085E-3,1.466743E-2,-3.3091265E-3,6.2999064E-3,1.4408031E-2,1.7609918E-2,-8.332962E-3,-1.611523E-2,-7.500971E-3,4.5570442E-3,-1.3717536E-2,-1.9115672E-2,-1.8909654E-2,-1.24741215E-2],"split_indices":[7,7,0,7,0,0,0,2,4,5,2,2147483647,2147483647,2,0,2,2,0,0,0,0,2147483647,2147483647,0,0,0,0,2147483647,2147483647,0,0],"split_type":[0,0,0,0,0,0,0,0,0,0,0,0,0,0,0,0,0,0,0,0,0,0,0,0,0,0,0,0,0,0,0],"sum_hessian":[3.799985E2,2.7595633E2,1.04042175E2,1.7625465E2,9.970168E1,7.144665E1,1.04808E2,7.2224785E1,2.7476896E1,5.3199306E1,1.824734E1,2.4704632E1,8.010337E1,5.7477036E1,1.4747746E1,9.741303E0,1.7735594E1,1.4738248E1,3.846106E1,1.0749312E1,7.4980273E0,4.491763E0,2.021287E1,3.349211E1,2.3984924E1,1.1497878E1,3.2498682E0,3.7465882E0,5.994715E0,3.2477803E0,1.4487813E1],"tree_param":{"num_deleted":"6","num_feature":"9","num_nodes":"31","size_leaf_vector":"0"}},{"base_weights":[8.9977974E-1,5.275674E-1,1.8859693E0,1.474402E0,-1.1454843E0,9.887156E-1,1.8044008E0,-1.0129169E0,-1.4890904E0,1.3051095E0,6.458096E-2,1.6792129E0,1.8810825E0,-1.1490405E0,-4.783319E-1,-1.3991808E0,-1.6714884E0,9.124127E-1,1.4528686E0,-3.276303E-1,6.2383515E-1,1.2451788E0,1.7770875E0,-8.2510614E-1,-1.5962145E0,-7.427438E-1,4.5127758E-1,-1.8923994E0,-1.198588E0,-1.885555E0,-1.3583568E0],"categories":[],"categories_nodes":[],"categories_segments":[],"categories_sizes":[],"default_left":[1,1,0,1,1,1,1,1,1,1,1,1,0,1,1,1,1,0,0,0,0,0,0,0,0,0,0,0,0,1,1],"id":6,"left_children":[1,3,-1,5,7,9,11,13,15,17,19,21,-1,23,25,27,-1,-1,-1,-1,-1,-1,-1,-1,-1,-1,-1,-1,-1,-1,-1],"loss_changes":[1.3933493E2,4.3724094E2,0E0,2.8068634E1,4.3938446E0,2.0903915E1,6.9033813E-1,5.206833E0,2.181549E-1,2.958702E0,4.0447135E0,1.5097198E0,0E0,8.206314E0,3.6827857E0,1.660553E0,3.1947708E-1,0E0,0E0,0E0,0E0,0E0,0E0,0E0,0E0,0E0,0E0,0E0,0E0,0E0,0E0],"parents":[2147483647,0,0,1,1,3,3,4,4,5,5,6,6,7,7,8,8,9,9,10,10,11,11,13,13,14,14,15,15,16,16],"right_children":[2,4,-1,6,8,10,12,14,16,18,20,22,-1,24,26,28,-1,-1,-1,-1,-1,-1,-1,-1,-1,-1,-1,-1,-1,-1,-1],"split_conditions":[2.5E0,1.5E0,1.8859692E-2,5E-1,2.5E0,2.5E0,1.5E0,2.5E0,2.5E0,5E-1,2.5E0,5E-1,1.8810825E-2,1.5E0,1.5E0,5E-1,-1.6714884E-2,9.124127E-3,1.4528685E-2,-3.276303E-3,6.238351E-3,1.24517875E-2,1.7770873E-2,-8.251062E-3,-1.5962144E-2,-7.4274377E-3,4.5127757E-3,-1.8923994E-2,-1.198588E-2,-1.885555E-2,-1.3583568E-2],"split_indices":[7,7,0,7,0,0,3,2,5,5,2,0,0,2,0,3,2,0,0,0,0,0,0,0,0,0,0,0,0,2147483647,2147483647],"split_type":[0,0,0,0,0,0,0,0,0,0,0,0,0,0,0,0,0,0,0,0,0,0,0,0,0,0,0,0,0,0,0],"sum_hessian":[3.797559E2,2.7581134E2,1.03944534E2,1.761399E2,9.967145E1,7.142195E1,1.0471795E2,7.220765E1,2.74638E1,5.3175236E1,1.8246714E1,4.064772E1,6.407023E1,5.7461147E1,1.4746501E1,1.8976694E1,8.487105E0,1.47341175E1,3.8441116E1,1.0749432E1,7.497281E0,7.731933E0,3.2915787E1,3.348733E1,2.3973816E1,1.149659E1,3.2499115E0,5.242646E0,1.3734048E1,4.7426915E0,3.7444143E0],"tree_param":{"num_deleted":"2","num_feature":"9","num_nodes":"31","size_leaf_vector":"0"}},{"base_weights":[8.9146924E-1,5.226235E-1,1.8692069E0,1.4608318E0,-1.1345351E0,9.7927004E-1,1.7882264E0,-9.4840366E-1,-1.3085043E0,5.709126E-1,1.1338015E0,1.6640141E0,1.8643242E0,-8.046231E-1,-1.1171713E0,-1.5688959E0,-1.231524E0,1.0072713E0,1.3968988E-1,3.0562115E-1,1.1751264E0,1.4632603E0,1.7974722E0,-1.4486656E0,-4.9421304E-1,-7.409746E-1,-1.4221079E0,-1.8886129E0,-1.40223E0,-1.1025863E0,-1.4746957E0],"categories":[],"categories_nodes":[],"categories_segments":[],"categories_sizes":[],"default_left":[1,1,0,1,1,1,1,1,1,1,1,1,0,1,1,1,1,0,0,0,0,0,0,0,0,0,0,1,1,0,0],"id":7,"left_children":[1,3,-1,5,7,9,11,13,15,17,19,21,-1,23,25,-1,29,-1,-1,-1,-1,-1,-1,-1,-1,-1,-1,-1,-1,-1,-1],"loss_changes":[1.3678735E2,4.288722E2,0E0,2.758963E1,3.1053925E0,4.446747E0,6.795349E-1,1.0881004E0,8.348465E-1,3.717011E0,1.7356796E0,8.27713E-1,0E0,5.24041E0,2.4269886E0,3.393097E-1,1.0931396E0,0E0,0E0,0E0,0E0,0E0,0E0,0E0,0E0,0E0,0E0,0E0,0E0,0E0,0E0],"parents":[2147483647,0,0,1,1,3,3,4,4,5,5,6,6,7,7,8,8,9,9,10,10,11,11,13,13,14,14,15,15,16,16],"right_children":[2,4,-1,6,8,10,12,14,16,18,20,22,-1,24,26,-1,30,-1,-1,-1,-1,-1,-1,-1,-1,-1,-1,-1,-1,-1,-1],"split_conditions":[2.5E0,1.5E0,1.8692069E-2,5E-1,1.5E0,5E-1,1.5E0,2.5E0,5E-1,1E0,5E-1,1E0,1.8643241E-2,5E-1,1.5E0,-1.568896E-2,1.5E0,1.0072713E-2,1.3968988E-3,3.0562114E-3,1.1751264E-2,1.4632602E-2,1.7974721E-2,-1.4486656E-2,-4.9421303E-3,-7.409746E-3,-1.4221079E-2,-1.8886128E-2,-1.40223E-2,-1.1025863E-2,-1.47469565E-2],"split_indices":[6,6,0,6,3,5,3,1,5,1,8,1,0,4,5,3,4,0,0,0,0,0,0,0,0,0,0,2147483647,2147483647,0,0],"split_type":[0,0,0,0,0,0,0,0,0,0,0,0,0,0,0,0,0,0,0,0,0,0,0,0,0,0,0,0,0,0,0],"sum_hessian":[3.7946744E2,2.7563806E2,1.0382938E2,1.7600424E2,9.9633804E1,7.139261E1,1.0461163E2,4.8446053E1,5.118775E1,1.9728485E1,5.1664124E1,4.0610706E1,6.400093E1,2.647101E1,2.1975042E1,1.123763E1,3.9950123E1,9.739451E0,9.989035E0,2.4953377E0,4.9168785E1,1.6694502E1,2.3916204E1,8.489728E0,1.7981281E1,9.991563E0,1.19834795E1,3.4967027E0,7.7409267E0,2.646887E1,1.3481255E1],"tree_param":{"num_deleted":"2","num_feature":"9","num_nodes":"31","size_leaf_vector":"0"}},{"base_weights":[8.833105E-1,5.1775324E-1,1.8529001E0,1.4474964E0,-1.1237258E0,9.698792E-1,1.7724669E0,-1.2202121E0,-7.933872E-1,5.653655E-1,1.1229966E0,1.6491716E0,1.8480198E0,-1.0042241E0,-1.6097673E0,-3.8054147E-1,-1.2085786E0,1.908169E-1,9.250503E-1,3.027203E-1,1.1639405E0,1.7412885E0,1.5109941E0,-7.6660776E-1,-1.0926228E0,-1.460056E0,-1.882479E0,-7.928016E-1,2.639808E-1,-1.5651716E0,-7.7954173E-1],"categories":[],"categories_nodes":[],"categories_segments":[],"categories_sizes":[],"default_left":[1,1,0,1,1,1,1,1,1,1,1,1,1,1,1,1,1,0,0,0,0,1,1,0,0,0,0,0,0,0,0],"id":8,"left_children":[1,3,-1,5,7,9,-1,13,15,17,19,-1,-1,23,25,27,29,-1,-1,-1,-1,-1,-1,-1,-1,-1,-1,-1,-1,-1,-1],"loss_changes":[1.3432446E2,4.206934E2,0E0,2.7138397E1,3.080742E0,4.362976E0,6.6952515E-1,6.3146744E0,3.8659706E0,2.6531415E0,1.702507E0,2.5454712E-1,0E0,9.619217E-1,8.392868E-1,3.10036E0,1.6118183E0,0E0,0E0,0E0,0E0,0E0,0E0,0E0,0E0,0E0,0E0,0E0,0E0,0E0,0E0],"parents":[2147483647,0,0,1,1,3,3,4,4,5,5,6,6,7,7,8,8,9,9,10,10,11,11,13,13,14,14,15,15,16,16],"right_children":[2,4,-1,6,8,10,-1,14,16,18,20,-1,-1,24,26,28,30,-1,-1,-1,-1,-1,-1,-1,-1,-1,-1,-1,-1,-1,-1],"split_conditions":[2.5E0,1.5E0,1.8529002E-2,5E-1,2.5E0,5E-1,1.7724669E-2,1.5E0,1.5E0,1.5E0,5E-1,1.6491715E-2,1.8480198E-2,5E-1,2.5E0,5E-1,2.5E0,1.9081689E-3,9.250503E-3,3.027203E-3,1.1639405E-2,1.7412884E-2,1.510994E-2,-7.6660775E-3,-1.0926227E-2,-1.4600559E-2,-1.882479E-2,-7.928016E-3,2.639808E-3,-1.5651716E-2,-7.795417E-3],"split_indices":[6,6,0,6,2,5,3,2,3,3,8,2147483647,2147483647,3,5,3,3,0,0,0,0,2147483647,2147483647,0,0,0,0,0,0,0,0],"split_type":[0,0,0,0,0,0,0,0,0,0,0,0,0,0,0,0,0,0,0,0,0,0,0,0,0,0,0,0,0,0,0],"sum_hessian":[3.791466E2,2.7544937E2,1.0369724E2,1.7585556E2,9.9593796E1,7.1365845E1,1.04489716E2,7.687154E1,2.2722252E1,1.9724861E1,5.1640987E1,4.0568516E1,6.39212E1,4.9682808E1,2.7188732E1,1.14894085E1,1.1232843E1,9.737752E0,9.987108E0,2.4950166E0,4.914597E1,2.3645147E1,1.692337E1,1.3733717E1,3.594909E1,1.796294E1,9.225793E0,6.993258E0,4.496151E0,5.9897037E0,5.2431397E0],"tree_param":{"num_deleted":"4","num_feature":"9","num_nodes":"31","size_leaf_vector":"0"}},{"base_weights":[8.753186E-1,5.1296675E-1,1.8370315E0,1.4344165E0,-1.1131103E0,9.606242E-1,1.757072E0,-9.300227E-1,-1.2842888E0,5.598792E-1,1.1123621E0,1.6335521E0,1.8327949E0,-1.1106615E0,-8.4609693E-1,-1.5430946E0,-1.207819E0,1.8893977E-1,9.1619295E-1,2.9984802E-1,1.1529347E0,1.7258041E0,1.4952645E0,-1.6398467E0,-4.9169207E-1,-4.4298592E-1,-9.458418E-1,-1.8631288E0,-1.3765785E0,-1.0799305E0,-1.4491675E0],"categories":[],"categories_nodes":[],"categories_segments":[],"categories_sizes":[],"default_left":[1,1,0,1,1,1,1,1,1,1,1,1,1,1,1,1,1,0,0,0,0,1,1,0,0,0,0,1,1,0,0],"id":9,"left_children":[1,3,-1,5,7,9,-1,13,15,17,19,-1,-1,23,25,-1,29,-1,-1,-1,-1,-1,-1,-1,-1,-1,-1,-1,-1,-1,-1],"loss_changes":[1.3193823E2,4.12706E2,0E0,2.6704285E1,3.0035324E0,4.281601E0,6.776123E-1,6.414604E-1,8.276062E-1,2.6024408E0,1.6702423E0,2.6010895E-1,0E0,4.8551483E0,1.3067513E0,3.470707E-1,1.0784264E0,0E0,0E0,0E0,0E0,0E0,0E0,0E0,0E0,0E0,0E0,0E0,0E0,0E0,0E0],"parents":[2147483647,0,0,1,1,3,3,4,4,5,5,6,6,7,7,8,8,9,9,10,10,11,11,13,13,14,14,15,15,16,16],"right_children":[2,4,-1,6,8,10,-1,14,16,18,20,-1,-1,24,26,-1,30,-1,-1,-1,-1,-1,-1,-1,-1,-1,-1,-1,-1,-1,-1],"split_conditions":[2.5E0,1.5E0,1.8370314E-2,5E-1,1.5E0,5E-1,1.757072E-2,5E-1,5E-1,1.5E0,5E-1,1.633552E-2,1.832795E-2,5E-1,5E-1,-1.5430946E-2,1.5E0,1.8893976E-3,9.16193E-3,2.99848E-3,1.1529346E-2,1.725804E-2,1.4952645E-2,-1.6398467E-2,-4.9169203E-3,-4.429859E-3,-9.458418E-3,-1.8631287E-2,-1.3765784E-2,-1.07993055E-2,-1.44916745E-2],"split_indices":[6,6,0,6,3,5,3,4,5,3,8,2147483647,2147483647,3,5,3,4,0,0,0,0,2147483647,2147483647,0,0,0,0,2147483647,2147483647,0,0],"split_type":[0,0,0,0,0,0,0,0,0,0,0,0,0,0,0,0,0,0,0,0,0,0,0,0,0,0,0,0,0,0,0],"sum_hessian":[3.787827E2,2.7523407E2,1.0354867E2,1.7568842E2,9.954564E1,7.133569E1,1.0435273E2,4.8410484E1,5.113516E1,1.9720957E1,5.161474E1,4.0517467E1,6.3835262E1,1.4968804E1,3.3441677E1,1.1225487E1,3.990967E1,9.73715E0,9.983807E0,2.494687E0,4.912005E1,2.36155E1,1.6901966E1,7.980758E0,6.988046E0,6.741315E0,2.6700363E1,3.493088E0,7.732398E0,2.6444445E1,1.3465228E1],"tree_param":{"num_deleted":"6","num_feature":"9","num_nodes":"31","size_leaf_vector":"0"}},{"base_weights":[8.6748856E-1,5.082675E-1,1.8215842E0,1.4216036E0,-1.1026345E0,9.5150346E-1,1.7420603E0,-9.708203E-1,-1.4446638E0,1.2659441E0,3.460931E-2,1.6305578E0,1.7743652E0,-1.10478E0,-4.4539326E-1,-1.6577896E0,-1.3190118E0,8.874062E-1,1.4085531E0,-3.539336E-1,5.8942646E-1,1.3628136E0,1.6830175E0,-7.866226E-1,-1.5447083E0,-7.061976E-1,4.6997958E-1,-1.3128532E0,-1.8482773E0,-1.8331808E0,-1.1919625E0],"categories":[],"categories_nodes":[],"categories_segments":[],"categories_sizes":[],"default_left":[1,1,0,1,1,1,1,1,1,1,1,1,1,1,1,1,1,0,0,0,0,1,1,0,0,0,0,1,1,0,0],"id":10,"left_children":[1,3,-1,5,7,9,-1,13,15,17,19,-1,-1,23,25,-1,29,-1,-1,-1,-1,-1,-1,-1,-1,-1,-1,-1,-1,-1,-1],"loss_changes":[1.2962466E2,4.049052E2,0E0,2.62883E1,4.349846E0,2.0581474E1,8.6364746E-2,5.0322037E0,5.177841E-1,2.7450485E0,3.973658E0,1.1706543E-1,0E0,7.9208527E0,3.5746105E0,4.0195274E-1,9.436035E-1,0E0,0E0,0E0,0E0,0E0,0E0,0E0,0E0,0E0,0E0,0E0,0E0,0E0,0E0],"parents":[2147483647,0,0,1,1,3,3,4,4,5,5,6,6,7,7,8,8,9,9,10,10,11,11,13,13,14,14,15,15,16,16],"right_children":[2,4,-1,6,8,10,-1,14,16,18,20,-1,-1,24,26,-1,30,-1,-1,-1,-1,-1,-1,-1,-1,-1,-1,-1,-1,-1,-1],"split_conditions":[2.5E0,1.5E0,1.8215843E-2,5E-1,2.5E0,2.5E0,1.7420603E-2,2.5E0,5E-1,5E-1,2.5E0,1.6305577E-2,1.774365E-2,1.5E0,1.5E0,-1.6577896E-2,5E-1,8.8740615E-3,1.4085531E-2,-3.539336E-3,5.8942647E-3,1.3628135E-2,1.6830174E-2,-7.866225E-3,-1.5447082E-2,-7.061976E-3,4.6997955E-3,-1.3128532E-2,-1.8482773E-2,-1.8331807E-2,-1.1919624E-2],"split_indices":[7,7,0,7,0,0,0,2,4,5,2,2147483647,2147483647,2,0,2,2,0,0,0,0,2147483647,2147483647,0,0,0,0,2147483647,2147483647,0,0],"split_type":[0,0,0,0,0,0,0,0,0,0,0,0,0,0,0,0,0,0,0,0,0,0,0,0,0,0,0,0,0,0,0],"sum_hessian":[3.7838092E2,2.7499677E2,1.0338417E2,1.7550317E2,9.949359E1,7.1302124E1,1.0420105E2,7.2093445E1,2.7400152E1,5.306566E1,1.8236464E1,2.4564007E1,7.963704E1,5.7359222E1,1.473422E1,9.710407E0,1.7689745E1,1.4718769E1,3.834689E1,1.0746682E1,7.489781E0,4.4663734E0,2.0097633E1,3.3448196E1,2.3911024E1,1.1484853E1,3.2493663E0,3.7354462E0,5.974961E0,3.238925E0,1.4450821E1],"tree_param":{"num_deleted":"6","num_feature":"9","num_nodes":"31","size_leaf_vector":"0"}},{"base_weights":[8.5984373E-1,5.036757E-1,1.8065423E0,1.4090992E0,-1.0923693E0,9.425978E-1,1.7274177E0,-9.1126704E-1,-1.2617633E0,3.895368E-1,9.7476745E-1,1.6033984E0,1.8035094E0,-7.6852775E-1,-1.0789752E0,-1.390012E0,-1.139588E0,9.933983E-1,5.5533224E-1,1.4034238E0,1.736587E0,-1.4038756E0,-4.6272767E-1,-8.6368686E-1,-1.5712849E0,-1.7008978E0,-1.1039741E0,-5.919345E-1,-1.4241405E0],"categories":[],"categories_nodes":[],"categories_segments":[],"categories_sizes":[],"default_left":[1,1,0,1,1,1,1,1,1,0,1,1,0,1,1,1,1,1,1,0,0,0,0,0,0,0,0,0,0],"id":11,"left_children":[1,3,-1,5,7,9,11,13,15,-1,-1,19,-1,21,23,25,27,-1,-1,-1,-1,-1,-1,-1,-1,-1,-1,-1,-1],"loss_changes":[1.2737445E2,3.973031E2,0E0,2.5882507E1,2.9384003E0,1.2316322E0,6.935425E-1,1.0772171E0,6.4333344E-1,0E0,4.712906E-1,8.3493805E-1,0E0,5.08916E0,2.1997604E0,1.9916458E0,4.085808E0,0E0,0E0,0E0,0E0,0E0,0E0,0E0,0E0,0E0,0E0,0E0,0E0],"parents":[2147483647,0,0,1,1,3,3,4,4,5,5,6,6,7,7,8,8,10,10,11,11,13,13,14,14,15,15,16,16],"right_children":[2,4,-1,6,8,10,12,14,16,-1,-1,20,-1,22,24,26,28,-1,-1,-1,-1,-1,-1,-1,-1,-1,-1,-1,-1],"split_conditions":[2.5E0,1.5E0,1.8065423E-2,5E-1,1.5E0,5E-1,1.5E0,2.5E0,2.5E0,3.895368E-3,9.747675E-3,1E0,1.8035093E-2,5E-1,1.5E0,1E0,5E-1,9.933983E-3,5.5533224E-3,1.4034238E-2,1.7365871E-2,-1.4038756E-2,-4.6272767E-3,-8.636869E-3,-1.5712848E-2,-1.7008977E-2,-1.103974E-2,-5.9193447E-3,-1.4241404E-2],"split_indices":[6,6,0,6,3,8,3,1,3,0,8,1,0,4,4,1,4,2147483647,2147483647,0,0,0,0,0,0,0,0,0,0],"split_type":[0,0,0,0,0,0,0,0,0,0,0,0,0,0,0,0,0,0,0,0,0,0,0,0,0,0,0,0,0],"sum_hessian":[3.7792957E2,2.747253E2,1.0320426E2,1.752941E2,9.943122E1,7.125894E1,1.0403515E2,4.836319E1,5.1068027E1,3.9891038E0,6.7269844E1,4.0398354E1,6.363679E1,2.6428066E1,2.1935125E1,2.4408487E1,2.665954E1,6.427785E1,2.991997E0,1.6611254E1,2.37871E1,8.470397E0,1.7957668E1,1.5452947E1,6.482178E0,1.1459197E1,1.2949289E1,9.2209E0,1.743864E1],"tree_param":{"num_deleted":"2","num_feature":"9","num_nodes":"29","size_leaf_vector":"0"}},{"base_weights":[8.523232E-1,4.991436E-1,1.7918905E0,1.3967876E0,-1.082228E0,9.336902E-1,1.7131625E0,-9.5143986E-1,-1.4218345E0,1.2457676E0,2.4750654E-2,1.6327486E0,1.7729715E0,-1.0842364E0,-4.3097088E-1,-1.6766768E0,-1.2223713E0,8.701983E-1,1.3873825E0,-3.6012274E-1,5.747201E-1,1.7426393E0,1.3835816E0,-7.6862293E-1,-1.5211058E0,-6.887355E-1,4.7283635E-1,-1.0984108E0,-1.839402E0,-4.0811818E-2,-1.5274822E0],"categories":[],"categories_nodes":[],"categories_segments":[],"categories_sizes":[],"default_left":[1,1,0,1,1,1,1,1,1,1,1,1,0,1,1,1,1,0,0,0,0,0,0,0,0,0,0,0,0,0,0],"id":12,"left_children":[1,3,-1,5,7,9,11,13,15,17,19,21,-1,23,25,27,29,-1,-1,-1,-1,-1,-1,-1,-1,-1,-1,-1,-1,-1,-1],"loss_changes":[1.251965E2,3.898694E2,0E0,2.5505585E1,4.2827377E0,2.0227795E1,2.1051025E-1,4.937561E0,1.1905708E0,2.7029266E0,3.9007564E0,1.0075912E0,0E0,7.795967E0,3.4864438E0,9.0686035E-1,5.6786766E0,0E0,0E0,0E0,0E0,0E0,0E0,0E0,0E0,0E0,0E0,0E0,0E0,0E0,0E0],"parents":[2147483647,0,0,1,1,3,3,4,4,5,5,6,6,7,7,8,8,9,9,10,10,11,11,13,13,14,14,15,15,16,16],"right_children":[2,4,-1,6,8,10,12,14,16,18,20,22,-1,24,26,28,30,-1,-1,-1,-1,-1,-1,-1,-1,-1,-1,-1,-1,-1,-1],"split_conditions":[2.5E0,1.5E0,1.7918905E-2,5E-1,2.5E0,2.5E0,1E0,2.5E0,1.5E0,5E-1,2.5E0,1.5E0,1.7729715E-2,1.5E0,1.5E0,5E-1,2.5E0,8.701983E-3,1.3873825E-2,-3.6012274E-3,5.747201E-3,1.7426392E-2,1.3835816E-2,-7.686229E-3,-1.5211057E-2,-6.887355E-3,4.7283634E-3,-1.0984108E-2,-1.839402E-2,-4.0811818E-4,-1.5274821E-2],"split_indices":[7,7,0,7,0,0,1,2,1,5,2,5,0,2,0,5,1,0,0,0,0,0,0,0,0,0,0,0,0,0,0],"split_type":[0,0,0,0,0,0,0,0,0,0,0,0,0,0,0,0,0,0,0,0,0,0,0,0,0,0,0,0,0,0,0],"sum_hessian":[3.774539E2,2.7444446E2,1.0300944E2,1.750764E2,9.9368065E1,7.122098E1,1.03855415E2,7.201432E1,2.7353746E1,5.299016E1,1.8230822E1,4.5504242E1,5.8351177E1,5.7288868E1,1.47254505E1,1.1684523E1,1.5669224E1,1.4705358E1,3.82848E1,1.0745527E1,7.485294E0,3.1161575E1,1.4342668E1,3.3420433E1,2.3868435E1,1.1476238E1,3.2492118E0,2.736173E0,8.94835E0,3.2390785E0,1.2430145E1],"tree_param":{"num_deleted":"0","num_feature":"9","num_nodes":"31","size_leaf_vector":"0"}},{"base_weights":[8.4499294E-1,4.9473062E-1,1.7776146E0,1.3847908E0,-1.0722873E0,9.2504007E-1,1.6992431E0,-9.4254583E-1,-1.4093416E0,1.2344913E0,2.4516845E-2,1.5755298E0,1.7752025E0,-1.0742066E0,-4.2677695E-1,-1.6213748E0,-1.2845281E0,1.3368508E0,9.997779E-1,-3.5653174E-1,5.691918E-1,1.1434141E0,1.6733326E0,-7.612539E-1,-1.5077373E0,-6.821247E-1,4.6822402E-1,-1.8176272E0,-1.0043226E0,-1.7934213E0,-1.1589919E0],"categories":[],"categories_nodes":[],"categories_segments":[],"categories_sizes":[],"default_left":[1,1,0,1,1,1,1,1,1,1,1,1,0,1,1,1,1,0,0,0,0,0,0,0,0,0,0,0,0,0,0],"id":13,"left_children":[1,3,-1,5,7,9,11,13,15,17,19,21,-1,23,25,27,29,-1,-1,-1,-1,-1,-1,-1,-1,-1,-1,-1,-1,-1,-1],"loss_changes":[1.2307266E2,3.8262405E2,0E0,2.5132935E1,4.2136307E0,1.9857937E1,6.9537354E-1,4.8481674E0,5.1747894E-1,1.1406784E0,3.8245623E0,1.5144806E0,0E0,7.6658554E0,3.4192986E0,1.0017929E0,9.2567635E-1,0E0,0E0,0E0,0E0,0E0,0E0,0E0,0E0,0E0,0E0,0E0,0E0,0E0,0E0],"parents":[2147483647,0,0,1,1,3,3,4,4,5,5,6,6,7,7,8,8,9,9,10,10,11,11,13,13,14,14,15,15,16,16],"right_children":[2,4,-1,6,8,10,12,14,16,18,20,22,-1,24,26,28,30,-1,-1,-1,-1,-1,-1,-1,-1,-1,-1,-1,-1,-1,-1],"split_conditions":[2.5E0,1.5E0,1.7776145E-2,5E-1,2.5E0,2.5E0,1.5E0,2.5E0,5E-1,1.5E0,2.5E0,5E-1,1.7752025E-2,1.5E0,1.5E0,2.5E0,5E-1,1.3368507E-2,9.997779E-3,-3.5653173E-3,5.691918E-3,1.1434142E-2,1.6733326E-2,-7.612539E-3,-1.5077372E-2,-6.821247E-3,4.68224E-3,-1.817627E-2,-1.0043226E-2,-1.7934212E-2,-1.1589919E-2],"split_indices":[6,6,0,6,0,0,3,2,4,0,2,0,0,2,0,3,2,0,0,0,0,0,0,0,0,0,0,0,0,0,0],"split_type":[0,0,0,0,0,0,0,0,0,0,0,0,0,0,0,0,0,0,0,0,0,0,0,0,0,0,0,0,0,0,0],"sum_hessian":[3.7692728E2,2.741271E2,1.0280018E2,1.748338E2,9.9293304E1,7.117105E1,1.0366276E2,7.1969795E1,2.7323505E1,5.2941433E1,1.8229618E1,4.026246E1,6.34003E1,5.7247833E1,1.4721966E1,9.680024E0,1.7643482E1,3.6537666E1,1.6403767E1,1.07462225E1,7.4833956E0,7.6651416E0,3.2597317E1,3.340754E1,2.3840294E1,1.1472574E1,3.2493913E0,7.196594E0,2.4834297E0,3.2282643E0,1.4415217E1],"tree_param":{"num_deleted":"0","num_feature":"9","num_nodes":"31","size_leaf_vector":"0"}},{"base_weights":[8.3780193E-1,4.9038994E-1,1.7637006E0,1.3730243E0,-1.0625066E0,9.165049E-1,1.6856583E0,-9.3378145E-1,-1.3970883E0,1.2233752E0,2.4285484E-2,1.5626389E0,1.7612185E0,-7.399072E-1,-1.1320454E0,-1.6499822E0,-1.1993225E0,1.32491E0,9.9061424E-1,2.3799527E-1,-8.569652E-1,1.1335076E0,1.6598344E0,-8.4672946E-1,-5.004119E-1,-9.526231E-1,-1.4955167E0,-1.4338887E0,-1.800223E0,-2.6749812E-2,-1.5026498E0],"categories":[],"categories_nodes":[],"categories_segments":[],"categories_sizes":[],"default_left":[1,1,0,1,1,1,1,1,1,1,1,1,0,1,1,1,1,0,0,0,0,0,0,0,0,0,0,1,1,0,0],"id":14,"left_children":[1,3,-1,5,7,9,11,13,15,17,19,21,-1,23,25,-1,29,-1,-1,-1,-1,-1,-1,-1,-1,-1,-1,-1,-1,-1,-1],"loss_changes":[1.2101065E2,3.7554877E2,0E0,2.4775757E1,4.1468735E0,1.949636E1,6.873474E-1,2.6846352E0,1.1720772E0,1.1210861E0,3.4721873E0,1.4923706E0,0E0,8.9661026E-1,2.1673813E0,1.23485565E-1,5.593336E0,0E0,0E0,0E0,0E0,0E0,0E0,0E0,0E0,0E0,0E0,0E0,0E0,0E0,0E0],"parents":[2147483647,0,0,1,1,3,3,4,4,5,5,6,6,7,7,8,8,9,9,10,10,11,11,13,13,14,14,15,15,16,16],"right_children":[2,4,-1,6,8,10,12,14,16,18,20,22,-1,24,26,-1,30,-1,-1,-1,-1,-1,-1,-1,-1,-1,-1,-1,-1,-1,-1],"split_conditions":[2.5E0,1.5E0,1.7637005E-2,5E-1,2.5E0,2.5E0,1.5E0,1.5E0,1.5E0,1.5E0,1.5E0,5E-1,1.7612185E-2,1.5E0,1.5E0,-1.6499821E-2,2.5E0,1.32491E-2,9.906142E-3,2.3799527E-3,-8.569651E-3,1.1335076E-2,1.6598344E-2,-8.467294E-3,-5.004119E-3,-9.526231E-3,-1.4955166E-2,-1.4338886E-2,-1.8002229E-2,-2.674981E-4,-1.5026498E-2],"split_indices":[7,7,0,7,0,0,3,3,1,0,4,0,0,4,4,3,1,0,0,0,0,0,0,0,0,0,0,2147483647,2147483647,0,0],"split_type":[0,0,0,0,0,0,0,0,0,0,0,0,0,0,0,0,0,0,0,0,0,0,0,0,0,0,0,0,0,0,0],"sum_hessian":[3.7636572E2,2.7378876E2,1.02576965E2,1.7457532E2,9.921343E1,7.111856E1,1.0345675E2,7.1921745E1,2.7291685E1,5.2890327E1,1.8228237E1,4.0190636E1,6.3266117E1,3.6602673E1,3.5319077E1,1.1654342E1,1.5637342E1,3.6499382E1,1.6390944E1,1.4729273E1,3.4989638E0,7.6557326E0,3.2534904E1,2.5137173E1,1.1465502E1,2.3888803E1,1.1430271E1,5.2120986E0,6.442243E0,3.2361555E0,1.2401187E1],"tree_param":{"num_deleted":"2","num_feature":"9","num_nodes":"31","size_leaf_vector":"0"}},{"base_weights":[8.3074254E-1,4.8611975E-1,1.7501357E0,1.3614781E0,-1.0528165E0,9.080757E-1,1.6723928E0,-1.1460791E0,-7.3414326E-1,5.148382E-1,1.057292E0,1.5500213E0,1.7475845E0,-9.359326E-1,-1.5262212E0,-3.3212802E-1,-1.1395864E0,9.5065147E-1,8.4797025E-2,9.245577E-1,1.2898862E0,1.3517572E0,1.6823252E0,-7.057732E-1,-1.0217406E0,-1.3760569E0,-1.8007891E0,-1.1056342E0,3.2394186E-1,-6.071663E-1,-1.5146844E0],"categories":[],"categories_nodes":[],"categories_segments":[],"categories_sizes":[],"default_left":[1,1,0,1,1,1,1,1,1,1,1,1,0,1,1,1,1,0,0,0,0,0,0,0,0,0,0,0,0,0,0],"id":15,"left_children":[1,3,-1,5,7,9,11,13,15,17,19,21,-1,23,25,27,29,-1,-1,-1,-1,-1,-1,-1,-1,-1,-1,-1,-1,-1,-1],"loss_changes":[1.1900827E2,3.6862616E2,0E0,2.443338E1,2.8650818E0,4.121235E0,6.7996216E-1,5.9754105E0,3.6693773E0,3.6972237E0,1.4704933E0,8.274689E-1,0E0,9.070854E-1,8.698425E-1,5.9030614E0,2.1613274E0,0E0,0E0,0E0,0E0,0E0,0E0,0E0,0E0,0E0,0E0,0E0,0E0,0E0,0E0],"parents":[2147483647,0,0,1,1,3,3,4,4,5,5,6,6,7,7,8,8,9,9,10,10,11,11,13,13,14,14,15,15,16,16],"right_children":[2,4,-1,6,8,10,12,14,16,18,20,22,-1,24,26,28,30,-1,-1,-1,-1,-1,-1,-1,-1,-1,-1,-1,-1,-1,-1],"split_conditions":[2.5E0,1.5E0,1.7501356E-2,5E-1,2.5E0,5E-1,1.5E0,1.5E0,1.5E0,1E0,2.5E0,1E0,1.7475843E-2,5E-1,2.5E0,1E0,1E0,9.506514E-3,8.4797025E-4,9.245576E-3,1.2898862E-2,1.3517572E-2,1.6823253E-2,-7.0577315E-3,-1.0217405E-2,-1.3760569E-2,-1.8007891E-2,-1.1056342E-2,3.2394184E-3,-6.071663E-3,-1.5146844E-2],"split_indices":[6,6,0,6,2,5,3,2,3,1,5,1,0,3,5,1,1,0,0,0,0,0,0,0,0,0,0,0,0,0,0],"split_type":[0,0,0,0,0,0,0,0,0,0,0,0,0,0,0,0,0,0,0,0,0,0,0,0,0,0,0,0,0,0,0],"sum_hessian":[3.757739E2,2.7343365E2,1.0234025E2,1.743013E2,9.913235E1,7.1063095E1,1.03238205E2,7.648785E1,2.2644505E1,1.9670202E1,5.139289E1,4.0114616E1,6.3123592E1,4.9480637E1,2.7007206E1,1.1461664E1,1.118284E1,9.709411E0,9.960792E0,3.3037132E1,1.8355759E1,1.6504091E1,2.3610527E1,1.3688087E1,3.579255E1,1.784743E1,9.159778E0,5.2286105E0,6.2330537E0,4.73036E0,6.4524803E0],"tree_param":{"num_deleted":"0","num_feature":"9","num_nodes":"31","size_leaf_vector":"0"}},{"base_weights":[8.238053E-1,4.8191434E-1,1.7369074E0,1.3500963E0,-1.0432926E0,8.9968187E-1,1.6594347E0,-8.668379E-1,-1.2085724E0,5.09905E-1,1.0476652E0,1.5376662E0,1.7342876E0,-1.043301E0,-7.850542E-1,-1.4688518E0,-1.1318455E0,1.4259955E-1,8.6341554E-1,2.3984165E-1,1.0881681E0,1.6320453E0,1.396811E0,-1.5670148E0,-4.3270686E-1,-3.885742E-1,-8.834557E-1,-1.7894876E0,-1.3028978E0,-1.0070295E0,-1.3680209E0],"categories":[],"categories_nodes":[],"categories_segments":[],"categories_sizes":[],"default_left":[1,1,0,1,1,1,1,1,1,1,1,1,1,1,1,1,1,0,0,0,0,1,1,0,0,0,0,1,1,0,0],"id":16,"left_children":[1,3,-1,5,7,9,-1,13,15,17,19,-1,-1,23,25,-1,29,-1,-1,-1,-1,-1,-1,-1,-1,-1,-1,-1,-1,-1,-1],"loss_changes":[1.1706416E2,3.618546E2,0E0,2.4110992E1,2.7867432E0,4.048397E0,6.731262E-1,6.1522293E-1,8.510437E-1,2.5539632E0,1.6572571E0,3.055725E-1,0E0,4.7268105E0,1.2691898E0,3.6609077E-1,1.034832E0,0E0,0E0,0E0,0E0,0E0,0E0,0E0,0E0,0E0,0E0,0E0,0E0,0E0,0E0],"parents":[2147483647,0,0,1,1,3,3,4,4,5,5,6,6,7,7,8,8,9,9,10,10,11,11,13,13,14,14,15,15,16,16],"right_children":[2,4,-1,6,8,10,-1,14,16,18,20,-1,-1,24,26,-1,30,-1,-1,-1,-1,-1,-1,-1,-1,-1,-1,-1,-1,-1,-1],"split_conditions":[2.5E0,1.5E0,1.7369073E-2,5E-1,1.5E0,5E-1,1.6594347E-2,5E-1,5E-1,1.5E0,5E-1,1.5376662E-2,1.7342877E-2,5E-1,5E-1,-1.4688518E-2,1.5E0,1.4259955E-3,8.634156E-3,2.3984164E-3,1.0881681E-2,1.6320452E-2,1.396811E-2,-1.5670149E-2,-4.3270686E-3,-3.885742E-3,-8.834557E-3,-1.7894875E-2,-1.3028977E-2,-1.0070295E-2,-1.36802085E-2],"split_indices":[6,6,0,6,3,5,3,4,5,3,8,2147483647,2147483647,3,5,3,4,0,0,0,0,2147483647,2147483647,0,0,0,0,2147483647,2147483647,0,0],"split_type":[0,0,0,0,0,0,0,0,0,0,0,0,0,0,0,0,0,0,0,0,0,0,0,0,0,0,0,0,0,0,0],"sum_hessian":[3.7515576E2,2.7306525E2,1.0209049E2,1.7402042E2,9.9044846E1,7.101267E1,1.03007744E2,4.8205032E1,5.0839817E1,1.9663944E1,5.134873E1,4.003474E1,6.2973003E1,1.4893638E1,3.3311394E1,1.1161721E1,3.9678093E1,9.712636E0,9.951309E0,2.4846618E0,4.8864067E1,2.333835E1,1.6696388E1,7.932877E0,6.9607606E0,6.721988E0,2.6589405E1,3.4731085E0,7.6886125E0,2.6303436E1,1.337466E1],"tree_param":{"num_deleted":"6","num_feature":"9","num_nodes":"31","size_leaf_vector":"0"}},{"base_weights":[8.1697947E-1,4.7776017E-1,1.7240037E0,1.3388975E0,-1.0338583E0,8.913837E-1,1.6467389E0,-9.057571E-1,-1.3672544E0,1.1964765E0,6.256755E-3,1.5245702E0,1.7218715E0,-7.158962E-1,-1.1001307E0,-1.6192844E0,-1.1703924E0,8.2895243E-1,1.3354402E0,-1.3285972E-1,7.689282E-1,1.0971066E0,1.6215864E0,-6.2721765E-1,-8.1196076E-1,-1.274433E0,-9.7427565E-1,-1.04581E0,-1.7812992E0,-1.0297132E-2,-1.4713242E0],"categories":[],"categories_nodes":[],"categories_segments":[],"categories_sizes":[],"default_left":[1,1,0,1,1,1,1,1,1,1,1,1,0,1,1,1,1,0,0,0,0,0,0,1,1,1,1,0,0,0,0],"id":17,"left_children":[1,3,-1,5,7,9,11,13,15,17,19,21,-1,-1,-1,27,29,-1,-1,-1,-1,-1,-1,-1,-1,-1,-1,-1,-1,-1,-1],"loss_changes":[1.15177765E2,3.55222E2,0E0,2.3800018E1,4.106697E0,1.9188656E1,6.8167114E-1,2.5730438E0,1.1649551E0,2.5881958E0,1.9534955E0,1.4827652E0,0E0,2.6117706E-1,6.506462E-1,9.018402E-1,5.4753284E0,0E0,0E0,0E0,0E0,0E0,0E0,0E0,0E0,0E0,0E0,0E0,0E0,0E0,0E0],"parents":[2147483647,0,0,1,1,3,3,4,4,5,5,6,6,7,7,8,8,9,9,10,10,11,11,13,13,14,14,15,15,16,16],"right_children":[2,4,-1,6,8,10,12,14,16,18,20,22,-1,-1,-1,28,30,-1,-1,-1,-1,-1,-1,-1,-1,-1,-1,-1,-1,-1,-1],"split_conditions":[2.5E0,1.5E0,1.7240036E-2,5E-1,2.5E0,2.5E0,1.5E0,1.5E0,1.5E0,5E-1,2.5E0,5E-1,1.7218715E-2,-7.1589616E-3,-1.1001307E-2,5E-1,2.5E0,8.289524E-3,1.3354401E-2,-1.3285972E-3,7.6892814E-3,1.0971066E-2,1.6215865E-2,-6.2721763E-3,-8.119607E-3,-1.274433E-2,-9.742756E-3,-1.04581E-2,-1.7812992E-2,-1.0297132E-4,-1.4713242E-2],"split_indices":[7,7,0,7,0,0,3,3,1,5,5,0,0,1,3,5,1,0,0,0,0,0,0,2147483647,2147483647,2147483647,2147483647,0,0,0,0],"split_type":[0,0,0,0,0,0,0,0,0,0,0,0,0,0,0,0,0,0,0,0,0,0,0,0,0,0,0,0,0,0,0],"sum_hessian":[3.7451028E2,2.726822E2,1.0182812E2,1.7372571E2,9.895647E1,7.0959854E1,1.0276586E2,7.175691E1,2.7199556E1,5.2744335E1,1.8215519E1,3.9944218E1,6.282164E1,3.6536724E1,3.522019E1,1.1611512E1,1.5588044E1,1.4662433E1,3.80819E1,1.5475298E1,2.7402205E0,7.6164036E0,3.2327816E1,1.9390244E1,1.714648E1,1.4385052E1,2.0835135E1,2.722025E0,8.889486E0,3.2320147E0,1.23560295E1],"tree_param":{"num_deleted":"4","num_feature":"9","num_nodes":"31","size_leaf_vector":"0"}},{"base_weights":[8.103161E-1,4.737111E-1,1.7114135E0,1.3279955E0,-1.0245689E0,8.833187E-1,1.6343634E0,-8.973995E-1,-1.355796E0,1.185999E0,6.2293694E-3,1.5544038E0,1.693954E0,-1.0274378E0,-3.8919502E-1,-1.6062369E0,-1.1602792E0,8.2125396E-1,1.3240216E0,-3.699996E-1,5.448504E-1,1.6655155E0,1.3030417E0,-7.1889836E-1,-1.456242E0,-6.4139086E-1,4.9198592E-1,-1.0367973E0,-1.7672712E0,-1.0197395E-2,-1.459093E0],"categories":[],"categories_nodes":[],"categories_segments":[],"categories_sizes":[],"default_left":[1,1,0,1,1,1,1,1,1,1,1,1,0,1,1,1,1,0,0,0,0,0,0,0,0,0,0,0,0,0,0],"id":18,"left_children":[1,3,-1,5,7,9,11,13,15,17,19,21,-1,23,25,27,29,-1,-1,-1,-1,-1,-1,-1,-1,-1,-1,-1,-1,-1,-1],"loss_changes":[1.13334854E2,3.4875684E2,0E0,2.3493378E1,4.0467834E0,1.8846897E1,2.2561646E-1,4.705204E0,1.1483498E0,2.5483856E0,3.7315934E0,1.0406647E0,0E0,7.4514923E0,3.318443E0,8.887768E-1,5.3829613E0,0E0,0E0,0E0,0E0,0E0,0E0,0E0,0E0,0E0,0E0,0E0,0E0,0E0,0E0],"parents":[2147483647,0,0,1,1,3,3,4,4,5,5,6,6,7,7,8,8,9,9,10,10,11,11,13,13,14,14,15,15,16,16],"right_children":[2,4,-1,6,8,10,12,14,16,18,20,22,-1,24,26,28,30,-1,-1,-1,-1,-1,-1,-1,-1,-1,-1,-1,-1,-1,-1],"split_conditions":[2.5E0,1.5E0,1.7114135E-2,5E-1,2.5E0,2.5E0,1E0,2.5E0,1.5E0,5E-1,2.5E0,1.5E0,1.693954E-2,1.5E0,1.5E0,5E-1,2.5E0,8.212539E-3,1.3240215E-2,-3.6999958E-3,5.448504E-3,1.6655155E-2,1.3030416E-2,-7.1889833E-3,-1.456242E-2,-6.4139087E-3,4.919859E-3,-1.0367973E-2,-1.7672712E-2,-1.0197395E-4,-1.4590929E-2],"split_indices":[6,6,0,6,0,0,1,2,1,5,2,5,0,2,0,5,1,0,0,0,0,0,0,0,0,0,0,0,0,0,0],"split_type":[0,0,0,0,0,0,0,0,0,0,0,0,0,0,0,0,0,0,0,0,0,0,0,0,0,0,0,0,0,0,0],"sum_hessian":[3.7382263E2,2.7226907E2,1.01553566E2,1.734075E2,9.8861565E1,7.0895195E1,1.02512314E2,7.170317E1,2.7158388E1,5.2680225E1,1.821497E1,4.4931286E1,5.7581028E1,5.701271E1,1.4690464E1,1.1590446E1,1.5567941E1,1.4652864E1,3.8027363E1,1.0742558E1,7.472413E0,3.0768019E1,1.4163266E1,3.331155E1,2.3701159E1,1.144274E1,3.247724E0,2.719114E0,8.871332E0,3.2319908E0,1.233595E1],"tree_param":{"num_deleted":"0","num_feature":"9","num_nodes":"31","size_leaf_vector":"0"}},{"base_weights":[8.037884E-1,4.6973875E-1,1.6991258E0,1.3172942E0,-1.0154874E0,8.753723E-1,1.6222538E0,-8.892393E-1,-1.3445565E0,1.1756859E0,6.17762E-3,1.500037E0,1.6974846E0,-1.0182385E0,-3.854412E-1,-1.2534726E0,-1.5311741E0,8.1364954E-1,1.3127989E0,-3.6630276E-1,5.396476E-1,1.0741357E0,1.596855E0,-7.1212125E-1,-1.4441553E0,-6.3532066E-1,4.87163E-1,-1.7551317E0,-1.0506283E0,-1.745465E0,-1.2212402E0],"categories":[],"categories_nodes":[],"categories_segments":[],"categories_sizes":[],"default_left":[1,1,0,1,1,1,1,1,1,1,1,1,0,1,1,1,1,0,0,0,0,0,0,0,0,0,0,0,0,1,1],"id":19,"left_children":[1,3,-1,5,7,9,11,13,15,17,19,21,-1,23,25,27,-1,-1,-1,-1,-1,-1,-1,-1,-1,-1,-1,-1,-1,-1,-1],"loss_changes":[1.115388E2,3.4244293E2,0E0,2.3196503E1,3.9873123E0,1.8513271E1,6.864319E-1,4.623127E0,2.7066803E-1,2.5098495E0,3.6587803E0,1.4719467E0,0E0,7.3360023E0,3.2548883E0,1.732729E0,3.4970284E-1,0E0,0E0,0E0,0E0,0E0,0E0,0E0,0E0,0E0,0E0,0E0,0E0,0E0,0E0],"parents":[2147483647,0,0,1,1,3,3,4,4,5,5,6,6,7,7,8,8,9,9,10,10,11,11,13,13,14,14,15,15,16,16],"right_children":[2,4,-1,6,8,10,12,14,16,18,20,22,-1,24,26,28,-1,-1,-1,-1,-1,-1,-1,-1,-1,-1,-1,-1,-1,-1,-1],"split_conditions":[2.5E0,1.5E0,1.6991258E-2,5E-1,2.5E0,2.5E0,1.5E0,2.5E0,2.5E0,5E-1,2.5E0,5E-1,1.6974846E-2,1.5E0,1.5E0,5E-1,-1.531174E-2,8.136495E-3,1.3127988E-2,-3.6630274E-3,5.3964755E-3,1.0741357E-2,1.596855E-2,-7.1212123E-3,-1.4441553E-2,-6.3532065E-3,4.87163E-3,-1.7551316E-2,-1.0506283E-2,-1.745465E-2,-1.2212401E-2],"split_indices":[7,7,0,7,0,0,3,2,5,5,2,0,0,2,0,3,2,0,0,0,0,0,0,0,0,0,0,0,0,2147483647,2147483647],"split_type":[0,0,0,0,0,0,0,0,0,0,0,0,0,0,0,0,0,0,0,0,0,0,0,0,0,0,0,0,0,0,0],"sum_hessian":[3.7309766E2,2.718304E2,1.0126725E2,1.730751E2,9.87553E1,7.0826416E1,1.02248695E2,7.164049E1,2.7114815E1,5.261296E1,1.8213453E1,3.975628E1,6.2492416E1,5.695489E1,1.4685597E1,1.8739943E1,8.374871E0,1.4642898E1,3.7970062E1,1.0743466E1,7.4699864E0,7.5876713E0,3.216861E1,3.329333E1,2.3661562E1,1.1437531E1,3.2480657E0,5.1753654E0,1.3564578E1,4.677579E0,3.697292E0],"tree_param":{"num_deleted":"2","num_feature":"9","num_nodes":"31","size_leaf_vector":"0"}},{"base_weights":[7.973775E-1,4.6582997E-1,1.6871305E0,1.3067932E0,-1.0065173E0,8.6753786E-1,1.6104217E0,-8.811903E-1,-1.3334111E0,1.1655324E0,6.1263097E-3,1.4886845E0,1.6853955E0,-1.0091708E0,-3.817294E-1,-1.5452925E0,-1.2091985E0,1.2677011E0,9.3171746E-1,-3.6264575E-1,5.3450066E-1,1.0652044E0,1.5850526E0,-7.054222E-1,-1.4322971E0,-6.293179E-1,4.8239344E-1,-1.742722E0,-9.282618E-1,-1.0846108E0,-1.7167283E0],"categories":[],"categories_nodes":[],"categories_segments":[],"categories_sizes":[],"default_left":[1,1,0,1,1,1,1,1,1,1,1,1,0,1,1,1,1,0,0,0,0,0,0,0,0,0,0,0,0,0,0],"id":20,"left_children":[1,3,-1,5,7,9,11,13,15,17,19,21,-1,23,25,27,29,-1,-1,-1,-1,-1,-1,-1,-1,-1,-1,-1,-1,-1,-1],"loss_changes":[1.0979068E2,3.362684E2,0E0,2.2910461E1,3.9279938E0,1.8187325E1,6.807251E-1,4.543026E0,5.2825165E-1,1.1394424E0,3.5874262E0,1.4537964E0,0E0,7.2241135E0,3.192602E0,1.017704E0,9.260025E-1,0E0,0E0,0E0,0E0,0E0,0E0,0E0,0E0,0E0,0E0,0E0,0E0,0E0,0E0],"parents":[2147483647,0,0,1,1,3,3,4,4,5,5,6,6,7,7,8,8,9,9,10,10,11,11,13,13,14,14,15,15,16,16],"right_children":[2,4,-1,6,8,10,12,14,16,18,20,22,-1,24,26,28,30,-1,-1,-1,-1,-1,-1,-1,-1,-1,-1,-1,-1,-1,-1],"split_conditions":[2.5E0,1.5E0,1.6871303E-2,5E-1,2.5E0,2.5E0,1.5E0,2.5E0,5E-1,1.5E0,2.5E0,5E-1,1.6853955E-2,1.5E0,1.5E0,2.5E0,2.5E0,1.2677011E-2,9.317175E-3,-3.6264574E-3,5.3450065E-3,1.0652044E-2,1.5850525E-2,-7.0542223E-3,-1.4322971E-2,-6.2931785E-3,4.8239343E-3,-1.742722E-2,-9.282618E-3,-1.0846108E-2,-1.7167283E-2],"split_indices":[7,7,0,7,0,0,3,2,4,0,2,0,0,2,0,3,3,0,0,0,0,0,0,0,0,0,0,0,0,0,0],"split_type":[0,0,0,0,0,0,0,0,0,0,0,0,0,0,0,0,0,0,0,0,0,0,0,0,0,0,0,0,0,0,0],"sum_hessian":[3.72344E2,2.7137442E2,1.00969574E2,1.7272818E2,9.8646225E1,7.075442E1,1.0197377E2,7.1574875E1,2.7071346E1,5.2542645E1,1.821177E1,3.9660896E1,6.2312874E1,5.689437E1,1.4680509E1,9.582123E0,1.7489223E1,3.625731E1,1.6285337E1,1.0744294E1,7.4674754E0,7.575676E0,3.208522E1,3.327445E1,2.361992E1,1.1432143E1,3.2483654E0,7.1211505E0,2.4609718E0,1.4294045E1,3.195179E0],"tree_param":{"num_deleted":"0","num_feature":"9","num_nodes":"31","size_leaf_vector":"0"}},{"base_weights":[7.910769E-1,4.6197924E-1,1.6754175E0,1.2964685E0,-9.976904E-1,8.5979146E-1,1.5988485E0,-8.7324965E-1,-1.3225108E0,1.1554952E0,6.075488E-3,1.4775537E0,1.6735902E0,-6.853167E-1,-1.065897E0,-1.5332658E0,-1.1990361E0,7.951555E-1,1.292168E0,2.1641126E-1,-8.5988593E-1,1.0563921E0,1.5735004E0,-7.8973866E-1,-4.519448E-1,-8.8909364E-1,-1.425211E0,-1.729603E0,-9.203873E-1,-1.0752288E0,-1.7038947E0],"categories":[],"categories_nodes":[],"categories_segments":[],"categories_sizes":[],"default_left":[1,1,0,1,1,1,1,1,1,1,1,1,0,1,1,1,1,0,0,0,0,0,0,0,0,0,0,0,0,0,0],"id":21,"left_children":[1,3,-1,5,7,9,11,13,15,17,19,21,-1,23,25,27,29,-1,-1,-1,-1,-1,-1,-1,-1,-1,-1,-1,-1,-1,-1],"loss_changes":[1.0808928E2,3.30231E2,0E0,2.2635895E1,3.8713226E0,1.7867779E1,6.755066E-1,2.5194473E0,5.2204895E-1,2.4863052E0,3.3536274E0,1.4364853E0,0E0,8.5443306E-1,2.1081772E0,1.0034847E0,9.1459465E-1,0E0,0E0,0E0,0E0,0E0,0E0,0E0,0E0,0E0,0E0,0E0,0E0,0E0,0E0],"parents":[2147483647,0,0,1,1,3,3,4,4,5,5,6,6,7,7,8,8,9,9,10,10,11,11,13,13,14,14,15,15,16,16],"right_children":[2,4,-1,6,8,10,12,14,16,18,20,22,-1,24,26,28,30,-1,-1,-1,-1,-1,-1,-1,-1,-1,-1,-1,-1,-1,-1],"split_conditions":[2.5E0,1.5E0,1.6754175E-2,5E-1,2.5E0,2.5E0,1.5E0,1.5E0,5E-1,5E-1,1.5E0,5E-1,1.6735902E-2,1.5E0,1.5E0,2.5E0,2.5E0,7.951555E-3,1.292168E-2,2.1641126E-3,-8.598859E-3,1.056392E-2,1.5735004E-2,-7.897386E-3,-4.5194477E-3,-8.890936E-3,-1.4252109E-2,-1.729603E-2,-9.203873E-3,-1.0752288E-2,-1.7038947E-2],"split_indices":[7,7,0,7,0,0,3,3,4,5,4,0,0,4,4,3,3,0,0,0,0,0,0,0,0,0,0,0,0,0,0],"split_type":[0,0,0,0,0,0,0,0,0,0,0,0,0,0,0,0,0,0,0,0,0,0,0,0,0,0,0,0,0,0,0],"sum_hessian":[3.7156287E2,2.7090195E2,1.0066095E2,1.7236977E2,9.8532166E1,7.0681114E1,1.0168865E2,7.150644E1,2.7025723E1,5.247119E1,1.8209925E1,3.956212E1,6.2126534E1,3.6426804E1,3.5079636E1,9.562332E0,1.746339E1,1.4616477E1,3.7854713E1,1.4711595E1,3.4983308E0,7.563378E0,3.199874E1,2.5001507E1,1.1425297E1,2.3743767E1,1.1335871E1,7.1042557E0,2.4580767E0,1.4275548E1,3.1878424E0],"tree_param":{"num_deleted":"0","num_feature":"9","num_nodes":"31","size_leaf_vector":"0"}},{"base_weights":[7.8486973E-1,8.293592E-1,-1.4325616E-1,9.4932324E-1,4.704727E-1,-4.609365E-1,5.77345E-1,1.0765105E0,8.1036556E-1,6.561889E-1,-7.017201E-2,-1.2486803E-1,-1.6860486E0,7.400405E-2,1.1053855E0,1.1650552E0,8.413602E-1,5.6633997E-1,1.1111971E0,3.6813277E-1,1.0827428E0,-5.8010185E-1,3.0132294E-1,-5.4869694E-1,2.6314124E-1,1.2747966E0,8.931133E-1,5.677805E-1,9.428167E-1,7.577422E-1,-1.1854965E-1,9.9755067E-1,1.4605368E0,-7.3253885E-2,6.424731E-1,6.857571E-1,1.4521023E0,-8.241874E-2,-1.3488412E0,4.0341142E-1,-2.06207E-1,-1.0511423E0,-2.5548762E-2,5.105496E-1,5.0303634E-2],"categories":[],"categories_nodes":[],"categories_segments":[],"categories_sizes":[],"default_left":[1,1,1,1,1,1,1,1,1,1,1,1,0,0,0,1,1,1,1,1,1,1,1,1,1,0,0,0,0,0,0,0,0,0,0,0,0,0,0,1,1,0,0,1,1],"id":22,"left_children":[1,3,5,7,9,11,13,15,17,19,21,23,-1,-1,-1,25,27,29,31,33,35,37,-1,41,-1,-1,-1,-1,-1,-1,-1,-1,-1,-1,-1,-1,-1,-1,-1,-1,-1,-1,-1,-1,-1],"loss_changes":[1.5325378E1,1.5192459E1,3.929527E0,4.598892E0,8.9269085E0,4.8736167E0,1.3900828E0,2.7780762E0,9.268738E0,8.088245E0,4.3386307E0,1.5663745E0,0E0,0E0,0E0,2.8730927E0,1.0052471E0,9.23616E0,2.1104279E0,4.804419E0,3.8028107E0,3.6801653E0,6.9548213E-1,1.191405E0,2.6042363E-1,0E0,0E0,0E0,0E0,0E0,0E0,0E0,0E0,0E0,0E0,0E0,0E0,0E0,0E0,0E0,0E0,0E0,0E0,0E0,0E0],"parents":[2147483647,0,0,1,1,2,2,3,3,4,4,5,5,6,6,7,7,8,8,9,9,10,10,11,11,15,15,16,16,17,17,18,18,19,19,20,20,21,21,22,22,23,23,24,24],"right_children":[2,4,6,8,10,12,14,16,18,20,22,24,-1,-1,-1,26,28,30,32,34,36,38,-1,42,-1,-1,-1,-1,-1,-1,-1,-1,-1,-1,-1,-1,-1,-1,-1,-1,-1,-1,-1,-1,-1],"split_conditions":[1.5E0,2.5E0,2.5E0,1.5E0,1.5E0,1.5E0,1.5E0,1.5E0,2.5E0,2.5E0,1.5E0,5E-1,-1.6860485E-2,7.4004044E-4,1.10538555E-2,1.5E0,5E-1,2.5E0,1.5E0,5E-1,5E-1,1.5E0,3.0132292E-3,2.5E0,2.6314124E-3,1.2747966E-2,8.931133E-3,5.677805E-3,9.428167E-3,7.577422E-3,-1.1854965E-3,9.975506E-3,1.46053685E-2,-7.325388E-4,6.4247306E-3,6.8575707E-3,1.4521022E-2,-8.2418736E-4,-1.3488412E-2,4.034114E-3,-2.06207E-3,-1.0511423E-2,-2.554876E-4,5.105496E-3,5.030363E-4],"split_indices":[8,0,2,2,4,2,4,0,2,2,3,4,0,0,0,4,5,5,0,4,4,5,5,3,4,0,0,0,0,0,0,0,0,0,0,0,0,0,0,2147483647,2147483647,0,0,2147483647,2147483647],"split_type":[0,0,0,0,0,0,0,0,0,0,0,0,0,0,0,0,0,0,0,0,0,0,0,0,0,0,0,0,0,0,0,0,0,0,0,0,0,0,0,0,0,0,0,0,0],"sum_hessian":[3.7076035E2,3.5381116E2,1.6949192E1,2.650493E2,8.876184E1,1.1788301E1,5.160892E0,1.380333E2,1.27016E2,6.605128E1,2.2710567E1,9.337157E0,2.4511437E0,2.7006152E0,2.4602768E0,9.998797E1,3.8045334E1,7.02884E1,5.6727604E1,3.9537506E1,2.651377E1,9.548178E0,1.316239E1,4.4428E0,4.894357E0,7.097671E1,2.9011261E1,1.0470642E1,2.7574692E1,5.492748E1,1.5360915E1,4.3093937E1,1.3633669E1,1.5182941E1,2.4354565E1,1.2916662E1,1.3597108E1,5.863111E0,3.6850667E0,1.0975257E1,2.1871326E0,2.2147596E0,2.2280405E0,2.1986763E0,2.6956806E0],"tree_param":{"num_deleted":"4","num_feature":"9","num_nodes":"45","size_leaf_vector":"0"}},{"base_weights":[7.778158E-1,4.5121184E-1,1.6576966E0,1.2797345E0,-9.939255E-1,8.447543E-1,1.5816733E0,-1.0842592E0,-6.860528E-1,4.6578547E-1,9.8921585E-1,1.5010601E0,1.6418551E0,-8.80208E-1,-1.4550558E0,-1.1119612E0,-4.2609084E-1,9.0178585E-1,3.6209047E-2,8.6168206E-1,1.2133188E0,1.6132557E0,1.2476869E0,-1.0625614E0,-7.8698426E-1,-1.3058829E0,-1.728803E0,-6.6781527E-1,-1.40323E0,-1.2552221E-1,-9.7271293E-1],"categories":[],"categories_nodes":[],"categories_segments":[],"categories_sizes":[],"default_left":[1,1,0,1,1,1,1,1,1,1,1,1,0,1,1,1,1,0,0,0,0,0,0,1,1,0,0,0,0,0,0],"id":23,"left_children":[1,3,-1,5,7,9,11,13,15,17,19,21,-1,-1,25,27,29,-1,-1,-1,-1,-1,-1,-1,-1,-1,-1,-1,-1,-1,-1],"loss_changes":[1.06394684E2,3.238074E2,0E0,2.2439148E1,2.6668854E0,3.8209152E0,2.451477E-1,5.624794E0,2.4584618E0,3.683352E0,1.3545265E0,1.0631866E0,0E0,7.5442123E-1,8.701172E-1,1.0079784E0,2.3234725E0,0E0,0E0,0E0,0E0,0E0,0E0,0E0,0E0,0E0,0E0,0E0,0E0,0E0,0E0],"parents":[2147483647,0,0,1,1,3,3,4,4,5,5,6,6,7,7,8,8,9,9,10,10,11,11,13,13,14,14,15,15,16,16],"right_children":[2,4,-1,6,8,10,12,14,16,18,20,22,-1,-1,26,28,30,-1,-1,-1,-1,-1,-1,-1,-1,-1,-1,-1,-1,-1,-1],"split_conditions":[2.5E0,1.5E0,1.6576966E-2,5E-1,2.5E0,5E-1,1E0,1.5E0,1.5E0,1E0,2.5E0,1.5E0,1.641855E-2,-8.80208E-3,2.5E0,5E-1,1.5E0,9.017859E-3,3.6209045E-4,8.61682E-3,1.2133188E-2,1.6132558E-2,1.2476868E-2,-1.0625614E-2,-7.869842E-3,-1.3058829E-2,-1.728803E-2,-6.6781524E-3,-1.40323E-2,-1.2552221E-3,-9.727129E-3],"split_indices":[6,6,0,6,2,5,1,2,5,1,5,5,0,4,5,4,4,0,0,0,0,0,0,2147483647,2147483647,0,0,0,0,0,0],"split_type":[0,0,0,0,0,0,0,0,0,0,0,0,0,0,0,0,0,0,0,0,0,0,0,0,0,0,0,0,0,0,0],"sum_hessian":[3.7039285E2,2.702352E2,1.0015764E2,1.7176866E2,9.8466545E1,7.05346E1,1.0123406E2,7.59343E1,2.2532244E1,1.958343E1,5.0951168E1,4.4380688E1,5.685338E1,4.9197872E1,2.6736433E1,8.41606E0,1.4116182E1,9.664491E0,9.91894E0,3.2780666E1,1.81705E1,3.0387957E1,1.399273E1,1.6291178E1,3.2906693E1,1.7679428E1,9.057005E0,3.4636836E0,4.952377E0,9.187343E0,4.9288397E0],"tree_param":{"num_deleted":"2","num_feature":"9","num_nodes":"31","size_leaf_vector":"0"}},{"base_weights":[7.717763E-1,4.4752142E-1,1.6466647E0,1.2697779E0,-9.852074E-1,8.371643E-1,1.5706999E0,-8.131739E-1,-1.1467159E0,4.6136558E-1,9.8052853E-1,1.449445E0,1.6455203E0,-6.718806E-1,-9.796974E-1,-1.4091407E0,-1.0694901E0,8.9357316E-1,3.585165E-2,8.538981E-1,1.2031972E0,1.2503413E0,1.5829486E0,-1.3005011E0,-3.708436E-1,-6.1766857E-1,-1.2753271E0,-1.7334311E0,-1.2420815E0,-9.478065E-1,-1.3004662E0],"categories":[],"categories_nodes":[],"categories_segments":[],"categories_sizes":[],"default_left":[1,1,0,1,1,1,1,1,1,1,1,1,0,1,1,1,1,0,0,0,0,0,0,0,0,0,0,1,1,0,0],"id":24,"left_children":[1,3,-1,5,7,9,11,13,15,17,19,21,-1,23,25,-1,29,-1,-1,-1,-1,-1,-1,-1,-1,-1,-1,-1,-1,-1,-1],"loss_changes":[1.0479605E2,3.18021E2,0E0,2.2193909E1,2.6422348E0,3.7565994E0,6.780243E-1,1.063942E0,8.7345123E-1,3.6153045E0,1.3350258E0,8.490982E-1,0E0,4.9276724E0,2.2567787E0,3.9012718E-1,9.8581314E-1,0E0,0E0,0E0,0E0,0E0,0E0,0E0,0E0,0E0,0E0,0E0,0E0,0E0,0E0],"parents":[2147483647,0,0,1,1,3,3,4,4,5,5,6,6,7,7,8,8,9,9,10,10,11,11,13,13,14,14,15,15,16,16],"right_children":[2,4,-1,6,8,10,12,14,16,18,20,22,-1,24,26,-1,30,-1,-1,-1,-1,-1,-1,-1,-1,-1,-1,-1,-1,-1,-1],"split_conditions":[2.5E0,1.5E0,1.6466647E-2,5E-1,1.5E0,5E-1,1.5E0,2.5E0,5E-1,1E0,2.5E0,1E0,1.6455203E-2,5E-1,1.5E0,-1.4091407E-2,1.5E0,8.935732E-3,3.585165E-4,8.538981E-3,1.2031972E-2,1.2503413E-2,1.5829485E-2,-1.3005011E-2,-3.708436E-3,-6.1766854E-3,-1.2753271E-2,-1.733431E-2,-1.2420815E-2,-9.478064E-3,-1.3004662E-2],"split_indices":[6,6,0,6,3,5,3,1,5,1,5,1,0,4,5,3,4,0,0,0,0,0,0,0,0,0,0,2147483647,2147483647,0,0],"split_type":[0,0,0,0,0,0,0,0,0,0,0,0,0,0,0,0,0,0,0,0,0,0,0,0,0,0,0,0,0,0,0],"sum_hessian":[3.6956723E2,2.697445E2,9.982271E1,1.7139226E2,9.835226E1,7.0466255E1,1.00926E2,4.7916584E1,5.0435673E1,1.9575386E1,5.089087E1,3.928973E1,6.1636276E1,2.6194405E1,2.1722181E1,1.1075332E1,3.936034E1,9.65674E0,9.918646E0,3.274976E1,1.814111E1,1.6186365E1,2.3103363E1,8.374631E0,1.7819773E1,9.903393E0,1.1818788E1,3.4468317E0,7.6285005E0,2.6113499E1,1.3246842E1],"tree_param":{"num_deleted":"2","num_feature":"9","num_nodes":"31","size_leaf_vector":"0"}},{"base_weights":[7.658344E-1,4.4388366E-1,1.6358838E0,1.2599925E0,-9.7658E-1,8.2966894E-1,1.5599676E0,-8.0583984E-1,-1.1369624E0,4.5699486E-1,9.7195464E-1,1.4390444E0,1.6346308E0,-6.657147E-1,-9.710452E-1,-1.3976382E0,-1.0602832E0,8.854638E-1,3.5497732E-2,8.462078E-1,1.193229E0,1.2407961E0,1.5720831E0,-1.2896353E0,-3.6728358E-1,-7.540475E-1,-1.4685271E0,-1.7226965E0,-1.2303377E0,-9.394177E-1,-1.2898653E0],"categories":[],"categories_nodes":[],"categories_segments":[],"categories_sizes":[],"default_left":[1,1,0,1,1,1,1,1,1,1,1,1,0,1,1,1,1,0,0,0,0,0,0,0,0,0,0,1,1,0,0],"id":25,"left_children":[1,3,-1,5,7,9,11,13,15,17,19,21,-1,23,25,-1,29,-1,-1,-1,-1,-1,-1,-1,-1,-1,-1,-1,-1,-1,-1],"loss_changes":[1.0323842E2,3.123573E2,0E0,2.1957794E1,2.6012115E0,3.693699E0,6.7401123E-1,1.0459194E0,8.604889E-1,3.5486927E0,1.3161049E0,8.409424E-1,0E0,4.845009E0,2.2424717E0,3.947239E-1,9.723244E-1,0E0,0E0,0E0,0E0,0E0,0E0,0E0,0E0,0E0,0E0,0E0,0E0,0E0,0E0],"parents":[2147483647,0,0,1,1,3,3,4,4,5,5,6,6,7,7,8,8,9,9,10,10,11,11,13,13,14,14,15,15,16,16],"right_children":[2,4,-1,6,8,10,12,14,16,18,20,22,-1,24,26,-1,30,-1,-1,-1,-1,-1,-1,-1,-1,-1,-1,-1,-1,-1,-1],"split_conditions":[2.5E0,1.5E0,1.6358837E-2,5E-1,1.5E0,5E-1,1.5E0,2.5E0,5E-1,1E0,2.5E0,1E0,1.6346307E-2,5E-1,1.5E0,-1.3976382E-2,1.5E0,8.854638E-3,3.5497732E-4,8.462078E-3,1.1932289E-2,1.240796E-2,1.5720831E-2,-1.2896352E-2,-3.6728356E-3,-7.540475E-3,-1.468527E-2,-1.7226964E-2,-1.23033775E-2,-9.394177E-3,-1.2898652E-2],"split_indices":[6,6,0,6,3,5,3,1,5,1,5,1,0,4,4,3,4,0,0,0,0,0,0,0,0,0,0,2147483647,2147483647,0,0],"split_type":[0,0,0,0,0,0,0,0,0,0,0,0,0,0,0,0,0,0,0,0,0,0,0,0,0,0,0,0,0,0,0],"sum_hessian":[3.6871906E2,2.692409E2,9.947815E1,1.7100406E2,9.823685E1,7.0395744E1,1.00608315E2,4.787376E1,5.036309E1,1.9567038E1,5.0828705E1,3.9180195E1,6.142812E1,2.6175219E1,2.169854E1,1.1055738E1,3.9307354E1,9.648684E0,9.918354E0,3.2717983E1,1.8110722E1,1.6148733E1,2.3031462E1,8.361647E0,1.7813572E1,1.5283547E1,6.414992E0,3.440763E0,7.614975E0,2.6084257E1,1.3223097E1],"tree_param":{"num_deleted":"2","num_feature":"9","num_nodes":"31","size_leaf_vector":"0"}},{"base_weights":[7.599892E-1,4.4029853E-1,1.6253455E0,1.250368E0,-9.680632E-1,8.2226616E-1,1.5494578E0,-7.985876E-1,-1.1273519E0,2.6920313E-1,8.546819E-1,1.4288341E0,1.6239858E0,-6.5962136E-1,-9.624799E-1,-1.255462E0,-1.005879E0,8.7283635E-1,4.4990638E-1,1.2313937E0,1.561445E0,-1.278948E0,-3.6375898E-1,-7.47181E-1,-1.4564693E0,-1.569311E0,-9.678004E-1,-4.7121397E-1,-1.2855073E0],"categories":[],"categories_nodes":[],"categories_segments":[],"categories_sizes":[],"default_left":[1,1,0,1,1,1,1,1,1,0,1,1,0,1,1,1,1,1,1,0,0,0,0,0,0,0,0,0,0],"id":26,"left_children":[1,3,-1,5,7,9,11,13,15,-1,-1,19,-1,21,23,25,27,-1,-1,-1,-1,-1,-1,-1,-1,-1,-1,-1,-1],"loss_changes":[1.0171991E2,3.06814E2,0E0,2.1729828E1,2.561432E0,1.2395325E0,6.703644E-1,1.0281544E0,6.578598E-1,0E0,4.4924164E-1,8.3325195E-1,0E0,4.7644005E0,2.2070675E0,2.025814E0,3.881485E0,0E0,0E0,0E0,0E0,0E0,0E0,0E0,0E0,0E0,0E0,0E0,0E0],"parents":[2147483647,0,0,1,1,3,3,4,4,5,5,6,6,7,7,8,8,10,10,11,11,13,13,14,14,15,15,16,16],"right_children":[2,4,-1,6,8,10,12,14,16,-1,-1,20,-1,22,24,26,28,-1,-1,-1,-1,-1,-1,-1,-1,-1,-1,-1,-1],"split_conditions":[2.5E0,1.5E0,1.6253455E-2,5E-1,1.5E0,5E-1,1.5E0,2.5E0,2.5E0,2.6920312E-3,8.546819E-3,1E0,1.6239857E-2,5E-1,1.5E0,1E0,5E-1,8.728364E-3,4.499064E-3,1.2313937E-2,1.561445E-2,-1.2789479E-2,-3.6375897E-3,-7.4718096E-3,-1.4564693E-2,-1.569311E-2,-9.678003E-3,-4.7121397E-3,-1.28550725E-2],"split_indices":[6,6,0,6,3,8,3,1,3,0,8,1,0,4,4,1,4,2147483647,2147483647,0,0,0,0,0,0,0,0,0,0],"split_type":[0,0,0,0,0,0,0,0,0,0,0,0,0,0,0,0,0,0,0,0,0,0,0,0,0,0,0,0,0],"sum_hessian":[3.678479E2,2.6872357E2,9.912433E1,1.7060515E2,9.811842E1,7.032314E1,1.0028201E2,4.7830463E1,5.0287956E1,3.9450436E0,6.63781E1,3.9067818E1,6.121419E1,2.615542E1,2.1675045E1,2.4020956E1,2.6267002E1,6.3418118E1,2.9599822E0,1.6110273E1,2.2957544E1,8.348107E0,1.7807314E1,1.5270744E1,6.4043E0,1.1274522E1,1.2746433E1,9.112292E0,1.7154709E1],"tree_param":{"num_deleted":"2","num_feature":"9","num_nodes":"29","size_leaf_vector":"0"}},{"base_weights":[7.5422543E-1,4.36751E-1,1.6150421E0,1.2408556E0,-9.596725E-1,8.14875E-1,1.5391636E0,-8.364033E-1,-1.2823318E0,1.1095772E0,-3.1205693E-2,1.4188081E0,1.6135775E0,-6.542934E-1,-1.0235516E0,-1.5358387E0,-1.0851172E0,7.5965804E-1,1.242927E0,1.7496042E-1,-8.771746E-1,9.938661E-1,1.5160445E0,-7.563044E-1,-4.2683086E-1,-8.499618E-1,-1.3774785E0,-9.709505E-1,-1.6966878E0,5.3217366E-2,-1.3833733E0],"categories":[],"categories_nodes":[],"categories_segments":[],"categories_sizes":[],"default_left":[1,1,0,1,1,1,1,1,1,1,1,1,0,1,1,1,1,0,0,0,0,0,0,0,0,0,0,0,0,0,0],"id":27,"left_children":[1,3,-1,5,7,9,11,13,15,17,19,21,-1,23,25,27,29,-1,-1,-1,-1,-1,-1,-1,-1,-1,-1,-1,-1,-1,-1],"loss_changes":[1.0024164E2,3.0138086E2,0E0,2.1515228E1,3.794403E0,1.754541E1,6.67099E-1,2.3618965E0,1.1796799E0,2.3404465E0,3.2021327E0,1.4629822E0,0E0,8.122511E-1,2.0313988E0,8.840065E-1,5.265442E0,0E0,0E0,0E0,0E0,0E0,0E0,0E0,0E0,0E0,0E0,0E0,0E0,0E0,0E0],"parents":[2147483647,0,0,1,1,3,3,4,4,5,5,6,6,7,7,8,8,9,9,10,10,11,11,13,13,14,14,15,15,16,16],"right_children":[2,4,-1,6,8,10,12,14,16,18,20,22,-1,24,26,28,30,-1,-1,-1,-1,-1,-1,-1,-1,-1,-1,-1,-1,-1,-1],"split_conditions":[2.5E0,1.5E0,1.615042E-2,5E-1,2.5E0,2.5E0,1.5E0,1.5E0,1.5E0,5E-1,1.5E0,5E-1,1.6135775E-2,1.5E0,1.5E0,5E-1,2.5E0,7.5965803E-3,1.2429269E-2,1.7496041E-3,-8.771746E-3,9.938661E-3,1.5160444E-2,-7.563044E-3,-4.2683086E-3,-8.499618E-3,-1.3774784E-2,-9.709504E-3,-1.6966878E-2,5.3217367E-4,-1.3833732E-2],"split_indices":[7,7,0,7,0,0,3,3,1,5,4,0,0,4,4,5,1,0,0,0,0,0,0,0,0,0,0,0,0,0,0],"split_type":[0,0,0,0,0,0,0,0,0,0,0,0,0,0,0,0,0,0,0,0,0,0,0,0,0,0,0,0,0,0,0],"sum_hessian":[3.6695764E2,2.6819608E2,9.876159E1,1.7020044E2,9.799563E1,7.025302E1,9.994741E1,7.116636E1,2.6829266E1,5.208123E1,1.8171791E1,3.8952705E1,6.0994705E1,3.6296577E1,3.4869785E1,1.1442235E1,1.5387031E1,1.4555711E1,3.752552E1,1.46748E1,3.4969912E0,7.4624524E0,3.1490253E1,2.4897993E1,1.1398584E1,2.362341E1,1.1246375E1,2.6919558E0,8.750279E0,3.2116168E0,1.2175414E1],"tree_param":{"num_deleted":"0","num_feature":"9","num_nodes":"31","size_leaf_vector":"0"}},{"base_weights":[7.4860054E-1,4.332929E-1,1.6049664E0,1.231623E0,-9.514196E-1,8.077775E-1,1.5290799E0,-8.289476E-1,-1.2723376E0,1.1003907E0,-3.0933658E-2,1.4490534E0,1.5889374E0,-9.5474684E-1,-3.4016228E-1,-1.524559E0,-1.0762701E0,7.527749E-1,1.2330151E0,-3.9221936E-1,4.8874873E-1,1.5629002E0,1.1924057E0,-6.5658766E-1,-1.3726563E0,-5.8435315E-1,5.079597E-1,-9.6290785E-1,-1.6847284E0,5.2698437E-2,-1.3727545E0],"categories":[],"categories_nodes":[],"categories_segments":[],"categories_sizes":[],"default_left":[1,1,0,1,1,1,1,1,1,1,1,1,0,1,1,1,1,0,0,0,0,0,0,0,0,0,0,0,0,0,0],"id":28,"left_children":[1,3,-1,5,7,9,11,13,15,17,19,21,-1,23,25,27,29,-1,-1,-1,-1,-1,-1,-1,-1,-1,-1,-1,-1,-1,-1],"loss_changes":[9.879085E1,2.9608575E2,0E0,2.1292755E1,3.7449112E0,1.7247372E1,2.4732971E-1,4.345085E0,1.1648483E0,2.308796E0,3.4495685E0,1.0934143E0,0E0,6.9580765E0,3.0798628E0,8.7350273E-1,5.181896E0,0E0,0E0,0E0,0E0,0E0,0E0,0E0,0E0,0E0,0E0,0E0,0E0,0E0,0E0],"parents":[2147483647,0,0,1,1,3,3,4,4,5,5,6,6,7,7,8,8,9,9,10,10,11,11,13,13,14,14,15,15,16,16],"right_children":[2,4,-1,6,8,10,12,14,16,18,20,22,-1,24,26,28,30,-1,-1,-1,-1,-1,-1,-1,-1,-1,-1,-1,-1,-1,-1],"split_conditions":[2.5E0,1.5E0,1.6049664E-2,5E-1,2.5E0,2.5E0,1E0,2.5E0,1.5E0,5E-1,2.5E0,1.5E0,1.5889375E-2,1.5E0,1.5E0,5E-1,2.5E0,7.5277486E-3,1.233015E-2,-3.922194E-3,4.8874873E-3,1.5629001E-2,1.1924056E-2,-6.5658763E-3,-1.3726563E-2,-5.8435313E-3,5.0795972E-3,-9.629078E-3,-1.6847283E-2,5.2698434E-4,-1.3727544E-2],"split_indices":[6,6,0,6,0,0,1,2,1,5,2,5,0,2,0,5,1,0,0,0,0,0,0,0,0,0,0,0,0,0,0],"split_type":[0,0,0,0,0,0,0,0,0,0,0,0,0,0,0,0,0,0,0,0,0,0,0,0,0,0,0,0,0,0,0],"sum_hessian":[3.660242E2,2.6763394E2,9.839027E1,1.6976826E2,9.786567E1,7.016371E1,9.9604546E1,7.109281E1,2.6772863E1,5.199298E1,1.8170729E1,4.3700268E1,5.5904278E1,5.6465015E1,1.4627793E1,1.1413257E1,1.5359606E1,1.4542893E1,3.745009E1,1.0733367E1,7.4373617E0,2.991934E1,1.3780929E1,3.310397E1,2.3361046E1,1.138184E1,3.2459536E0,2.6881502E0,8.725107E0,3.211794E0,1.2147812E1],"tree_param":{"num_deleted":"0","num_feature":"9","num_nodes":"31","size_leaf_vector":"0"}},{"base_weights":[7.430879E-1,4.2990586E-1,1.5951113E0,1.2225418E0,-9.433367E-1,8.007896E-1,1.5191809E0,-8.216519E-1,-1.2625159E0,1.091332E0,-3.0621475E-2,1.3983138E0,1.5940008E0,-6.4098626E-1,-1.0075079E0,-1.4738947E0,-1.1391499E0,1.1949598E0,8.5472065E-1,1.7346732E-1,-8.6777914E-1,9.737837E-1,1.4956689E0,-7.4186987E-1,-4.162858E-1,-8.3530927E-1,-1.3591506E0,-1.6716108E0,-8.6055106E-1,-1.0166136E0,-1.6416208E0],"categories":[],"categories_nodes":[],"categories_segments":[],"categories_sizes":[],"default_left":[1,1,0,1,1,1,1,1,1,1,1,1,0,1,1,1,1,0,0,0,0,0,0,1,1,0,0,0,0,0,0],"id":29,"left_children":[1,3,-1,5,7,9,11,13,15,17,19,21,-1,-1,25,27,29,-1,-1,-1,-1,-1,-1,-1,-1,-1,-1,-1,-1,-1,-1],"loss_changes":[9.7370636E1,2.9090433E2,0E0,2.1074997E1,3.695694E0,1.6953945E1,6.7559814E-1,2.3231316E0,5.3134537E-1,1.1729393E0,3.1363811E0,1.4580765E0,0E0,7.927427E-1,1.9983292E0,1.0132732E0,9.0276337E-1,0E0,0E0,0E0,0E0,0E0,0E0,0E0,0E0,0E0,0E0,0E0,0E0,0E0,0E0],"parents":[2147483647,0,0,1,1,3,3,4,4,5,5,6,6,7,7,8,8,9,9,10,10,11,11,13,13,14,14,15,15,16,16],"right_children":[2,4,-1,6,8,10,12,14,16,18,20,22,-1,-1,26,28,30,-1,-1,-1,-1,-1,-1,-1,-1,-1,-1,-1,-1,-1,-1],"split_conditions":[2.5E0,1.5E0,1.5951112E-2,5E-1,2.5E0,2.5E0,1.5E0,1.5E0,5E-1,1.5E0,1.5E0,5E-1,1.5940009E-2,-6.4098625E-3,1.5E0,2.5E0,2.5E0,1.1949597E-2,8.547206E-3,1.7346732E-3,-8.677791E-3,9.737836E-3,1.49566885E-2,-7.4186986E-3,-4.1628582E-3,-8.353093E-3,-1.35915065E-2,-1.6716108E-2,-8.60551E-3,-1.0166136E-2,-1.6416207E-2],"split_indices":[6,6,0,6,0,0,3,3,4,0,4,0,0,4,4,3,3,0,0,0,0,0,0,2147483647,2147483647,0,0,0,0,0,0],"split_type":[0,0,0,0,0,0,0,0,0,0,0,0,0,0,0,0,0,0,0,0,0,0,0,0,0,0,0,0,0,0,0],"sum_hessian":[3.6506177E2,2.6705106E2,9.80107E1,1.6932666E2,9.772441E1,7.007136E1,9.92553E1,7.1009834E1,2.671458E1,5.190243E1,1.8168924E1,3.8702545E1,6.0552753E1,3.6233303E1,3.4776527E1,9.441875E0,1.7272705E1,3.5812668E1,1.6089764E1,1.4671477E1,3.4974477E0,7.425017E0,3.127753E1,2.4847414E1,1.1385891E1,2.3571272E1,1.1205254E1,7.009703E0,2.4321728E0,1.4129341E1,3.1433644E0],"tree_param":{"num_deleted":"2","num_feature":"9","num_nodes":"31","size_leaf_vector":"0"}},{"base_weights":[7.376306E-1,4.2653772E-1,1.5854698E0,1.2135866E0,-9.352733E-1,7.9384375E-1,1.5094947E0,-1.0247321E0,-6.313526E-1,4.2729992E-1,9.342836E-1,1.3888271E0,1.5842469E0,-8.214668E-1,-1.395727E0,-2.4606153E-1,-1.0232658E0,8.533139E-1,8.981887E-3,8.1108564E-1,1.151629E0,1.1911983E0,1.5219637E0,-6.04731E-1,-9.027503E-1,-1.2443131E0,-1.6744456E0,-1.0151719E0,4.026159E-1,-4.9907276E-1,-1.3963633E0],"categories":[],"categories_nodes":[],"categories_segments":[],"categories_sizes":[],"default_left":[1,1,0,1,1,1,1,1,1,1,1,1,0,1,1,1,1,0,0,0,0,0,0,0,0,0,0,0,0,0,0],"id":30,"left_children":[1,3,-1,5,7,9,11,13,15,17,19,21,-1,23,25,27,29,-1,-1,-1,-1,-1,-1,-1,-1,-1,-1,-1,-1,-1,-1],"loss_changes":[9.5990204E1,2.8582394E2,0E0,2.0868057E1,2.591339E0,3.567604E0,6.729584E-1,5.564827E0,3.3687696E0,3.4916255E0,1.2610207E0,8.3641815E-1,0E0,8.068619E-1,9.106369E-1,5.761116E0,2.103303E0,0E0,0E0,0E0,0E0,0E0,0E0,0E0,0E0,0E0,0E0,0E0,0E0,0E0,0E0],"parents":[2147483647,0,0,1,1,3,3,4,4,5,5,6,6,7,7,8,8,9,9,10,10,11,11,13,13,14,14,15,15,16,16],"right_children":[2,4,-1,6,8,10,12,14,16,18,20,22,-1,24,26,28,30,-1,-1,-1,-1,-1,-1,-1,-1,-1,-1,-1,-1,-1,-1],"split_conditions":[2.5E0,1.5E0,1.5854698E-2,5E-1,2.5E0,5E-1,1.5E0,1.5E0,1.5E0,1E0,2.5E0,1E0,1.5842468E-2,5E-1,2.5E0,1E0,1E0,8.533139E-3,8.9818874E-5,8.110857E-3,1.151629E-2,1.1911984E-2,1.5219637E-2,-6.0473103E-3,-9.0275025E-3,-1.2443131E-2,-1.6744455E-2,-1.0151719E-2,4.026159E-3,-4.9907276E-3,-1.3963632E-2],"split_indices":[7,7,0,7,2,5,3,2,3,1,5,1,0,3,5,1,1,0,0,0,0,0,0,0,0,0,0,0,0,0,0],"split_type":[0,0,0,0,0,0,0,0,0,0,0,0,0,0,0,0,0,0,0,0,0,0,0,0,0,0,0,0,0,0,0],"sum_hessian":[3.6409094E2,2.6646774E2,9.762319E1,1.6887726E2,9.75905E1,6.997982E1,9.889743E1,7.521412E1,2.2376385E1,1.9497135E1,5.048268E1,3.857933E1,6.0318104E1,4.8798958E1,2.6415155E1,1.1365608E1,1.1010777E1,9.6081915E0,9.888944E0,3.2521626E1,1.796106E1,1.5928979E1,2.265035E1,1.3539902E1,3.5259056E1,1.747066E1,8.944498E0,5.174233E0,6.1913753E0,4.6755314E0,6.335246E0],"tree_param":{"num_deleted":"0","num_feature":"9","num_nodes":"31","size_leaf_vector":"0"}},{"base_weights":[7.3224723E-1,4.232125E-1,1.5760356E0,1.2046872E0,-9.273365E-1,7.8685904E-1,1.4999954E0,-8.059483E-1,-1.2461721E0,1.0758693E0,-3.8022626E-2,1.3794963E0,1.5747018E0,-6.2728727E-1,-9.8997325E-1,-1.4984524E0,-1.0503749E0,7.32228E-1,1.2073677E0,-1.6984443E-1,6.8961835E-1,9.5584106E-1,1.4768817E0,-5.4203427E-1,-7.2007537E-1,-1.1669292E0,-8.6273557E-1,-9.4019103E-1,-1.6582422E0,6.909918E-2,-1.3457493E0],"categories":[],"categories_nodes":[],"categories_segments":[],"categories_sizes":[],"default_left":[1,1,0,1,1,1,1,1,1,1,1,1,0,1,1,1,1,0,0,0,0,0,0,1,1,1,1,0,0,0,0],"id":31,"left_children":[1,3,-1,5,7,9,11,13,15,17,19,21,-1,-1,-1,27,29,-1,-1,-1,-1,-1,-1,-1,-1,-1,-1,-1,-1,-1,-1],"loss_changes":[9.4643814E1,2.808339E2,0E0,2.0676804E1,3.6750183E0,1.6691795E1,6.706543E-1,2.2700844E0,1.1622353E0,2.2541733E0,1.7630497E0,1.449501E0,0E0,2.4783802E-1,6.821785E-1,8.645477E-1,5.093586E0,0E0,0E0,0E0,0E0,0E0,0E0,0E0,0E0,0E0,0E0,0E0,0E0,0E0,0E0],"parents":[2147483647,0,0,1,1,3,3,4,4,5,5,6,6,7,7,8,8,9,9,10,10,11,11,13,13,14,14,15,15,16,16],"right_children":[2,4,-1,6,8,10,12,14,16,18,20,22,-1,-1,-1,28,30,-1,-1,-1,-1,-1,-1,-1,-1,-1,-1,-1,-1,-1,-1],"split_conditions":[2.5E0,1.5E0,1.5760357E-2,5E-1,2.5E0,2.5E0,1.5E0,1.5E0,1.5E0,5E-1,2.5E0,5E-1,1.5747018E-2,-6.2728724E-3,-9.899733E-3,5E-1,2.5E0,7.3222797E-3,1.2073676E-2,-1.6984442E-3,6.8961834E-3,9.55841E-3,1.4768817E-2,-5.4203426E-3,-7.2007533E-3,-1.1669292E-2,-8.627355E-3,-9.40191E-3,-1.6582422E-2,6.909918E-4,-1.3457492E-2],"split_indices":[6,6,0,6,0,0,3,3,1,5,5,0,0,1,3,5,1,0,0,0,0,0,0,2147483647,2147483647,2147483647,2147483647,0,0,0,0],"split_type":[0,0,0,0,0,0,0,0,0,0,0,0,0,0,0,0,0,0,0,0,0,0,0,0,0,0,0,0,0,0,0],"sum_hessian":[3.631096E2,2.658815E2,9.722807E1,1.684318E2,9.7449715E1,6.9898964E1,9.853284E1,7.0834236E1,2.6615477E1,5.174045E1,1.815851E1,3.8454147E1,6.007869E1,3.61646E1,3.4669636E1,1.1339487E1,1.52759905E1,1.4501331E1,3.723912E1,1.54383135E1,2.7201967E0,7.389434E0,3.1064714E1,1.920415E1,1.6960451E1,1.4159775E1,2.0509861E1,2.6765952E0,8.662891E0,3.205123E0,1.2070868E1],"tree_param":{"num_deleted":"4","num_feature":"9","num_nodes":"31","size_leaf_vector":"0"}},{"base_weights":[7.269746E-1,7.687802E-1,-1.3835603E-1,8.8462615E-1,4.2298225E-1,-4.464515E-1,5.596169E-1,1.0080297E0,7.498346E-1,5.994062E-1,-8.93971E-2,2.242832E-1,-1.1692864E0,4.94062E-2,1.0945114E0,1.0934262E0,7.8187305E-1,5.1462394E-1,1.0399756E0,3.2570055E-1,1.0062221E0,-5.91241E-1,2.7803373E-1,7.979261E-1,-2.3229548E-1,-7.035093E-1,-1.6316558E0,1.2011122E0,8.274219E-1,1.0820597E0,4.106313E-1,1.0181099E-1,6.3488144E-1,9.278638E-1,1.3852075E0,-8.587311E-2,5.8300763E-1,6.191851E-1,1.3682436E0,-1.4664054E-1,-1.3455261E0,7.1151936E-1,-2.5807762E-1],"categories":[],"categories_nodes":[],"categories_segments":[],"categories_sizes":[],"default_left":[1,1,1,1,1,1,1,1,1,1,1,1,1,0,0,1,1,1,1,1,1,1,1,0,0,0,0,0,0,0,0,0,0,0,0,0,0,0,0,0,0,0,0],"id":32,"left_children":[1,3,5,7,9,11,13,15,17,19,21,23,25,-1,-1,27,29,31,33,35,37,39,41,-1,-1,-1,-1,-1,-1,-1,-1,-1,-1,-1,-1,-1,-1,-1,-1,-1,-1,-1,-1],"loss_changes":[1.3113358E1,1.3803864E1,3.6326783E0,4.2279663E0,7.8605185E0,5.6961513E0,1.4088101E0,2.517456E0,8.411926E0,7.166214E0,4.1365333E0,1.6292602E0,1.1008835E0,0E0,0E0,2.6958847E0,4.1115875E0,3.404375E0,2.0172539E0,4.1136947E0,3.5520668E0,3.1582794E0,3.0319805E0,0E0,0E0,0E0,0E0,0E0,0E0,0E0,0E0,0E0,0E0,0E0,0E0,0E0,0E0,0E0,0E0,0E0,0E0,0E0,0E0],"parents":[2147483647,0,0,1,1,2,2,3,3,4,4,5,5,6,6,7,7,8,8,9,9,10,10,11,11,12,12,15,15,16,16,17,17,18,18,19,19,20,20,21,21,22,22],"right_children":[2,4,6,8,10,12,14,16,18,20,22,24,26,-1,-1,28,30,32,34,36,38,40,42,-1,-1,-1,-1,-1,-1,-1,-1,-1,-1,-1,-1,-1,-1,-1,-1,-1,-1,-1,-1],"split_conditions":[1.5E0,2.5E0,2.5E0,1.5E0,1.5E0,1E0,1.5E0,1.5E0,2.5E0,2.5E0,1.5E0,5E-1,5E-1,4.9406197E-4,1.0945113E-2,1.5E0,2.5E0,5E-1,1.5E0,5E-1,5E-1,1.5E0,2.5E0,7.979261E-3,-2.3229548E-3,-7.0350925E-3,-1.6316557E-2,1.2011121E-2,8.274219E-3,1.0820597E-2,4.106313E-3,1.0181098E-3,6.3488143E-3,9.278637E-3,1.3852075E-2,-8.587311E-4,5.830076E-3,6.1918506E-3,1.3682435E-2,-1.4664053E-3,-1.3455261E-2,7.1151936E-3,-2.580776E-3],"split_indices":[8,0,2,2,4,1,4,0,2,2,3,2,2,0,0,4,1,0,0,4,4,2,1,0,0,0,0,0,0,0,0,0,0,0,0,0,0,0,0,0,0,0,0],"split_type":[0,0,0,0,0,0,0,0,0,0,0,0,0,0,0,0,0,0,0,0,0,0,0,0,0,0,0,0,0,0,0,0,0,0,0,0,0,0,0,0,0,0,0],"sum_hessian":[3.6209683E2,3.4542017E2,1.6676672E1,2.5862292E2,8.679723E1,1.1594657E1,5.082015E0,1.3467671E2,1.2394622E2,6.455313E1,2.2244106E1,6.0498433E0,5.5448136E0,2.6569304E0,2.4250846E0,9.7483536E1,3.7193172E1,6.860616E1,5.5340054E1,3.8697514E1,2.5855614E1,9.37654E0,1.2867566E1,2.6480658E0,3.4017773E0,2.887842E0,2.656972E0,6.914156E1,2.8341974E1,2.0458733E1,1.673444E1,1.5518801E1,5.3087364E1,4.2052525E1,1.328753E1,1.4911906E1,2.3785608E1,1.262706E1,1.3228554E1,5.9744463E0,3.4020944E0,7.096668E0,5.7708983E0],"tree_param":{"num_deleted":"0","num_feature":"9","num_nodes":"43","size_leaf_vector":"0"}},{"base_weights":[7.206365E-1,4.1355506E-1,1.5618621E0,1.1903317E0,-9.2398435E-1,7.7359307E-1,1.4858207E0,-8.046165E-1,-1.2380285E0,1.0599971E0,-4.142398E-2,1.3657298E0,1.5603724E0,-9.2831886E-1,-3.254081E-1,-1.3782318E0,-1.1856797E0,1.1636658E0,8.2359487E-1,-3.9549053E-1,4.6903464E-1,9.423705E-1,1.4632256E0,-6.352676E-1,-1.3409694E0,-5.6628203E-1,5.0925666E-1,-1.6530241E0,-9.9143517E-1,-1.0176086E0,-1.424603E0],"categories":[],"categories_nodes":[],"categories_segments":[],"categories_sizes":[],"default_left":[1,1,0,1,1,1,1,1,1,1,1,1,0,1,1,1,1,0,0,0,0,0,0,0,0,0,0,1,1,1,1],"id":33,"left_children":[1,3,-1,5,7,9,11,13,-1,17,19,21,-1,23,25,-1,-1,-1,-1,-1,-1,-1,-1,-1,-1,-1,-1,-1,-1,-1,-1],"loss_changes":[9.338229E1,2.7558292E2,0E0,2.0545105E1,3.5540771E0,1.6300877E1,6.648102E-1,4.173176E0,3.2238007E-2,1.1703339E0,3.3170426E0,1.4454575E0,0E0,6.7237244E0,2.9847753E0,5.409851E-1,6.6322136E-1,0E0,0E0,0E0,0E0,0E0,0E0,0E0,0E0,0E0,0E0,0E0,0E0,0E0,0E0],"parents":[2147483647,0,0,1,1,3,3,4,4,5,5,6,6,7,7,8,8,9,9,10,10,11,11,13,13,14,14,15,15,16,16],"right_children":[2,4,-1,6,8,10,12,14,-1,18,20,22,-1,24,26,-1,-1,-1,-1,-1,-1,-1,-1,-1,-1,-1,-1,-1,-1,-1,-1],"split_conditions":[2.5E0,1.5E0,1.561862E-2,5E-1,2.5E0,2.5E0,1.5E0,2.5E0,-1.2380285E-2,1.5E0,2.5E0,5E-1,1.5603723E-2,1.5E0,1.5E0,-1.3782318E-2,-1.1856796E-2,1.1636658E-2,8.235948E-3,-3.954905E-3,4.6903463E-3,9.423705E-3,1.4632256E-2,-6.352676E-3,-1.3409694E-2,-5.6628203E-3,5.0925664E-3,-1.653024E-2,-9.914352E-3,-1.0176086E-2,-1.424603E-2],"split_indices":[6,6,0,6,0,0,3,2,3,0,2,0,0,2,0,2147483647,2147483647,0,0,0,0,0,0,0,0,0,0,2147483647,2147483647,2147483647,2147483647],"split_type":[0,0,0,0,0,0,0,0,0,0,0,0,0,0,0,0,0,0,0,0,0,0,0,0,0,0,0,0,0,0,0],"sum_hessian":[3.6164194E2,2.6504056E2,9.660137E1,1.6767451E2,9.736604E1,6.9714905E1,9.795961E1,7.080814E1,2.65579E1,5.15646E1,1.8150303E1,3.826028E1,5.9699326E1,5.6205574E1,1.46025715E1,6.5316668E0,2.0026232E1,3.557275E1,1.5991852E1,1.0730139E1,7.4201636E0,7.361362E0,3.0898916E1,3.301402E1,2.3191555E1,1.1357183E1,3.2453883E0,3.6273336E0,2.9043334E0,1.2065002E1,7.96123E0],"tree_param":{"num_deleted":"6","num_feature":"9","num_nodes":"31","size_leaf_vector":"0"}},{"base_weights":[7.1552324E-1,4.1041616E-1,1.5529277E0,1.1818721E0,-9.1619766E-1,7.669845E-1,1.4767798E0,-1.0041393E0,-6.17879E-1,4.0416193E-1,9.063959E-1,1.3567914E0,1.5513307E0,-8.036339E-1,-1.3711799E0,-2.3765947E-1,-1.0053897E0,4.0402204E-2,7.560101E-1,8.4445864E-2,9.480322E-1,1.4577401E0,1.2071192E0,-5.9011173E-1,-8.8381714E-1,-1.2200545E0,-1.6498721E0,-6.477113E-1,3.9888042E-1,-1.3621051E0,-5.8117855E-1],"categories":[],"categories_nodes":[],"categories_segments":[],"categories_sizes":[],"default_left":[1,1,0,1,1,1,1,1,1,1,1,1,1,1,1,1,1,0,0,0,0,1,1,1,1,0,0,0,0,0,0],"id":34,"left_children":[1,3,-1,5,7,9,-1,13,15,17,19,-1,-1,-1,25,27,29,-1,-1,-1,-1,-1,-1,-1,-1,-1,-1,-1,-1,-1,-1],"loss_changes":[9.209384E1,2.7081375E2,0E0,2.0355728E1,2.491005E0,3.4896927E0,6.6326904E-1,5.4093094E0,3.2789068E0,2.496853E0,1.712841E0,4.0164948E-1,0E0,7.8240395E-1,9.086914E-1,3.0132918E0,1.5960941E0,0E0,0E0,0E0,0E0,0E0,0E0,0E0,0E0,0E0,0E0,0E0,0E0,0E0,0E0],"parents":[2147483647,0,0,1,1,3,3,4,4,5,5,6,6,7,7,8,8,9,9,10,10,11,11,13,13,14,14,15,15,16,16],"right_children":[2,4,-1,6,8,10,-1,14,16,18,20,-1,-1,-1,26,28,30,-1,-1,-1,-1,-1,-1,-1,-1,-1,-1,-1,-1,-1,-1],"split_conditions":[2.5E0,1.5E0,1.5529277E-2,5E-1,2.5E0,5E-1,1.4767798E-2,1.5E0,1.5E0,1.5E0,5E-1,1.3567913E-2,1.55133065E-2,-8.036339E-3,2.5E0,5E-1,2.5E0,4.0402202E-4,7.560101E-3,8.4445864E-4,9.480322E-3,1.45774E-2,1.2071192E-2,-5.9011173E-3,-8.838171E-3,-1.2200545E-2,-1.649872E-2,-6.4771124E-3,3.9888043E-3,-1.3621051E-2,-5.8117853E-3],"split_indices":[6,6,0,6,2,5,3,2,3,3,8,2147483647,2147483647,3,5,3,3,0,0,0,0,2147483647,2147483647,2147483647,2147483647,0,0,0,0,0,0],"split_type":[0,0,0,0,0,0,0,0,0,0,0,0,0,0,0,0,0,0,0,0,0,0,0,0,0,0,0,0,0,0,0],"sum_hessian":[3.605978E2,2.6440958E2,9.6188225E1,1.6719362E2,9.7215965E1,6.961567E1,9.757795E1,7.489964E1,2.2316322E1,1.9432331E1,5.018334E1,3.812931E1,5.9448643E1,4.8645016E1,2.6254627E1,1.1345563E1,1.097076E1,9.60925E0,9.82308E0,2.4340985E0,4.774924E1,2.22491E1,1.5880209E1,1.3508579E1,3.5136436E1,1.7372099E1,8.88253E0,6.899335E0,4.4462285E0,5.839383E0,5.1313767E0],"tree_param":{"num_deleted":"6","num_feature":"9","num_nodes":"31","size_leaf_vector":"0"}},{"base_weights":[7.104247E-1,4.072629E-1,1.5441793E0,1.173399E0,-9.084728E-1,7.602717E-1,1.4678655E0,-7.893234E-1,-1.222333E0,1.0453496E0,-4.8743445E-2,1.3471693E0,1.5428989E0,-9.11581E-1,-3.1669065E-1,-1.4749953E0,-1.02652E0,7.042999E-1,1.1763504E0,-3.9934617E-1,4.574012E-1,9.236135E-1,1.4449546E0,-6.2202495E-1,-1.3207098E0,-5.548659E-1,5.072664E-1,-9.190321E-1,-1.6347076E0,8.097691E-2,-1.3202816E0],"categories":[],"categories_nodes":[],"categories_segments":[],"categories_sizes":[],"default_left":[1,1,0,1,1,1,1,1,1,1,1,1,0,1,1,1,1,0,0,0,0,0,0,0,0,0,0,0,0,0,0],"id":35,"left_children":[1,3,-1,5,7,9,11,13,15,17,19,21,-1,23,25,27,29,-1,-1,-1,-1,-1,-1,-1,-1,-1,-1,-1,-1,-1,-1],"loss_changes":[9.084572E1,2.6611795E2,0E0,2.0182663E1,3.5372849E0,1.6064217E1,6.732483E-1,4.0571976E0,1.1624031E0,2.2177048E0,3.2548127E0,1.4439316E0,0E0,6.567108E0,2.9101925E0,8.5897446E-1,4.9850426E0,0E0,0E0,0E0,0E0,0E0,0E0,0E0,0E0,0E0,0E0,0E0,0E0,0E0,0E0],"parents":[2147483647,0,0,1,1,3,3,4,4,5,5,6,6,7,7,8,8,9,9,10,10,11,11,13,13,14,14,15,15,16,16],"right_children":[2,4,-1,6,8,10,12,14,16,18,20,22,-1,24,26,28,30,-1,-1,-1,-1,-1,-1,-1,-1,-1,-1,-1,-1,-1,-1],"split_conditions":[2.5E0,1.5E0,1.5441793E-2,5E-1,2.5E0,2.5E0,1.5E0,2.5E0,1.5E0,5E-1,2.5E0,5E-1,1.5428988E-2,1.5E0,1.5E0,5E-1,2.5E0,7.042999E-3,1.1763503E-2,-3.993462E-3,4.5740115E-3,9.236135E-3,1.4449546E-2,-6.2202495E-3,-1.3207098E-2,-5.548659E-3,5.072664E-3,-9.190321E-3,-1.6347075E-2,8.097691E-4,-1.3202816E-2],"split_indices":[6,6,0,6,0,0,3,2,1,5,2,0,0,2,0,5,1,0,0,0,0,0,0,0,0,0,0,0,0,0,0],"split_type":[0,0,0,0,0,0,0,0,0,0,0,0,0,0,0,0,0,0,0,0,0,0,0,0,0,0,0,0,0,0,0],"sum_hessian":[3.5956012E2,2.637916E2,9.576851E1,1.6672221E2,9.70694E1,6.953082E1,9.719138E1,7.061399E1,2.6455402E1,5.139221E1,1.8138617E1,3.798517E1,5.920621E1,5.6028122E1,1.4585873E1,1.1265709E1,1.51896925E1,1.4439017E1,3.695319E1,1.0728301E1,7.410316E0,7.320608E0,3.0664562E1,3.2955967E1,2.3072153E1,1.1340435E1,3.245438E0,2.6648219E0,8.600887E0,3.1995716E0,1.1990121E1],"tree_param":{"num_deleted":"0","num_feature":"9","num_nodes":"31","size_leaf_vector":"0"}},{"base_weights":[7.0546794E-1,4.0420845E-1,1.5356116E0,1.1652032E0,-9.0093905E-1,7.5384116E-1,1.4591604E0,-7.8249943E-1,-1.213301E0,1.0370172E0,-4.825743E-2,1.338531E0,1.5342181E0,-9.039029E-1,-3.1367487E-1,-1.4649129E0,-1.0184839E0,1.140585E0,8.011035E-1,-3.9533094E-1,4.5310435E-1,9.16492E-1,1.4361364E0,-6.163126E-1,-1.3109995E0,-5.4971975E-1,5.0227326E-1,-1.2495376E0,-1.6176133E0,8.0184326E-2,-1.310712E0],"categories":[],"categories_nodes":[],"categories_segments":[],"categories_sizes":[],"default_left":[1,1,0,1,1,1,1,1,1,1,1,1,0,1,1,1,1,0,0,0,0,0,0,0,0,0,0,1,1,0,0],"id":36,"left_children":[1,3,-1,5,7,9,11,13,15,17,19,21,-1,23,25,-1,29,-1,-1,-1,-1,-1,-1,-1,-1,-1,-1,-1,-1,-1,-1],"loss_changes":[8.961365E1,2.6155103E2,0E0,2.0002335E1,3.4940262E0,1.5796776E1,6.719513E-1,3.9911537E0,1.1492538E0,1.1642227E0,3.1912606E0,1.4316711E0,0E0,6.480377E0,2.854796E0,1.7053604E-1,4.9091578E0,0E0,0E0,0E0,0E0,0E0,0E0,0E0,0E0,0E0,0E0,0E0,0E0,0E0,0E0],"parents":[2147483647,0,0,1,1,3,3,4,4,5,5,6,6,7,7,8,8,9,9,10,10,11,11,13,13,14,14,15,15,16,16],"right_children":[2,4,-1,6,8,10,12,14,16,18,20,22,-1,24,26,-1,30,-1,-1,-1,-1,-1,-1,-1,-1,-1,-1,-1,-1,-1,-1],"split_conditions":[2.5E0,1.5E0,1.5356116E-2,5E-1,2.5E0,2.5E0,1.5E0,2.5E0,1.5E0,1.5E0,2.5E0,5E-1,1.5342181E-2,1.5E0,1.5E0,-1.4649129E-2,2.5E0,1.1405849E-2,8.011035E-3,-3.9533093E-3,4.5310436E-3,9.16492E-3,1.4361363E-2,-6.1631263E-3,-1.3109995E-2,-5.497197E-3,5.0227325E-3,-1.2495375E-2,-1.6176132E-2,8.0184324E-4,-1.3107119E-2],"split_indices":[7,7,0,7,0,0,3,2,1,0,2,0,0,2,0,3,1,0,0,0,0,0,0,0,0,0,0,2147483647,2147483647,0,0],"split_type":[0,0,0,0,0,0,0,0,0,0,0,0,0,0,0,0,0,0,0,0,0,0,0,0,0,0,0,0,0,0,0],"sum_hessian":[3.5847577E2,2.6313327E2,9.534249E1,1.6622366E2,9.6909615E1,6.9425896E1,9.679777E1,7.0520546E1,2.638907E1,5.128925E1,1.8136648E1,3.785011E1,5.894766E1,5.5941525E1,1.457902E1,1.1231418E1,1.5157654E1,3.5375626E1,1.5913623E1,1.0729899E1,7.406749E0,7.304575E0,3.0545532E1,3.2929867E1,2.3011658E1,1.1333104E1,3.2459157E0,5.040446E0,6.190972E0,3.199876E0,1.1957777E1],"tree_param":{"num_deleted":"2","num_feature":"9","num_nodes":"31","size_leaf_vector":"0"}},{"base_weights":[7.005827E-1,4.0119573E-1,1.5272194E0,1.1571094E0,-8.934867E-1,7.4745846E-1,1.4506165E0,-7.757558E-1,-1.204356E0,1.0287368E0,-4.7776606E-2,1.368298E0,1.5124002E0,-2.41284E-3,-8.0083275E-1,-1.4548817E0,-1.01056E0,6.885435E-1,1.1596876E0,1.5184905E-1,-8.6449945E-1,1.4859271E0,1.1038605E0,-8.580178E-1,-6.6169834E-1,-8.998156E-1,-1.614873E0,7.939954E-2,-1.3012935E0],"categories":[],"categories_nodes":[],"categories_segments":[],"categories_sizes":[],"default_left":[1,1,0,1,1,1,1,1,1,1,1,1,0,0,1,1,1,0,0,0,0,0,0,1,1,0,0,0,0],"id":37,"left_children":[1,3,-1,5,7,9,11,13,15,17,19,21,-1,-1,-1,25,27,-1,-1,-1,-1,-1,-1,-1,-1,-1,-1,-1,-1],"loss_changes":[8.84088E1,2.5706952E2,0E0,1.982904E1,3.4510574E0,1.5533356E1,2.83844E-1,1.3675079E0,1.1357651E0,2.204918E0,2.9860654E0,1.1555786E0,0E0,0E0,4.8672867E-1,8.578987E-1,4.8349295E0,0E0,0E0,0E0,0E0,0E0,0E0,0E0,0E0,0E0,0E0,0E0,0E0],"parents":[2147483647,0,0,1,1,3,3,4,4,5,5,6,6,7,7,8,8,9,9,10,10,11,11,14,14,15,15,16,16],"right_children":[2,4,-1,6,8,10,12,14,16,18,20,22,-1,-1,-1,26,28,-1,-1,-1,-1,-1,-1,-1,-1,-1,-1,-1,-1],"split_conditions":[2.5E0,1.5E0,1.5272194E-2,5E-1,2.5E0,2.5E0,1E0,5E-1,1.5E0,5E-1,1.5E0,1.5E0,1.5124002E-2,-2.41284E-5,-8.008327E-3,5E-1,2.5E0,6.885435E-3,1.1596876E-2,1.5184904E-3,-8.644994E-3,1.485927E-2,1.1038605E-2,-8.580178E-3,-6.616983E-3,-8.998156E-3,-1.614873E-2,7.939954E-4,-1.30129345E-2],"split_indices":[7,7,0,7,0,0,1,8,1,5,4,5,0,0,0,5,1,0,0,0,0,0,0,2147483647,2147483647,0,0,0,0],"split_type":[0,0,0,0,0,0,0,0,0,0,0,0,0,0,0,0,0,0,0,0,0,0,0,0,0,0,0,0,0],"sum_hessian":[3.5737766E2,2.624672E2,9.491046E1,1.6572032E2,9.674688E1,6.932181E1,9.6398506E1,7.04253E1,2.6321579E1,5.1187267E1,1.813454E1,4.2323227E1,5.407528E1,2.2153728E0,6.820993E1,1.1196631E1,1.5124948E1,1.4401033E1,3.6786232E1,1.463807E1,3.49647E0,2.897322E1,1.3350006E1,4.7975166E1,2.0234762E1,2.653416E0,8.543216E0,3.2001765E0,1.1924771E1],"tree_param":{"num_deleted":"2","num_feature":"9","num_nodes":"29","size_leaf_vector":"0"}},{"base_weights":[6.9574296E-1,3.9820266E-1,1.5189976E0,1.1491278E0,-8.8600665E-1,7.4115694E-1,1.4422032E0,-7.6892704E-1,-1.1956065E0,1.0206113E0,-4.7341093E-2,1.359975E0,1.5039537E0,-8.896865E-1,-3.0338562E-1,-1.445174E0,-1.0027453E0,6.824305E-1,1.1509738E0,-3.907748E-1,4.4908553E-1,1.4773874E0,1.0963213E0,-6.035466E-1,-1.2957696E0,-5.3737956E-1,5.040019E-1,-8.926043E-1,-1.6047763E0,7.862242E-2,-1.2920216E0],"categories":[],"categories_nodes":[],"categories_segments":[],"categories_sizes":[],"default_left":[1,1,0,1,1,1,1,1,1,1,1,1,0,1,1,1,1,0,0,0,0,0,0,0,0,0,0,0,0,0,0],"id":38,"left_children":[1,3,-1,5,7,9,11,13,15,17,19,21,-1,23,25,27,29,-1,-1,-1,-1,-1,-1,-1,-1,-1,-1,-1,-1,-1,-1],"loss_changes":[8.723447E1,2.526675E2,0E0,1.965863E1,3.4130096E0,1.5278172E1,2.8338623E-1,3.9331245E0,1.1234741E0,2.177822E0,3.1261277E0,1.1461945E0,0E0,6.4149895E0,2.7967997E0,8.4985924E-1,4.7623053E0,0E0,0E0,0E0,0E0,0E0,0E0,0E0,0E0,0E0,0E0,0E0,0E0,0E0,0E0],"parents":[2147483647,0,0,1,1,3,3,4,4,5,5,6,6,7,7,8,8,9,9,10,10,11,11,13,13,14,14,15,15,16,16],"right_children":[2,4,-1,6,8,10,12,14,16,18,20,22,-1,24,26,28,30,-1,-1,-1,-1,-1,-1,-1,-1,-1,-1,-1,-1,-1,-1],"split_conditions":[2.5E0,1.5E0,1.51899755E-2,5E-1,2.5E0,2.5E0,1E0,2.5E0,1.5E0,5E-1,2.5E0,1.5E0,1.5039536E-2,1.5E0,1.5E0,5E-1,2.5E0,6.824305E-3,1.1509738E-2,-3.9077476E-3,4.490855E-3,1.4773874E-2,1.0963214E-2,-6.035466E-3,-1.2957696E-2,-5.3737955E-3,5.040019E-3,-8.926042E-3,-1.6047763E-2,7.862242E-4,-1.2920216E-2],"split_indices":[7,7,0,7,0,0,1,2,1,5,2,5,0,2,0,5,1,0,0,0,0,0,0,0,0,0,0,0,0,0,0],"split_type":[0,0,0,0,0,0,0,0,0,0,0,0,0,0,0,0,0,0,0,0,0,0,0,0,0,0,0,0,0,0,0],"sum_hessian":[3.5627655E2,2.6180386E2,9.447268E1,1.6520996E2,9.659391E1,6.921425E1,9.599571E1,7.034159E1,2.6252321E1,5.108101E1,1.813324E1,4.215877E1,5.383694E1,5.57811E1,1.4560492E1,1.1160719E1,1.5091602E1,1.4385704E1,3.6695305E1,1.0730818E1,7.4024215E0,2.8850481E1,1.330829E1,3.286907E1,2.2912033E1,1.131474E1,3.245752E0,2.6489348E0,8.511785E0,3.200473E0,1.18911295E1],"tree_param":{"num_deleted":"0","num_feature":"9","num_nodes":"31","size_leaf_vector":"0"}},{"base_weights":[6.9099855E-1,3.9526817E-1,1.5109413E0,1.1412706E0,-8.7874967E-1,7.349486E-1,1.4339416E0,-7.1609724E-1,-1.0325767E0,1.7267893E-1,7.6812726E-1,1.3116084E0,1.5102054E0,-5.780944E-1,-8.7943447E-1,-1.1599526E0,-9.1234744E-1,7.8590083E-1,3.7553304E-1,1.1099766E0,1.448285E0,-1.1992482E0,-2.8325912E-1,-6.6314554E-1,-1.3771075E0,-1.4779866E0,-8.696168E-1,-3.8354072E-1,-1.1911136E0],"categories":[],"categories_nodes":[],"categories_segments":[],"categories_sizes":[],"default_left":[1,1,0,1,1,1,1,1,1,0,1,1,0,1,1,1,1,1,1,0,0,0,0,0,0,0,0,0,0],"id":39,"left_children":[1,3,-1,5,7,9,11,13,15,-1,-1,19,-1,21,23,25,27,-1,-1,-1,-1,-1,-1,-1,-1,-1,-1,-1,-1],"loss_changes":[8.6081116E1,2.4836624E2,0E0,1.9491455E1,2.3411484E0,1.2777634E0,6.946411E-1,1.014061E0,6.5042114E-1,0E0,4.2626953E-1,8.728485E-1,0E0,4.7091665E0,2.2169056E0,2.0515308E0,3.7682285E0,0E0,0E0,0E0,0E0,0E0,0E0,0E0,0E0,0E0,0E0,0E0,0E0],"parents":[2147483647,0,0,1,1,3,3,4,4,5,5,6,6,7,7,8,8,10,10,11,11,13,13,14,14,15,15,16,16],"right_children":[2,4,-1,6,8,10,12,14,16,-1,-1,20,-1,22,24,26,28,-1,-1,-1,-1,-1,-1,-1,-1,-1,-1,-1,-1],"split_conditions":[2.5E0,1.5E0,1.5109412E-2,5E-1,1.5E0,5E-1,1.5E0,2.5E0,2.5E0,1.7267893E-3,7.6812725E-3,1E0,1.5102054E-2,5E-1,1.5E0,1E0,5E-1,7.859008E-3,3.7553303E-3,1.1099766E-2,1.4482849E-2,-1.1992482E-2,-2.832591E-3,-6.6314554E-3,-1.3771075E-2,-1.4779866E-2,-8.696168E-3,-3.835407E-3,-1.1911136E-2],"split_indices":[6,6,0,6,3,8,3,1,3,0,8,1,0,4,4,1,4,2147483647,2147483647,0,0,0,0,0,0,0,0,0,0],"split_type":[0,0,0,0,0,0,0,0,0,0,0,0,0,0,0,0,0,0,0,0,0,0,0,0,0,0,0,0,0],"sum_hessian":[3.551464E2,2.61117E2,9.402939E1,1.6469191E2,9.642509E1,6.910414E1,9.558777E1,4.7142956E1,4.9282135E1,3.8850887E0,6.5219055E1,3.740575E1,5.8182014E1,2.5799232E1,2.1343723E1,2.3509926E1,2.577221E1,6.229849E1,2.9205673E0,1.5480422E1,2.1925327E1,8.205428E0,1.7593805E1,1.5040404E1,6.3033185E0,1.1024559E1,1.2485367E1,8.978324E0,1.6793884E1],"tree_param":{"num_deleted":"2","num_feature":"9","num_nodes":"29","size_leaf_vector":"0"}},{"base_weights":[6.862334E-1,3.9229873E-1,1.5030458E0,1.1333468E0,-8.714443E-1,7.285224E-1,1.4258447E0,-9.5720804E-1,-5.8162266E-1,3.725365E-1,8.6602604E-1,1.3436831E0,1.487614E0,-7.595175E-1,-1.3213447E0,-1.0035166E0,-3.2548222E-1,8.004068E-1,-4.64219E-2,4.3719027E-2,9.07865E-1,1.4615543E0,1.0793521E0,-9.5812684E-1,-6.8269646E-1,-1.1688839E0,-1.6034727E0,-1.207118E0,-7.774015E-1,-1.8077458E-1,-5.5353373E-1],"categories":[],"categories_nodes":[],"categories_segments":[],"categories_sizes":[],"default_left":[1,1,0,1,1,1,1,1,1,1,1,1,0,1,1,1,1,0,0,0,0,0,0,1,1,0,0,1,1,1,1],"id":40,"left_children":[1,3,-1,5,7,9,11,13,15,17,19,21,-1,-1,25,-1,-1,-1,-1,-1,-1,-1,-1,-1,-1,-1,-1,-1,-1,-1,-1],"loss_changes":[8.496712E1,2.4411397E2,0E0,1.9349976E1,2.3397293E0,3.3510208E0,2.8363037E-1,5.241722E0,2.3729243E0,3.487497E0,1.7088203E0,1.1483917E0,0E0,6.7201805E-1,9.2993546E-1,2.910967E-1,4.5198238E-1,0E0,0E0,0E0,0E0,0E0,0E0,0E0,0E0,0E0,0E0,0E0,0E0,0E0,0E0],"parents":[2147483647,0,0,1,1,3,3,4,4,5,5,6,6,7,7,8,8,9,9,10,10,11,11,13,13,14,14,15,15,16,16],"right_children":[2,4,-1,6,8,10,12,14,16,18,20,22,-1,-1,26,-1,-1,-1,-1,-1,-1,-1,-1,-1,-1,-1,-1,-1,-1,-1,-1],"split_conditions":[2.5E0,1.5E0,1.5030458E-2,5E-1,2.5E0,5E-1,1E0,1.5E0,1.5E0,1E0,5E-1,1.5E0,1.487614E-2,-7.595175E-3,2.5E0,-1.0035166E-2,-3.2548222E-3,8.004068E-3,-4.64219E-4,4.3719026E-4,9.07865E-3,1.4615542E-2,1.0793521E-2,-9.581268E-3,-6.8269647E-3,-1.1688839E-2,-1.6034726E-2,-1.207118E-2,-7.774015E-3,-1.8077458E-3,-5.535337E-3],"split_indices":[6,6,0,6,2,5,1,2,5,1,8,5,0,5,5,1,1,0,0,0,0,0,0,2147483647,2147483647,0,0,2147483647,2147483647,2147483647,2147483647],"split_type":[0,0,0,0,0,0,0,0,0,0,0,0,0,0,0,0,0,0,0,0,0,0,0,0,0,0,0,0,0,0,0],"sum_hessian":[3.5404327E2,2.604624E2,9.3580864E1,1.6419197E2,9.627044E1,6.901817E1,9.517379E1,7.4109695E1,2.2160746E1,1.9334253E1,4.968392E1,4.182124E1,5.3352554E1,4.8232662E1,2.5877033E1,8.261418E0,1.3899327E1,9.520348E0,9.813907E0,2.4154236E0,4.7268497E1,2.861032E1,1.3210921E1,1.3132723E1,3.5099937E1,1.7132835E1,8.744198E0,4.1188326E0,4.1425853E0,8.61319E0,5.2861376E0],"tree_param":{"num_deleted":"6","num_feature":"9","num_nodes":"31","size_leaf_vector":"0"}},{"base_weights":[6.8155205E-1,3.8938648E-1,1.4953068E0,1.1255558E0,-8.642106E-1,7.2222376E-1,1.4178728E0,-7.469079E-1,-1.1750534E0,1.0012956E0,-6.197856E-2,1.3357531E0,1.4796488E0,-8.6660707E-1,-2.868703E-1,-1.4248043E0,-9.8243624E-1,1.1056201E0,7.6401335E-1,-4.0242097E-1,4.3120492E-1,1.3942268E0,1.1596965E0,-5.8314925E-1,-1.2707738E0,-5.184688E-1,5.098668E-1,9.072291E-2,-1.2710762E0],"categories":[],"categories_nodes":[],"categories_segments":[],"categories_sizes":[],"default_left":[1,1,0,1,1,1,1,1,1,1,1,1,1,1,1,0,1,0,0,0,0,1,1,0,0,0,0,0,0],"id":41,"left_children":[1,3,-1,5,7,9,-1,13,15,17,19,-1,-1,23,25,-1,27,-1,-1,-1,-1,-1,-1,-1,-1,-1,-1,-1,-1],"loss_changes":[8.387323E1,2.3994382E2,0E0,1.9207748E1,3.420372E0,1.511261E1,2.8355408E-1,3.8367271E0,1.1197166E0,1.175911E0,3.0750296E0,2.6812744E-1,0E0,6.29541E0,2.7257466E0,0E0,4.69067E0,0E0,0E0,0E0,0E0,0E0,0E0,0E0,0E0,0E0,0E0,0E0,0E0],"parents":[2147483647,0,0,1,1,3,3,4,4,5,5,6,6,7,7,8,8,9,9,10,10,11,11,13,13,14,14,16,16],"right_children":[2,4,-1,6,8,10,-1,14,16,18,20,-1,-1,24,26,-1,28,-1,-1,-1,-1,-1,-1,-1,-1,-1,-1,-1,-1],"split_conditions":[2.5E0,1.5E0,1.4953068E-2,5E-1,2.5E0,2.5E0,1.4178728E-2,2.5E0,1.5E0,1.5E0,2.5E0,1.335753E-2,1.4796488E-2,1.5E0,1.5E0,-1.4248043E-2,2.5E0,1.10562015E-2,7.640133E-3,-4.0242095E-3,4.312049E-3,1.3942268E-2,1.1596965E-2,-5.8314926E-3,-1.2707737E-2,-5.1846877E-3,5.0986675E-3,9.072291E-4,-1.2710761E-2],"split_indices":[6,6,0,6,0,0,1,2,1,0,2,2147483647,2147483647,2,0,0,1,0,0,0,0,2147483647,2147483647,0,0,0,0,0,0],"split_type":[0,0,0,0,0,0,0,0,0,0,0,0,0,0,0,0,0,0,0,0,0,0,0,0,0,0,0,0,0],"sum_hessian":[3.5292224E2,2.5979492E2,9.3127335E1,1.6368301E2,9.61119E1,6.892669E1,9.4756325E1,7.0026344E1,2.6085558E1,5.0815456E1,1.8111235E1,4.1651184E1,5.310514E1,5.549776E1,1.4528584E1,1.1079701E1,1.50058565E1,3.504255E1,1.5772908E1,1.072572E1,7.3855147E0,3.0747204E1,1.0903978E1,3.2763634E1,2.2734125E1,1.1283562E1,3.2450216E0,3.1950974E0,1.181076E1],"tree_param":{"num_deleted":"4","num_feature":"9","num_nodes":"29","size_leaf_vector":"0"}},{"base_weights":[6.7699164E-1,3.865515E-1,1.4877199E0,1.1179789E0,-8.5718995E-1,7.1618456E-1,1.4100164E0,-7.4055576E-1,-1.1666757E0,9.934467E-1,-6.1363693E-2,1.286003E0,1.487483E0,-5.651708E-1,-9.220821E-1,-1.415497E0,-9.7497815E-1,6.578441E-1,1.1233532E0,-1.8842293E-1,6.438931E-1,8.563731E-1,1.3860073E0,-4.8142132E-1,-6.567016E-1,-1.0981638E0,-7.958509E-1,-8.631177E-1,-1.5759655E0,8.983351E-2,-1.262261E0],"categories":[],"categories_nodes":[],"categories_segments":[],"categories_sizes":[],"default_left":[1,1,0,1,1,1,1,1,1,1,1,1,0,1,1,1,1,0,0,0,0,0,0,1,1,1,1,0,0,0,0],"id":42,"left_children":[1,3,-1,5,7,9,11,13,15,17,19,21,-1,-1,-1,27,29,-1,-1,-1,-1,-1,-1,-1,-1,-1,-1,-1,-1,-1,-1],"loss_changes":[8.279324E1,2.3587952E2,0E0,1.9054657E1,3.380188E0,1.486335E1,7.159271E-1,2.1772346E0,1.1075172E0,2.1411362E0,1.6438408E0,1.4730301E0,0E0,2.4337387E-1,6.739025E-1,8.515873E-1,4.621479E0,0E0,0E0,0E0,0E0,0E0,0E0,0E0,0E0,0E0,0E0,0E0,0E0,0E0,0E0],"parents":[2147483647,0,0,1,1,3,3,4,4,5,5,6,6,7,7,8,8,9,9,10,10,11,11,13,13,14,14,15,15,16,16],"right_children":[2,4,-1,6,8,10,12,14,16,18,20,22,-1,-1,-1,28,30,-1,-1,-1,-1,-1,-1,-1,-1,-1,-1,-1,-1,-1,-1],"split_conditions":[2.5E0,1.5E0,1.4877198E-2,5E-1,2.5E0,2.5E0,1.5E0,1.5E0,1.5E0,5E-1,2.5E0,5E-1,1.487483E-2,-5.651708E-3,-9.220821E-3,5E-1,2.5E0,6.5784412E-3,1.1233532E-2,-1.8842292E-3,6.438931E-3,8.563731E-3,1.3860073E-2,-4.814213E-3,-6.5670162E-3,-1.0981638E-2,-7.958508E-3,-8.631176E-3,-1.5759654E-2,8.983351E-4,-1.262261E-2],"split_indices":[6,6,0,6,0,0,3,3,1,5,5,0,0,1,3,5,1,0,0,0,0,0,0,2147483647,2147483647,2147483647,2147483647,0,0,0,0],"split_type":[0,0,0,0,0,0,0,0,0,0,0,0,0,0,0,0,0,0,0,0,0,0,0,0,0,0,0,0,0,0,0],"sum_hessian":[3.5175558E2,2.5908655E2,9.266904E1,1.6315022E2,9.593632E1,6.881611E1,9.4334114E1,6.99238E1,2.6012514E1,5.0706985E1,1.8109123E1,3.694707E1,5.7387047E1,3.5772705E1,3.4151096E1,1.1041877E1,1.4970636E1,1.4319687E1,3.63873E1,1.5406726E1,2.7023966E0,7.1568336E0,2.9790237E1,1.9007263E1,1.6765444E1,1.3938337E1,2.0212757E1,2.6292202E0,8.412657E0,3.195452E0,1.1775185E1],"tree_param":{"num_deleted":"4","num_feature":"9","num_nodes":"31","size_leaf_vector":"0"}},{"base_weights":[6.724807E-1,3.837459E-1,1.4802809E0,1.1105375E0,-8.501453E-1,7.1022975E-1,1.4023403E0,-6.8937206E-1,-1.0025843E0,3.5801852E-1,8.466564E-1,1.2782921E0,1.4799055E0,-5.525433E-1,-8.515526E-1,-1.273237E0,-9.232201E-1,7.843163E-1,-5.877379E-2,2.563413E-2,8.885377E-1,1.0749662E0,1.4166039E0,-1.1725867E0,-2.5915587E-1,-6.355525E-1,-1.34942E0,-1.6054265E0,-1.1039404E0,-8.051428E-1,-1.1499008E0],"categories":[],"categories_nodes":[],"categories_segments":[],"categories_sizes":[],"default_left":[1,1,0,1,1,1,1,1,1,1,1,1,0,1,1,1,1,0,0,0,0,0,0,0,0,0,0,1,1,0,0],"id":43,"left_children":[1,3,-1,5,7,9,11,13,15,17,19,21,-1,23,25,-1,29,-1,-1,-1,-1,-1,-1,-1,-1,-1,-1,-1,-1,-1,-1],"loss_changes":[8.173729E1,2.3189471E2,0E0,1.8906616E1,2.2805023E0,3.2757416E0,7.1533203E-1,9.954796E-1,9.347801E-1,3.4485192E0,1.7004967E0,8.8544464E-1,0E0,4.6568584E0,2.2062883E0,4.3265533E-1,9.311104E-1,0E0,0E0,0E0,0E0,0E0,0E0,0E0,0E0,0E0,0E0,0E0,0E0,0E0,0E0],"parents":[2147483647,0,0,1,1,3,3,4,4,5,5,6,6,7,7,8,8,9,9,10,10,11,11,13,13,14,14,15,15,16,16],"right_children":[2,4,-1,6,8,10,12,14,16,18,20,22,-1,24,26,-1,30,-1,-1,-1,-1,-1,-1,-1,-1,-1,-1,-1,-1,-1,-1],"split_conditions":[2.5E0,1.5E0,1.4802809E-2,5E-1,1.5E0,5E-1,1.5E0,2.5E0,5E-1,1E0,5E-1,1E0,1.4799055E-2,5E-1,1.5E0,-1.273237E-2,1.5E0,7.843163E-3,-5.877379E-4,2.563413E-4,8.885377E-3,1.0749661E-2,1.41660385E-2,-1.1725866E-2,-2.5915587E-3,-6.355525E-3,-1.3494199E-2,-1.6054265E-2,-1.1039403E-2,-8.051428E-3,-1.1499007E-2],"split_indices":[6,6,0,6,3,5,3,1,5,1,8,1,0,4,4,3,4,0,0,0,0,0,0,0,0,0,0,2147483647,2147483647,0,0],"split_type":[0,0,0,0,0,0,0,0,0,0,0,0,0,0,0,0,0,0,0,0,0,0,0,0,0,0,0,0,0,0,0],"sum_hessian":[3.5058636E2,2.5838016E2,9.2206215E1,1.6260933E2,9.577082E1,6.870298E1,9.390636E1,4.6880016E1,4.8890804E1,1.928291E1,4.9420067E1,3.6800354E1,5.7106003E1,2.5666428E1,2.121359E1,1.074461E1,3.8146194E1,9.489159E0,9.793751E0,2.4064424E0,4.7013626E1,1.5253749E1,2.1546606E1,8.14762E0,1.7518806E1,1.4953611E1,6.2599797E0,3.340898E0,7.4037123E0,2.5380669E1,1.2765526E1],"tree_param":{"num_deleted":"2","num_feature":"9","num_nodes":"31","size_leaf_vector":"0"}},{"base_weights":[6.679728E-1,3.8092706E-1,1.4729857E0,1.1030499E0,-8.431423E-1,7.041211E-1,1.3947899E0,-7.269234E-1,-1.1522195E0,9.8040956E-1,-6.815845E-2,1.2706798E0,1.4724736E0,-5.538593E-1,-9.0636635E-1,-1.4017494E0,-9.6021205E-1,1.0850006E0,7.4278486E-1,1.2819792E-1,-8.691228E-1,8.409775E-1,1.3710086E0,-6.531259E-1,-3.3457166E-1,-7.3503155E-1,-1.259339E0,-1.1857679E0,-1.5562425E0,9.584606E-2,-1.2465352E0],"categories":[],"categories_nodes":[],"categories_segments":[],"categories_sizes":[],"default_left":[1,1,0,1,1,1,1,1,1,1,1,1,0,1,1,1,1,0,0,0,0,0,0,1,1,0,0,1,1,0,0],"id":44,"left_children":[1,3,-1,5,7,9,11,13,15,17,19,21,-1,-1,25,-1,29,-1,-1,-1,-1,-1,-1,-1,-1,-1,-1,-1,-1,-1,-1],"loss_changes":[8.0712265E1,2.2796371E2,0E0,1.8777313E1,3.354187E0,1.466721E1,7.150879E-1,2.1182594E0,1.1102982E0,1.1772652E0,2.8731701E0,1.4691811E0,0E0,7.574825E-1,1.9711456E0,1.8523216E-1,4.548026E0,0E0,0E0,0E0,0E0,0E0,0E0,0E0,0E0,0E0,0E0,0E0,0E0,0E0,0E0],"parents":[2147483647,0,0,1,1,3,3,4,4,5,5,6,6,7,7,8,8,9,9,10,10,11,11,13,13,14,14,15,15,16,16],"right_children":[2,4,-1,6,8,10,12,14,16,18,20,22,-1,-1,26,-1,30,-1,-1,-1,-1,-1,-1,-1,-1,