{"learner":{"attributes":{"best_iteration":"999","best_ntree_limit":"1000","scikit_learn":"{\"use_label_encoder\": null, \"n_estimators\": 1000, \"objective\": \"binary:logistic\", \"max_depth\": 7, \"max_leaves\": 0, \"max_bin\": 256, \"grow_policy\": \"depthwise\", \"learning_rate\": 0.1, \"verbosity\": null, \"booster\": \"gbtree\", \"tree_method\": \"auto\", \"gamma\": 1, \"min_child_weight\": 2, \"max_delta_step\": 0, \"subsample\": 0.7, \"sampling_method\": \"uniform\", \"colsample_bytree\": 0.7, \"colsample_bylevel\": 1, \"colsample_bynode\": 1, \"reg_alpha\": 0, \"reg_lambda\": 0.1, \"scale_pos_weight\": 2, \"base_score\": 0.5, \"missing\": NaN, \"num_parallel_tree\": 1, \"random_state\": 0, \"n_jobs\": 0, \"monotone_constraints\": \"()\", \"interaction_constraints\": \"\", \"importance_type\": null, \"gpu_id\": -1, \"validate_parameters\": 1, \"predictor\": \"auto\", \"enable_categorical\": false, \"feature_types\": null, \"max_cat_to_onehot\": 4, \"max_cat_threshold\": 64, \"eval_metric\": null, \"early_stopping_rounds\": null, \"callbacks\": null, \"classes_\": [0, 1], \"n_classes_\": 2, \"_estimator_type\": \"classifier\"}"},"feature_names":["loan_amnt","home_ownership","annual_inc","desc","inq_last_6mths","revol_util","last_fico_range_high","last_fico_range_low","pub_rec_bankruptcies"],"feature_types":["int","int","int","int","int","int","int","int","int"],"gradient_booster":{"model":{"gbtree_model_param":{"num_parallel_tree":"1","num_trees":"1000","size_leaf_vector":"0"},"tree_info":[0,0,0,0,0,0,0,0,0,0,0,0,0,0,0,0,0,0,0,0,0,0,0,0,0,0,0,0,0,0,0,0,0,0,0,0,0,0,0,0,0,0,0,0,0,0,0,0,0,0,0,0,0,0,0,0,0,0,0,0,0,0,0,0,0,0,0,0,0,0,0,0,0,0,0,0,0,0,0,0,0,0,0,0,0,0,0,0,0,0,0,0,0,0,0,0,0,0,0,0,0,0,0,0,0,0,0,0,0,0,0,0,0,0,0,0,0,0,0,0,0,0,0,0,0,0,0,0,0,0,0,0,0,0,0,0,0,0,0,0,0,0,0,0,0,0,0,0,0,0,0,0,0,0,0,0,0,0,0,0,0,0,0,0,0,0,0,0,0,0,0,0,0,0,0,0,0,0,0,0,0,0,0,0,0,0,0,0,0,0,0,0,0,0,0,0,0,0,0,0,0,0,0,0,0,0,0,0,0,0,0,0,0,0,0,0,0,0,0,0,0,0,0,0,0,0,0,0,0,0,0,0,0,0,0,0,0,0,0,0,0,0,0,0,0,0,0,0,0,0,0,0,0,0,0,0,0,0,0,0,0,0,0,0,0,0,0,0,0,0,0,0,0,0,0,0,0,0,0,0,0,0,0,0,0,0,0,0,0,0,0,0,0,0,0,0,0,0,0,0,0,0,0,0,0,0,0,0,0,0,0,0,0,0,0,0,0,0,0,0,0,0,0,0,0,0,0,0,0,0,0,0,0,0,0,0,0,0,0,0,0,0,0,0,0,0,0,0,0,0,0,0,0,0,0,0,0,0,0,0,0,0,0,0,0,0,0,0,0,0,0,0,0,0,0,0,0,0,0,0,0,0,0,0,0,0,0,0,0,0,0,0,0,0,0,0,0,0,0,0,0,0,0,0,0,0,0,0,0,0,0,0,0,0,0,0,0,0,0,0,0,0,0,0,0,0,0,0,0,0,0,0,0,0,0,0,0,0,0,0,0,0,0,0,0,0,0,0,0,0,0,0,0,0,0,0,0,0,0,0,0,0,0,0,0,0,0,0,0,0,0,0,0,0,0,0,0,0,0,0,0,0,0,0,0,0,0,0,0,0,0,0,0,0,0,0,0,0,0,0,0,0,0,0,0,0,0,0,0,0,0,0,0,0,0,0,0,0,0,0,0,0,0,0,0,0,0,0,0,0,0,0,0,0,0,0,0,0,0,0,0,0,0,0,0,0,0,0,0,0,0,0,0,0,0,0,0,0,0,0,0,0,0,0,0,0,0,0,0,0,0,0,0,0,0,0,0,0,0,0,0,0,0,0,0,0,0,0,0,0,0,0,0,0,0,0,0,0,0,0,0,0,0,0,0,0,0,0,0,0,0,0,0,0,0,0,0,0,0,0,0,0,0,0,0,0,0,0,0,0,0,0,0,0,0,0,0,0,0,0,0,0,0,0,0,0,0,0,0,0,0,0,0,0,0,0,0,0,0,0,0,0,0,0,0,0,0,0,0,0,0,0,0,0,0,0,0,0,0,0,0,0,0,0,0,0,0,0,0,0,0,0,0,0,0,0,0,0,0,0,0,0,0,0,0,0,0,0,0,0,0,0,0,0,0,0,0,0,0,0,0,0,0,0,0,0,0,0,0,0,0,0,0,0,0,0,0,0,0,0,0,0,0,0,0,0,0,0,0,0,0,0,0,0,0,0,0,0,0,0,0,0,0,0,0,0,0,0,0,0,0,0,0,0,0,0,0,0,0,0,0,0,0,0,0,0,0,0,0,0,0,0,0,0,0,0,0,0,0,0,0,0,0,0,0,0,0,0,0,0,0,0,0,0,0,0,0,0,0,0,0,0,0,0,0,0,0,0,0,0,0,0,0,0,0,0,0,0,0,0,0,0,0,0,0,0,0,0,0,0,0,0,0,0,0,0,0,0,0,0,0,0,0,0,0,0,0,0,0,0,0,0,0,0,0,0,0,0,0,0,0,0,0,0,0,0,0,0,0,0,0,0,0,0,0,0,0,0,0,0,0,0,0,0,0,0,0,0,0,0,0,0,0,0,0,0,0,0,0,0,0,0,0,0,0,0,0,0,0,0,0,0,0,0,0,0,0,0,0,0,0,0,0,0,0,0,0,0,0,0,0,0,0,0,0,0,0,0,0,0,0,0,0,0,0,0,0,0,0,0,0,0,0,0,0,0,0,0,0,0,0,0,0,0,0,0,0,0,0,0,0,0,0,0,0,0,0,0,0,0],"trees":[{"base_weights":[1.0413643E0,6.9606143E-1,1.9837508E0,1.5885798E0,-1.1706197E0,1.0163339E0,1.9730393E0,-7.7348065E-1,-1.3199577E0,5.194805E-1,1.3707165E0,-9.7472924E-1,-1.1494253E-1,-1.5077989E0,-1.0215054E0,-0E0,7.453416E-1,1.5400411E0,8.2802546E-1,-5.263158E-1,-1.081081E0,-0E0,-2.1276596E-1,-1.6371682E0,-1.023622E0,-7.8651685E-1,-1.588785E0,-3.9215687E-1,9.5238096E-1,1.1377245E0,3.1847134E-1,1.6498317E0,1.3541666E0,-2.1276596E-1,1.25E0,-7.8431374E-1,-1.3114754E0,-1.4383562E0,-1.9753087E0,-1.3432835E0,-6.451613E-1,-1.25E0,-4.4585988E-1,-1.9298246E0,-1.1538461E0,-9.5238096E-1,-0E0,6.451613E-1,1.4018692E0,8.045977E-1,-2.777778E-1,1.4084507E0,1.8471338E0,1.5789474E0,1.240876E0,1.9047619E0,8.333333E-1,-6.451613E-1,-1.9354838E0,-1.6239316E0,-1.299435E0,-0E0,-1.2280701E0],"categories":[],"categories_nodes":[],"categories_segments":[],"categories_sizes":[],"default_left":[1,1,0,1,1,1,0,1,1,1,1,1,1,1,1,1,1,1,1,0,1,1,1,1,1,1,1,1,0,1,1,1,1,0,1,0,1,1,0,1,1,0,1,1,1,0,0,1,1,0,0,1,1,1,1,0,0,0,0,1,1,0,0],"id":0,"left_children":[1,3,-1,5,7,9,-1,11,13,15,17,19,-1,23,25,27,29,-1,33,-1,35,-1,-1,37,-1,41,-1,45,-1,-1,49,-1,-1,-1,55,-1,57,-1,-1,-1,-1,-1,61,-1,-1,-1,-1,-1,-1,-1,-1,-1,-1,-1,-1,-1,-1,-1,-1,-1,-1,-1,-1],"loss_changes":[8.9544586E1,3.364776E2,0E0,2.9852234E1,3.773674E0,9.630592E0,0E0,2.3875866E0,2.500496E0,2.7103333E0,2.822174E0,6.036024E-1,4.8911717E-2,1.6395111E0,2.354498E0,2.6890757E0,2.6604614E0,2.7350235E-1,3.4742174E0,0E0,6.56085E-1,0E0,0E0,1.2351952E0,6.8155575E-1,2.052083E0,5.709009E-1,1.1204484E0,0E0,9.959583E-1,2.2976913E0,4.4707108E-1,4.8542023E-2,0E0,1.3690481E0,0E0,2.4114227E0,1.6537476E-1,0E0,0E0,0E0,0E0,2.7377362E0,0E0,0E0,0E0,0E0,0E0,0E0,0E0,0E0,0E0,0E0,0E0,0E0,0E0,0E0,0E0,0E0,0E0,0E0,0E0,0E0],"parents":[2147483647,0,0,1,1,3,3,4,4,5,5,7,7,8,8,9,9,10,10,11,11,12,12,13,13,14,14,15,15,16,16,17,17,18,18,20,20,23,23,24,24,25,25,26,26,27,27,29,29,30,30,31,31,32,32,34,34,36,36,37,37,42,42],"right_children":[2,4,-1,6,8,10,-1,12,14,16,18,20,-1,24,26,28,30,-1,34,-1,36,-1,-1,38,-1,42,-1,46,-1,-1,50,-1,-1,-1,56,-1,58,-1,-1,-1,-1,-1,62,-1,-1,-1,-1,-1,-1,-1,-1,-1,-1,-1,-1,-1,-1,-1,-1,-1,-1,-1,-1],"split_conditions":[2.5E0,1.5E0,1.9837509E-1,5E-1,5E-1,1.5E0,1.9730394E-1,2.5E0,1.5E0,5E-1,1.5E0,5E-1,-1.1494253E-2,2.5E0,2.5E0,1.5E0,5E-1,1.5400411E-1,5E-1,-5.2631583E-2,5E-1,-0E0,-2.1276597E-2,2.5E0,-1.0236221E-1,1.5E0,-1.588785E-1,5E-1,9.52381E-2,1.1377245E-1,5E-1,1.6498317E-1,1.3541667E-1,-2.1276597E-2,2.5E0,-7.8431375E-2,1.5E0,-1.4383562E-1,-1.9753087E-1,-1.3432835E-1,-6.451613E-2,-1.25E-1,2.5E0,-1.9298247E-1,-1.15384616E-1,-9.52381E-2,-0E0,6.451613E-2,1.4018692E-1,8.0459766E-2,-2.777778E-2,1.4084508E-1,1.8471338E-1,1.5789475E-1,1.24087594E-1,1.904762E-1,8.3333336E-2,-6.451613E-2,-1.9354838E-1,-1.6239317E-1,-1.299435E-1,-0E0,-1.2280702E-1],"split_indices":[6,6,0,6,2,3,0,3,4,2,4,4,4,3,2,4,3,2,2,0,3,2147483647,2147483647,1,2,2,1,3,0,1,4,2147483647,2147483647,0,3,0,1,2,0,2147483647,2147483647,0,3,2147483647,2147483647,0,0,2147483647,2147483647,0,0,2147483647,2147483647,2147483647,2147483647,0,0,0,0,2147483647,2147483647,0,0],"split_type":[0,0,0,0,0,0,0,0,0,0,0,0,0,0,0,0,0,0,0,0,0,0,0,0,0,0,0,0,0,0,0,0,0,0,0,0,0,0,0,0,0,0,0,0,0,0,0,0,0,0,0,0,0,0,0,0,0,0,0,0,0,0,0],"sum_hessian":[2.755E2,2.0175E2,7.375E1,1.365E2,6.525E1,5.5E1,8.15E1,1.8E1,4.725E1,2.3E1,3.2E1,1.375E1,4.25E0,2.875E1,1.85E1,7E0,1.6E1,2.425E1,7.75E0,2.75E0,1.1E1,2E0,2.25E0,2.25E1,6.25E0,1.325E1,5.25E0,5E0,2E0,8.25E0,7.75E0,1.475E1,9.5E0,2.25E0,5.5E0,5E0,6E0,1.45E1,8E0,3.25E0,3E0,5.5E0,7.75E0,2.75E0,2.5E0,2E0,3E0,3E0,5.25E0,4.25E0,3.5E0,7E0,7.75E0,2.75E0,6.75E0,2E0,3.5E0,3E0,3E0,5.75E0,8.75E0,5E0,2.75E0],"tree_param":{"num_deleted":"16","num_feature":"9","num_nodes":"63","size_leaf_vector":"0"}},{"base_weights":[9.449867E-1,6.383772E-1,1.8033326E0,1.4600832E0,-9.8750657E-1,9.836791E-1,1.7804482E0,-7.913243E-1,-1.3112916E0,1.1233516E0,4.4170862E-1,-1.0749029E0,1.1118825E-1,-1.8239715E0,-1.1667157E0,8.172404E-1,1.2799232E0,1.8243113E-1,6.7124957E-1,-9.021895E-1,-1.6140198E0,9.79835E-1,-2.2738822E-1,-1.3112674E0,-7.7555025E-1,1.0781208E0,6.09353E-1,1.4738472E0,1.0581788E0,-1.0906755E0,-4.0465093E-1,-1.4184985E0,-1.8518254E0,-6.0191125E-1,4.793022E-1,-1.0964785E0,-1.4229965E0,-1.0252402E0,-5.414021E-1,7.6943576E-1,1.2923951E0,7.2263396E-1,4.1904604E-1,1.3463643E0,1.5896022E0,1.1509992E0,5.750965E-1,-1.4141409E0,-9.6876997E-1,-1.0468805E-1,-5.4904073E-1,-1.1345297E-1,-1.02084E0,-1.1983747E0,-1.5267328E0],"categories":[],"categories_nodes":[],"categories_segments":[],"categories_sizes":[],"default_left":[1,1,0,1,1,1,0,1,1,1,1,1,1,0,1,1,1,1,1,1,1,0,1,1,1,1,1,1,1,1,1,1,1,1,0,1,1,1,1,1,1,1,1,1,1,1,1,1,1,1,1,1,1,1,1],"id":1,"left_children":[1,3,-1,5,7,9,-1,11,13,15,-1,19,21,-1,23,-1,27,-1,-1,29,-1,-1,33,-1,-1,-1,-1,-1,-1,-1,-1,-1,-1,-1,-1,-1,-1,-1,-1,-1,-1,-1,-1,-1,-1,-1,-1,-1,-1,-1,-1,-1,-1,-1,-1],"loss_changes":[7.058864E1,2.648071E2,0E0,1.9915436E1,4.1245804E0,3.9738388E0,0E0,1.06851845E1,1.6374931E0,1.9177513E0,6.4573765E-1,2.8099556E0,2.9813428E0,0E0,1.0150127E0,7.2370625E-1,1.0369072E0,0E0,0E0,2.2316017E0,8.952141E-2,0E0,1.9664289E0,1.865673E-1,2.7035904E-1,3.1891823E-1,1.4930868E-1,5.9890747E-4,5.3000546E-1,5.546684E-1,2.8991306E-1,0E0,0E0,9.766123E-1,0E0,0E0,2.803421E-2,0E0,0E0,0E0,0E0,0E0,0E0,0E0,0E0,0E0,0E0,0E0,0E0,0E0,0E0,0E0,0E0,0E0,0E0],"parents":[2147483647,0,0,1,1,3,3,4,4,5,5,7,7,8,8,9,9,10,10,11,11,12,12,14,14,15,15,16,16,19,19,20,20,22,22,23,23,24,24,25,25,26,26,27,27,28,28,29,29,30,30,33,33,36,36],"right_children":[2,4,-1,6,8,10,-1,12,14,16,-1,20,22,-1,24,-1,28,-1,-1,30,-1,-1,34,-1,-1,-1,-1,-1,-1,-1,-1,-1,-1,-1,-1,-1,-1,-1,-1,-1,-1,-1,-1,-1,-1,-1,-1,-1,-1,-1,-1,-1,-1,-1,-1],"split_conditions":[2.5E0,1.5E0,1.8033326E-1,5E-1,2.5E0,2.5E0,1.7804483E-1,1.5E0,5E-1,5E-1,4.4170864E-2,2.5E0,5E-1,-1.8239716E-1,2.5E0,8.172404E-2,1.5E0,1.8243114E-2,6.7124955E-2,1.5E0,-1.6140197E-1,9.79835E-2,1.5E0,-1.3112675E-1,-7.755502E-2,1.07812084E-1,6.09353E-2,1.4738472E-1,1.0581788E-1,-1.0906755E-1,-4.0465094E-2,-1.4184986E-1,-1.8518254E-1,-6.0191125E-2,4.7930222E-2,-1.0964785E-1,-1.4229965E-1,-1.0252402E-1,-5.414021E-2,7.694358E-2,1.2923951E-1,7.22634E-2,4.1904606E-2,1.3463643E-1,1.5896022E-1,1.1509992E-1,5.750965E-2,-1.4141409E-1,-9.6877E-2,-1.0468805E-2,-5.4904073E-2,-1.1345297E-2,-1.02084E-1,-1.1983748E-1,-1.5267329E-1],"split_indices":[6,6,0,6,1,0,0,1,4,0,1,0,0,0,0,1,0,2147483647,2147483647,0,4,0,4,0,4,2147483647,2147483647,1,8,4,4,2147483647,2147483647,4,0,2147483647,2147483647,2147483647,2147483647,2147483647,2147483647,2147483647,2147483647,2147483647,2147483647,2147483647,2147483647,2147483647,2147483647,2147483647,2147483647,2147483647,2147483647,2147483647,2147483647],"split_type":[0,0,0,0,0,0,0,0,0,0,0,0,0,0,0,0,0,0,0,0,0,0,0,0,0,0,0,0,0,0,0,0,0,0,0,0,0,0,0,0,0,0,0,0,0,0,0,0,0,0,0,0,0,0,0],"sum_hessian":[2.6855484E2,1.9800122E2,7.0553604E1,1.3153493E2,6.646629E1,5.305123E1,7.8483696E1,4.1603195E1,2.4863098E1,4.2095444E1,1.0955788E1,3.1641895E1,9.961302E0,5.213591E0,1.9649508E1,1.4455547E1,2.7639898E1,5.2289333E0,5.7268543E0,2.4167011E1,7.474883E0,2.740617E0,7.220685E0,1.4175763E1,5.4737434E0,6.22505E0,8.230497E0,1.4443684E1,1.3196215E1,1.744064E1,6.726372E0,4.484374E0,2.990509E0,4.7291927E0,2.4914923E0,5.2207446E0,8.955019E0,2.4854546E0,2.9882889E0,2.7387192E0,3.4863307E0,4.984019E0,3.2464783E0,7.474744E0,6.96894E0,1.0953354E1,2.2428606E0,4.483645E0,1.2956994E1,2.2417493E0,4.4846225E0,2.2420788E0,2.487114E0,3.225659E0,5.7293596E0],"tree_param":{"num_deleted":"26","num_feature":"9","num_nodes":"55","size_leaf_vector":"0"}},{"base_weights":[8.533756E-1,1.3759665E0,3.3051327E-1,1.0168835E0,1.6324723E0,-9.2067075E-1,1.666358E0,6.3146996E-1,1.3791752E0,-1.0561007E0,-3.7893337E-1,7.6505625E-1,7.295894E-2,1.0175004E0,1.4759028E0,-8.840888E-1,-1.4186928E0,-1.0373955E0,4.737904E-1,4.8337892E-1,1.1780179E0,9.7004515E-1,-7.485856E-1,1.3100892E0,4.6234784E-1,1.35038E0,1.7555147E0,-5.659902E-1,-9.9373984E-1,-1.1488457E0,-1.723629E0,-1.4304E0,-5.9473917E-2,9.541455E-1,4.7673248E-2,-2.3577851E-1,9.6662796E-1,1.4792755E0,9.2625827E-1,1.0499575E0,1.4997953E0,-2.2584325E-1,-1.1551325E0,-1.5358855E0,-7.275238E-1,-1.7526503E0,-8.469079E-1,-1.7782706E0,-8.721925E-1,-1.1498525E0,4.6925697E-1,1.0184298E-1,1.4321754E0,4.4106945E-1,1.7348953E0,1.180438E0,1.7510719E0,7.470782E-1,-7.8113145E-1,-1.7332635E0,-1.044984E0,-8.136789E-2,-9.4433916E-1,-1.0491855E0,-6.502054E-1],"categories":[],"categories_nodes":[],"categories_segments":[],"categories_sizes":[],"default_left":[1,1,1,1,0,1,0,1,1,1,1,1,1,1,1,1,1,1,1,1,1,0,0,1,1,1,0,1,1,1,0,1,0,0,0,1,1,1,1,1,1,1,0,1,1,0,1,1,1,0,0,0,0,0,0,1,1,0,0,1,1,0,0,1,1],"id":2,"left_children":[1,3,5,7,-1,9,-1,11,13,15,17,19,21,-1,25,27,29,31,33,35,-1,-1,-1,-1,-1,39,-1,41,43,45,-1,-1,-1,-1,-1,49,51,-1,-1,53,-1,57,-1,-1,61,-1,-1,-1,-1,-1,-1,-1,-1,-1,-1,-1,-1,-1,-1,-1,-1,-1,-1,-1,-1],"loss_changes":[7.1666794E1,1.1920868E1,2.1964314E2,7.5850296E0,0E0,4.939739E0,0E0,1.9945107E0,8.3768845E-1,3.2577553E0,7.7586E0,2.4582472E0,3.96752E0,9.595647E-1,5.3710175E-1,1.2362556E0,1.2245331E0,2.9812117E0,1.2340868E0,4.5491276E0,5.2270985E-1,0E0,0E0,0E0,0E0,5.453167E-1,0E0,1.9240253E0,3.8463783E0,1.5783272E0,0E0,9.215946E-1,0E0,0E0,0E0,3.4791355E0,3.129457E0,0E0,0E0,2.2313552E0,6.1364365E-1,3.4585366E0,0E0,6.852608E-1,2.595706E0,0E0,1.9070816E-1,0E0,0E0,0E0,0E0,0E0,0E0,0E0,0E0,0E0,0E0,0E0,0E0,0E0,0E0,0E0,0E0,0E0,0E0],"parents":[2147483647,0,0,1,1,2,2,3,3,5,5,7,7,8,8,9,9,10,10,11,11,12,12,13,13,14,14,15,15,16,16,17,17,18,18,19,19,20,20,25,25,27,27,28,28,29,29,31,31,35,35,36,36,39,39,40,40,41,41,43,43,44,44,46,46],"right_children":[2,4,6,8,-1,10,-1,12,14,16,18,20,22,-1,26,28,30,32,34,36,-1,-1,-1,-1,-1,40,-1,42,44,46,-1,-1,-1,-1,-1,50,52,-1,-1,54,-1,58,-1,-1,62,-1,-1,-1,-1,-1,-1,-1,-1,-1,-1,-1,-1,-1,-1,-1,-1,-1,-1,-1,-1],"split_conditions":[1.5E0,5E-1,2.5E0,1.5E0,1.6324723E-1,2.5E0,1.666358E-1,2.5E0,5E-1,2.5E0,1E0,1.5E0,5E-1,1.0175004E-1,2.5E0,5E-1,2.5E0,1.5E0,5E-1,2.5E0,1.17801785E-1,9.700452E-2,-7.485856E-2,1.3100892E-1,4.6234783E-2,2.5E0,1.7555147E-1,1.5E0,1.5E0,5E-1,-1.7236291E-1,-1.4304E-1,-5.947392E-3,9.541455E-2,4.767325E-3,1.5E0,5E-1,1.4792755E-1,9.262583E-2,2.5E0,1.4997953E-1,2.5E0,-1.1551326E-1,-1.5358855E-1,5E-1,-1.7526503E-1,-8.4690794E-2,-1.7782706E-1,-8.721925E-2,-1.1498525E-1,4.6925697E-2,1.0184298E-2,1.4321755E-1,4.4106945E-2,1.7348954E-1,1.180438E-1,1.751072E-1,7.470782E-2,-7.8113146E-2,-1.7332636E-1,-1.044984E-1,-8.136789E-3,-9.443392E-2,-1.04918554E-1,-6.502054E-2],"split_indices":[7,7,7,5,0,3,0,3,2,5,1,3,2,1,3,2,1,8,2,1,5,0,0,2147483647,2147483647,1,0,3,2,3,0,2,0,0,0,2,2,2147483647,2147483647,2,3,1,0,5,5,0,3,2147483647,2147483647,0,0,0,0,0,0,2147483647,2147483647,0,0,2147483647,2147483647,0,0,2147483647,2147483647],"split_type":[0,0,0,0,0,0,0,0,0,0,0,0,0,0,0,0,0,0,0,0,0,0,0,0,0,0,0,0,0,0,0,0,0,0,0,0,0,0,0,0,0,0,0,0,0,0,0,0,0,0,0,0,0,0,0,0,0,0,0,0,0,0,0,0,0],"sum_hessian":[2.623486E2,1.3112674E2,1.3122186E2,5.4845196E1,7.628155E1,6.77741E1,6.344776E1,2.6707502E1,2.8137693E1,5.414367E1,1.3630433E1,2.1522667E1,5.184836E0,6.1804094E0,2.1957285E1,3.6955826E1,1.7187843E1,7.6790867E0,5.9513464E0,1.2924225E1,8.598443E0,2.4698286E0,2.7150073E0,3.9582548E0,2.2221546E0,1.5556595E1,6.400689E0,9.6313505E0,2.7324474E1,9.371487E0,7.8163567E0,5.4447107E0,2.234376E0,2.7393754E0,3.2119708E0,5.214847E0,7.7093773E0,3.692451E0,4.9059916E0,5.433806E0,1.0122789E1,6.1936955E0,3.4376547E0,8.841644E0,1.848283E1,2.9639056E0,6.4075813E0,3.2196698E0,2.225041E0,2.2433138E0,2.9715333E0,2.7405329E0,4.9688444E0,2.9636292E0,2.470177E0,4.7084327E0,5.414356E0,2.2379827E0,3.9557126E0,6.12562E0,2.716024E0,4.6782317E0,1.3804599E1,2.945357E0,3.4622245E0],"tree_param":{"num_deleted":"12","num_feature":"9","num_nodes":"65","size_leaf_vector":"0"}},{"base_weights":[7.650186E-1,4.9862063E-1,1.5612772E0,1.2200363E0,-9.675008E-1,7.3085994E-1,1.5678859E0,-6.290246E-1,-1.103277E0,3.842797E-1,1.1125062E0,-1.0006063E0,-2.9299626E-1,-1.580281E0,-8.528286E-1,6.2404144E-1,-8.5847163E-1,6.8823576E-1,1.3588421E0,-4.4895762E-1,-1.6361487E0,-7.7665985E-1,5.721769E-1,-1.0888573E0,-1.7016308E0,-5.9044677E-1,-1.4579549E0,3.2820284E-1,1.0409061E0,-1.2579106E0,-4.209102E-1,1.4948788E0,1.917097E-2,1.0772084E0,1.5573857E0,-6.95103E-3,-8.368096E-1,-1.1795255E0,-1.5124913E-1,-9.5532703E-1,2.901703E-3,-1.0546409E0,-1.6638983E0,-6.206989E-1,9.0718424E-1,1.4290669E0,5.097399E-1,-4.1460776E-1,3.5184023E-1,1.6419666E0,4.1038524E-2,-1.9049582E-1,-1.2896162E0,6.300306E-1,-2.8860855E-1],"categories":[],"categories_nodes":[],"categories_segments":[],"categories_sizes":[],"default_left":[1,1,0,1,1,1,0,1,1,1,1,1,1,1,1,1,1,1,1,1,0,1,0,1,1,1,1,1,1,1,1,0,1,1,0,1,1,0,0,1,1,1,1,0,0,0,0,1,1,0,0,0,0,0,0],"id":3,"left_children":[1,3,-1,5,7,9,-1,11,13,15,17,19,21,-1,25,27,-1,31,33,-1,-1,37,-1,-1,-1,39,-1,43,45,-1,-1,-1,-1,49,-1,-1,-1,-1,-1,51,53,-1,-1,-1,-1,-1,-1,-1,-1,-1,-1,-1,-1,-1,-1],"loss_changes":[5.3313538E1,1.9975507E2,0E0,2.1418625E1,2.7938309E0,6.938179E0,0E0,2.2268758E0,5.1614532E0,8.340609E0,2.5261288E0,2.9204254E0,4.074181E0,7.179184E-1,4.5639534E0,2.848197E0,7.405617E-1,5.0756435E0,7.132225E-1,8.067379E-1,0E0,1.5491717E0,0E0,0E0,0E0,4.4595876E0,5.546131E-1,7.6470737E0,1.9179201E0,0E0,0E0,0E0,7.714529E-1,3.9952579E0,0E0,0E0,0E0,0E0,0E0,3.2363997E0,1.4702449E0,0E0,0E0,0E0,0E0,0E0,0E0,0E0,0E0,0E0,0E0,0E0,0E0,0E0,0E0],"parents":[2147483647,0,0,1,1,3,3,4,4,5,5,7,7,8,8,9,9,10,10,11,11,12,12,13,13,14,14,15,15,16,16,17,17,18,18,19,19,21,21,25,25,26,26,27,27,28,28,32,32,33,33,39,39,40,40],"right_children":[2,4,-1,6,8,10,-1,12,14,16,18,20,22,-1,26,28,-1,32,34,-1,-1,38,-1,-1,-1,40,-1,44,46,-1,-1,-1,-1,50,-1,-1,-1,-1,-1,52,54,-1,-1,-1,-1,-1,-1,-1,-1,-1,-1,-1,-1,-1,-1],"split_conditions":[2.5E0,1.5E0,1.5612772E-1,5E-1,5E-1,1.5E0,1.5678859E-1,1.5E0,1.5E0,2.5E0,1.5E0,1.5E0,2.5E0,-1.5802811E-1,2.5E0,2.5E0,-8.584716E-2,1E0,2.5E0,-4.4895764E-2,-1.6361487E-1,2.5E0,5.7217687E-2,-1.0888573E-1,-1.7016308E-1,1.5E0,-1.457955E-1,1.5E0,1.5E0,-1.2579106E-1,-4.2091023E-2,1.4948788E-1,1.917097E-3,1.5E0,1.5573858E-1,-6.95103E-4,-8.368096E-2,-1.1795255E-1,-1.5124912E-2,5E-1,1.5E0,-1.0546409E-1,-1.6638984E-1,-6.2069893E-2,9.0718426E-2,1.429067E-1,5.097399E-2,-4.146078E-2,3.5184022E-2,1.6419666E-1,4.1038524E-3,-1.9049583E-2,-1.2896162E-1,6.3003056E-2,-2.8860856E-2],"split_indices":[6,6,0,6,0,5,0,3,0,0,3,2,5,5,5,1,1,1,1,5,0,1,0,2147483647,2147483647,5,2,3,3,2147483647,2147483647,0,2,0,0,2147483647,2147483647,0,0,3,2,2147483647,2147483647,0,0,0,0,2147483647,2147483647,0,0,0,0,0,0],"split_type":[0,0,0,0,0,0,0,0,0,0,0,0,0,0,0,0,0,0,0,0,0,0,0,0,0,0,0,0,0,0,0,0,0,0,0,0,0,0,0,0,0,0,0,0,0,0,0,0,0,0,0,0,0,0,0],"sum_hessian":[2.5160173E2,1.886494E2,6.2952335E1,1.26447014E2,6.2202385E1,5.267747E1,7.376955E1,1.7969503E1,4.4232883E1,2.7712189E1,2.4965282E1,8.439402E0,9.530101E0,1.5045752E1,2.9187132E1,2.3272125E1,4.4400635E0,9.3099375E0,1.5655344E1,4.6092396E0,3.830162E0,6.1193757E0,3.4107254E0,3.1770625E0,1.1868689E1,2.0497168E1,8.689965E0,1.3716554E1,9.555572E0,2.2231357E0,2.2169278E0,4.165032E0,5.144906E0,6.738852E0,8.916492E0,2.2018003E0,2.407439E0,3.6679945E0,2.4513814E0,1.2654353E1,7.8428135E0,3.144319E0,5.5456467E0,5.1950684E0,8.521485E0,5.4233212E0,4.1322503E0,2.2224054E0,2.9225006E0,4.323752E0,2.4151E0,3.896472E0,8.757881E0,2.4518971E0,5.3909163E0],"tree_param":{"num_deleted":"10","num_feature":"9","num_nodes":"55","size_leaf_vector":"0"}},{"base_weights":[7.207753E-1,4.500666E-1,1.4936377E0,1.1303324E0,-8.136998E-1,7.0273787E-1,1.4416351E0,-6.6895264E-1,-1.0964154E0,9.1438496E-1,-1.4905305E-1,1.4772565E0,1.3366752E0,-3.4301084E-1,-8.0108124E-1,-8.9551836E-1,-1.5524677E0,1.0385994E0,-3.212608E-1,-7.8054225E-1,7.5321245E-1,-7.99929E-1,1.4699768E-1,-9.0249395E-1,5.0290752E-2,-1.0751332E0,-5.180827E-1,8.518576E-1,1.2034165E0,-9.19648E-1,-5.4350847E-1,-4.2845514E-1,-1.106515E0,5.197117E-1,-3.4889206E-1,-1.0253496E0,-6.370144E-1,-8.662591E-1,-1.5960579E0,-6.759647E-1,-3.928527E-1,-8.734689E-2,1.0852984E0,1.3550782E0,8.2732E-1,-6.4588076E-1,-1.1820431E0,-1.1697968E0,-1.5703677E-1,-1.0962741E0,-6.023473E-1],"categories":[],"categories_nodes":[],"categories_segments":[],"categories_sizes":[],"default_left":[1,1,0,1,1,1,1,1,1,1,1,1,1,1,1,1,0,1,0,1,0,1,1,1,0,1,1,1,1,1,1,1,1,0,0,1,1,1,0,1,1,0,0,0,0,0,0,0,0,1,1],"id":4,"left_children":[1,3,-1,5,7,9,-1,13,15,17,19,-1,-1,21,23,25,-1,27,-1,-1,-1,-1,33,35,-1,37,-1,41,43,-1,-1,-1,-1,-1,-1,45,47,-1,-1,-1,-1,-1,-1,-1,-1,-1,-1,-1,-1,-1,-1],"loss_changes":[5.438243E1,1.6591267E2,0E0,1.6594833E1,2.6910667E0,9.575573E0,7.356262E-2,1.9076824E0,1.9424019E0,6.5561256E0,6.1223097E0,0E0,0E0,2.9528425E0,2.758648E0,1.0294752E0,0E0,1.0867424E0,0E0,1.5805888E-1,0E0,7.285228E-1,1.2052615E0,8.645077E-1,0E0,1.0317326E0,7.930827E-2,4.056185E0,1.0447807E0,0E0,0E0,0E0,0E0,0E0,0E0,1.0727501E0,2.3555465E0,4.1316032E-1,0E0,0E0,0E0,0E0,0E0,0E0,0E0,0E0,0E0,0E0,0E0,0E0,0E0],"parents":[2147483647,0,0,1,1,3,3,4,4,5,5,6,6,7,7,8,8,9,9,10,10,13,13,14,14,15,15,17,17,19,19,21,21,22,22,23,23,25,25,26,26,27,27,28,28,35,35,36,36,37,37],"right_children":[2,4,-1,6,8,10,-1,14,16,18,20,-1,-1,22,24,26,-1,28,-1,-1,-1,-1,34,36,-1,38,-1,42,44,-1,-1,-1,-1,-1,-1,46,48,-1,-1,-1,-1,-1,-1,-1,-1,-1,-1,-1,-1,-1,-1],"split_conditions":[2.5E0,1.5E0,1.4936377E-1,5E-1,2.5E0,2.5E0,1.4416352E-1,5E-1,2.5E0,1.5E0,1.5E0,1.4772566E-1,1.3366751E-1,1.5E0,1.5E0,1.5E0,-1.5524678E-1,1.5E0,-3.212608E-2,-7.805423E-2,7.532125E-2,-7.9992905E-2,1.5E0,1.5E0,5.0290753E-3,1.5E0,-5.1808268E-2,5E-1,1.5E0,-9.19648E-2,-5.435085E-2,-4.2845514E-2,-1.1065151E-1,5.1971167E-2,-3.4889206E-2,5E-1,1.5E0,-8.662591E-2,-1.5960579E-1,-6.759647E-2,-3.928527E-2,-8.734689E-3,1.0852984E-1,1.3550782E-1,8.2732E-2,-6.458808E-2,-1.1820431E-1,-1.1697968E-1,-1.5703676E-2,-1.0962742E-1,-6.0234733E-2],"split_indices":[7,7,0,7,5,0,4,3,0,8,5,2147483647,2147483647,4,8,0,0,5,0,3,0,5,0,5,0,4,3,0,0,2147483647,2147483647,2147483647,2147483647,0,0,0,0,4,0,2147483647,2147483647,0,0,0,0,0,0,0,0,2147483647,2147483647],"split_type":[0,0,0,0,0,0,0,0,0,0,0,0,0,0,0,0,0,0,0,0,0,0,0,0,0,0,0,0,0,0,0,0,0,0,0,0,0,0,0,0,0,0,0,0,0,0,0,0,0,0,0],"sum_hessian":[2.6015002E2,1.9278271E2,6.736732E1,1.25330055E2,6.745265E1,5.2939697E1,7.239036E1,4.483451E1,2.2618143E1,4.239767E1,1.0542027E1,5.307146E1,1.93189E1,1.3036064E1,3.1798447E1,1.5907184E1,6.7109594E0,3.8539406E1,3.8582628E0,6.20952E0,4.332508E0,6.7130756E0,6.3229885E0,2.8408512E1,3.3899343E0,1.0652837E1,5.254347E0,1.8357147E1,2.0182259E1,3.7316067E0,2.477913E0,3.1437335E0,3.5693421E0,3.6070797E0,2.7159088E0,1.9225382E1,9.183131E0,7.7939887E0,2.8588483E0,2.1296453E0,3.1247013E0,3.666853E0,1.4690294E1,1.4196989E1,5.9852705E0,5.7683096E0,1.3457072E1,4.284051E0,4.8990803E0,3.995914E0,3.7980745E0],"tree_param":{"num_deleted":"10","num_feature":"9","num_nodes":"51","size_leaf_vector":"0"}},{"base_weights":[6.7079157E-1,1.0964311E0,2.4332334E-1,6.916856E-1,1.3836902E0,-7.099014E-1,1.4043034E0,7.725616E-1,-3.9981353E-1,-7.8887796E-1,5.1545914E-2,-4.7076488E-1,8.3934355E-1,-2.542988E-1,-9.517054E-1,-2.9192066E-1,3.956567E-1,6.1252785E-1,1.1051328E0,3.564493E-1,-5.1375806E-1,-8.3486104E-1,-1.130785E0,7.372396E-1,5.785321E-2,2.3592612E-1,1.2585956E0,-8.521531E-1,2.4551079E-2,-9.3432325E-1,-3.5461277E-1,-6.020917E-1,-1.5742954E0,6.090803E-1,1.321304E0,1.0609405E0,1.531567E0,-1.0609741E0,-7.784479E-1,-1.537576E0,6.933905E-1,-2.1159717E-1,-1.4710417E0],"categories":[],"categories_nodes":[],"categories_segments":[],"categories_sizes":[],"default_left":[1,1,1,1,0,1,0,1,0,1,1,0,1,1,1,1,1,1,1,0,1,1,1,1,0,0,1,0,0,1,1,1,0,0,0,1,1,1,1,0,0,0,0],"id":5,"left_children":[1,3,5,7,-1,9,-1,11,-1,13,-1,-1,17,19,21,-1,-1,23,25,-1,27,29,31,33,-1,-1,-1,-1,-1,-1,39,41,-1,-1,-1,-1,-1,-1,-1,-1,-1,-1,-1],"loss_changes":[4.051805E1,1.2883057E1,1.23282036E2,4.139124E0,0E0,3.683794E0,0E0,3.6399498E0,0E0,4.802017E0,7.0225525E-1,0E0,2.4153137E0,2.0912895E0,7.941284E-1,0E0,0E0,1.5485306E0,2.4834156E0,0E0,1.6820233E0,1.2125893E0,3.7705364E0,1.2907162E0,0E0,0E0,7.0023346E-1,0E0,0E0,3.4272003E-1,5.8536754E0,2.5755498E0,0E0,0E0,0E0,0E0,0E0,0E0,0E0,0E0,0E0,0E0,0E0],"parents":[2147483647,0,0,1,1,2,2,3,3,5,5,7,7,9,9,10,10,12,12,13,13,14,14,17,17,18,18,20,20,21,21,22,22,23,23,26,26,29,29,30,30,31,31],"right_children":[2,4,6,8,-1,10,-1,12,-1,14,-1,-1,18,20,22,-1,-1,24,26,-1,28,30,32,34,-1,-1,-1,-1,-1,-1,40,42,-1,-1,-1,-1,-1,-1,-1,-1,-1,-1,-1],"split_conditions":[1.5E0,5E-1,2.5E0,1.5E0,1.3836902E-1,1.5E0,1.4043035E-1,5E-1,-3.9981354E-2,5E-1,5.1545915E-3,-4.707649E-2,1.5E0,5E-1,1.5E0,-2.9192066E-2,3.956567E-2,1.5E0,5E-1,3.564493E-2,2.5E0,2.5E0,1.5E0,2.5E0,5.7853214E-3,2.3592612E-2,1.2585956E-1,-8.5215315E-2,2.4551079E-3,-9.343233E-2,1.5E0,2.5E0,-1.5742955E-1,6.090803E-2,1.321304E-1,1.06094055E-1,1.531567E-1,-1.06097415E-1,-7.784479E-2,-1.537576E-1,6.933905E-2,-2.1159718E-2,-1.4710417E-1],"split_indices":[6,6,6,8,0,8,0,8,0,5,5,0,5,3,4,2147483647,2147483647,4,3,0,3,3,3,3,0,0,3,0,0,4,5,5,0,0,0,2147483647,2147483647,2147483647,2147483647,0,0,0,0],"split_type":[0,0,0,0,0,0,0,0,0,0,0,0,0,0,0,0,0,0,0,0,0,0,0,0,0,0,0,0,0,0,0,0,0,0,0,0,0,0,0,0,0,0,0],"sum_hessian":[2.2273766E2,1.1152914E2,1.1120852E2,4.643849E1,6.5090645E1,6.1089626E1,5.0118893E1,4.326215E1,3.1763427E0,5.534563E1,5.743997E0,2.174424E0,4.1087727E1,1.2981667E1,4.2363964E1,2.8822799E0,2.8617175E0,2.2347538E1,1.8740189E1,3.8594415E0,9.122225E0,2.5979362E1,1.6384602E1,1.8218433E1,4.1291037E0,2.850247E0,1.5889941E1,5.5653806E0,3.556844E0,2.1443699E1,4.535664E0,7.582056E0,8.802545E0,1.5107688E1,3.1107461E0,9.499871E0,6.39007E0,1.1510553E1,9.933145E0,2.1086977E0,2.4269664E0,5.3170123E0,2.2650437E0],"tree_param":{"num_deleted":"6","num_feature":"9","num_nodes":"43","size_leaf_vector":"0"}},{"base_weights":[6.267898E-1,3.9130366E-1,1.3687158E0,1.0152413E0,-8.131329E-1,5.5103713E-1,1.3453866E0,-9.777603E-1,-5.6412923E-1,8.946799E-2,7.145493E-1,-5.965871E-1,-1.1120862E0,-7.0156924E-2,-7.6717484E-1,-8.323683E-1,8.456979E-1,5.705641E-1,1.1185412E0,-2.9215115E-1,-1.0131351E0,-1.3649982E0,-8.6543506E-1,-5.1713836E-1,9.354118E-1,-5.958272E-1,-1.4625838E0,-4.6415174E-1,-1.4135804E0,1.271138E0,6.366203E-1,3.0179814E-1,7.9312E-1,5.8650625E-1,1.316941E0,-1.0178293E0,7.0118064E-1,-1.44711E0,-5.3212345E-1,-1.5064377E0,-1.0408795E0,-2.7791628E-1,-1.0338967E0,-3.493072E-1,-7.2061914E-1,-9.9079955E-1,-1.8082455E-1,4.950081E-1,7.6772076E-1,5.1023173E-1,-3.8317892E-1,9.610015E-1,-1.11654215E-1,1.0011071E0,1.4296933E0,-1.4730891E0,-6.021359E-1,-3.840764E-1,-1.5530084E0,-1.4436519E0,-2.6928475E-1,1.3465445E-1,-7.3183995E-1],"categories":[],"categories_nodes":[],"categories_segments":[],"categories_sizes":[],"default_left":[1,1,0,1,1,1,0,1,1,1,1,1,1,1,1,1,1,1,1,1,1,1,1,1,0,1,0,0,0,1,1,1,1,1,1,0,0,1,1,1,1,0,1,1,1,1,1,1,1,0,0,0,0,1,1,1,1,0,0,0,0,0,0],"id":6,"left_children":[1,3,-1,5,7,9,-1,11,13,15,17,19,21,23,25,27,-1,31,-1,35,-1,-1,41,-1,-1,45,-1,-1,-1,-1,-1,49,51,-1,-1,-1,-1,-1,-1,-1,-1,-1,57,-1,-1,59,61,-1,-1,-1,-1,-1,-1,-1,-1,-1,-1,-1,-1,-1,-1,-1,-1],"loss_changes":[4.15618E1,1.3606154E2,0E0,1.8200218E1,2.4783478E0,3.7467022E0,0E0,1.8316383E0,2.4854941E0,9.218346E0,2.071312E0,1.2226667E0,1.5844994E0,3.3495169E0,2.0088215E0,1.2107816E0,5.6470823E-1,1.6069403E0,9.298229E-1,4.2852297E0,7.849512E-1,4.5303726E-1,1.365943E0,1.5066338E-1,0E0,2.3230157E0,0E0,0E0,0E0,0E0,5.606866E-2,1.8058908E0,2.2668705E0,0E0,1.0148144E-1,0E0,0E0,0E0,0E0,0E0,7.390375E-1,0E0,3.6221142E0,0E0,0E0,2.3446798E0,1.241718E0,0E0,0E0,0E0,0E0,0E0,0E0,0E0,0E0,0E0,0E0,0E0,0E0,0E0,0E0,0E0,0E0],"parents":[2147483647,0,0,1,1,3,3,4,4,5,5,7,7,8,8,9,9,10,10,11,11,12,12,13,13,14,14,15,15,16,16,17,17,18,18,19,19,20,20,21,21,22,22,23,23,25,25,30,30,31,31,32,32,34,34,40,40,42,42,45,45,46,46],"right_children":[2,4,-1,6,8,10,-1,12,14,16,18,20,22,24,26,28,-1,32,-1,36,-1,-1,42,-1,-1,46,-1,-1,-1,-1,-1,50,52,-1,-1,-1,-1,-1,-1,-1,-1,-1,58,-1,-1,60,62,-1,-1,-1,-1,-1,-1,-1,-1,-1,-1,-1,-1,-1,-1,-1,-1],"split_conditions":[2.5E0,1.5E0,1.3687158E-1,5E-1,1.5E0,5E-1,1.3453867E-1,5E-1,5E-1,2.5E0,2.5E0,2.5E0,1.5E0,1.5E0,2.5E0,1.5E0,8.456979E-2,2.5E0,1.1185413E-1,1E0,-1.0131351E-1,-1.3649982E-1,5E-1,-5.1713835E-2,9.354118E-2,1.5E0,-1.4625838E-1,-4.6415176E-2,-1.4135805E-1,1.271138E-1,6.366203E-2,1E0,2.5E0,5.8650624E-2,1.3169411E-1,-1.0178293E-1,7.011806E-2,-1.44711E-1,-5.3212345E-2,-1.5064377E-1,-1.0408795E-1,-2.7791629E-2,1.5E0,-3.493072E-2,-7.206192E-2,2.5E0,2.5E0,4.950081E-2,7.677208E-2,5.1023174E-2,-3.8317893E-2,9.610015E-2,-1.1165421E-2,1.0011071E-1,1.4296934E-1,-1.4730892E-1,-6.0213592E-2,-3.840764E-2,-1.5530084E-1,-1.4436519E-1,-2.6928475E-2,1.3465445E-2,-7.3184E-2],"split_indices":[6,6,0,6,4,5,0,2,3,1,3,5,3,2,2,3,3,1,5,1,4,2,5,5,0,2,0,0,0,2147483647,2147483647,1,2,2147483647,2147483647,0,0,2147483647,2147483647,2147483647,2147483647,0,2,2147483647,2147483647,3,3,2147483647,2147483647,0,0,0,0,2147483647,2147483647,2147483647,2147483647,0,0,0,0,0,0],"split_type":[0,0,0,0,0,0,0,0,0,0,0,0,0,0,0,0,0,0,0,0,0,0,0,0,0,0,0,0,0,0,0,0,0,0,0,0,0,0,0,0,0,0,0,0,0,0,0,0,0,0,0,0,0,0,0,0,0,0,0,0,0,0,0],"sum_hessian":[2.3809224E2,1.8084503E2,5.7247204E1,1.19141525E2,6.170351E1,4.9628204E1,6.951332E1,3.6968987E1,2.4734526E1,1.30224905E1,3.6605717E1,9.77496E0,2.7194027E1,7.2445154E0,1.749001E1,5.864121E0,7.1583695E0,2.7165127E1,9.440589E0,5.745772E0,4.029187E0,1.3202742E1,1.3991286E1,5.0488453E0,2.19567E0,1.4181413E1,3.308597E0,3.699946E0,2.164175E0,2.1913478E0,4.967022E0,1.2411815E1,1.4753311E1,2.6716988E0,6.7688904E0,3.3187757E0,2.4269965E0,2.0125718E0,2.0166154E0,8.937709E0,4.265033E0,3.176845E0,1.0814441E1,2.9156668E0,2.1331785E0,7.194968E0,6.9864445E0,2.6173697E0,2.349652E0,9.535686E0,2.8761292E0,1.2439028E1,2.314284E0,2.0406482E0,4.7282424E0,2.0297544E0,2.2352784E0,4.879858E0,5.9345827E0,4.358996E0,2.835972E0,4.490825E0,2.4956195E0],"tree_param":{"num_deleted":"16","num_feature":"9","num_nodes":"63","size_leaf_vector":"0"}},{"base_weights":[5.8959514E-1,3.6770192E-1,1.3021672E0,9.903536E-1,-7.3461294E-1,6.417798E-1,1.2760953E0,-4.334808E-1,-8.503855E-1,3.7408662E-1,9.15662E-1,-1.00886E0,-1.3352197E-3,-6.756581E-1,-1.1754776E0,2.2931889E-2,6.916019E-1,1.1511537E0,6.3607407E-1,-1.5491325E0,-1.8291222E-1,8.058748E-1,-5.264825E-1,-8.9043045E-1,-5.660844E-1,-9.291276E-1,-1.4221584E0,-1.3297611E0,3.3620504E-1,1.1030179E0,2.9995692E-1,1.0407169E0,1.4573288E0,1.1066452E0,1.4377223E-1,-2.3375991E-1,-7.978043E-1,-1.4859861E0,-5.157174E-1,-7.825813E-1,-1.2334353E-1,-4.0156877E-1,-1.3833678E0,5.9190774E-1,-3.9531246E-1,7.71789E-1,1.27879E0,-5.99351E-1,7.1929955E-1,7.238427E-1,1.2523147E0,1.4314011E0,5.516172E-1,-1.9048452E-1,6.222725E-1,-7.3323035E-1,-3.2582018E-1,-1.4235561E0,-5.388908E-1,4.9426788E-1,-5.6532013E-1],"categories":[],"categories_nodes":[],"categories_segments":[],"categories_sizes":[],"default_left":[1,1,0,1,1,1,0,1,1,1,1,1,1,1,1,1,1,1,1,0,0,0,1,1,1,1,0,0,1,1,1,1,1,1,1,1,1,0,1,1,1,0,0,0,0,1,1,0,0,1,1,1,1,1,1,1,1,0,0,0,0],"id":7,"left_children":[1,3,-1,5,7,9,-1,11,13,15,17,19,21,23,25,27,29,-1,33,-1,-1,-1,-1,37,39,41,-1,-1,43,-1,47,-1,-1,-1,-1,-1,-1,-1,-1,57,59,-1,-1,-1,-1,-1,-1,-1,-1,-1,-1,-1,-1,-1,-1,-1,-1,-1,-1,-1,-1],"loss_changes":[3.5100395E1,1.1651341E2,0E0,1.0720444E1,2.1000557E0,3.5624409E0,0E0,4.282902E0,2.4295273E0,2.7833807E0,1.5187511E0,3.2685156E0,4.254851E0,6.312151E-1,7.979889E-1,5.1146483E0,2.0799356E0,2.8793907E-1,2.5968065E0,0E0,0E0,0E0,4.6431184E-1,2.0680385E0,1.8550181E0,1.8487196E0,0E0,0E0,1.8554074E0,2.7148008E-1,2.628522E0,5.734501E-1,0E0,9.577193E-1,9.118005E-1,0E0,0E0,0E0,2.2609031E-1,1.9611044E0,1.8042599E0,0E0,0E0,0E0,0E0,0E0,0E0,0E0,0E0,0E0,0E0,0E0,0E0,0E0,0E0,0E0,0E0,0E0,0E0,0E0,0E0],"parents":[2147483647,0,0,1,1,3,3,4,4,5,5,7,7,8,8,9,9,10,10,11,11,12,12,13,13,14,14,15,15,16,16,17,17,18,18,22,22,23,23,24,24,25,25,28,28,29,29,30,30,31,31,33,33,34,34,38,38,39,39,40,40],"right_children":[2,4,-1,6,8,10,-1,12,14,16,18,20,22,24,26,28,30,-1,34,-1,-1,-1,-1,38,40,42,-1,-1,44,-1,48,-1,-1,-1,-1,-1,-1,-1,-1,58,60,-1,-1,-1,-1,-1,-1,-1,-1,-1,-1,-1,-1,-1,-1,-1,-1,-1,-1,-1,-1],"split_conditions":[2.5E0,1.5E0,1.3021672E-1,5E-1,5E-1,1.5E0,1.2760954E-1,1E0,2.5E0,2.5E0,1.5E0,1.5E0,5E-1,1.5E0,1.5E0,5E-1,1.5E0,1.1511537E-1,2.5E0,-1.5491325E-1,-1.8291222E-2,8.0587484E-2,-5.2648254E-2,1.5E0,1.5E0,2.5E0,-1.4221583E-1,-1.3297611E-1,2.5E0,1.1030179E-1,5E-1,1.0407169E-1,1.4573288E-1,1.10664524E-1,1.4377223E-2,-2.3375992E-2,-7.978043E-2,-1.4859861E-1,-5.1571738E-2,5E-1,1.5E0,-4.015688E-2,-1.3833678E-1,5.9190776E-2,-3.9531246E-2,7.71789E-2,1.2787901E-1,-5.99351E-2,7.1929954E-2,7.238427E-2,1.2523147E-1,1.4314012E-1,5.5161722E-2,-1.9048452E-2,6.222725E-2,-7.3323034E-2,-3.258202E-2,-1.423556E-1,-5.3889077E-2,4.942679E-2,-5.6532014E-2],"split_indices":[7,7,0,7,0,5,0,1,5,1,0,2,2,0,2,0,0,4,5,0,0,0,2,2,5,0,0,0,0,2,4,2147483647,2147483647,0,1,2147483647,2147483647,0,1,4,2,0,0,0,0,2147483647,2147483647,0,0,2147483647,2147483647,2147483647,2147483647,2147483647,2147483647,2147483647,2147483647,0,0,0,0],"split_type":[0,0,0,0,0,0,0,0,0,0,0,0,0,0,0,0,0,0,0,0,0,0,0,0,0,0,0,0,0,0,0,0,0,0,0,0,0,0,0,0,0,0,0,0,0,0,0,0,0,0,0,0,0,0,0,0,0,0,0,0,0],"sum_hessian":[2.2219583E2,1.6954997E2,5.2645855E1,1.0835494E2,6.119503E1,4.8957153E1,5.9397793E1,1.7125326E1,4.4069706E1,2.487796E1,2.4079193E1,7.2881207E0,9.837205E0,2.8864E1,1.5205705E1,1.1864113E1,1.3013846E1,1.2901102E1,1.117809E1,4.3530965E0,2.935024E0,3.8562546E0,5.9809504E0,9.510367E0,1.9353632E1,7.8464365E0,7.359268E0,2.1699474E0,9.694165E0,6.2581425E0,6.7557044E0,9.804531E0,3.0965707E0,5.651379E0,5.5267115E0,2.9665577E0,3.0143929E0,3.5583255E0,5.952042E0,1.2946252E1,6.4073796E0,3.7174084E0,4.1290283E0,7.1973934E0,2.4967718E0,2.3565292E0,3.901613E0,2.1347232E0,4.620981E0,4.102699E0,5.7018323E0,3.4656653E0,2.1857135E0,3.2892175E0,2.237494E0,2.6409328E0,3.3111095E0,3.4328156E0,9.513436E0,2.6677186E0,3.739661E0],"tree_param":{"num_deleted":"14","num_feature":"9","num_nodes":"61","size_leaf_vector":"0"}},{"base_weights":[5.680194E-1,3.5560697E-1,1.2615056E0,9.051503E-1,-5.472038E-1,5.364083E-1,1.2144332E0,-7.6008546E-1,-4.4860098E-1,3.038501E-1,7.9109925E-1,1.2629539E0,1.0382091E0,-2.546955E-1,-9.0391624E-1,-6.654157E-1,-2.3761821E-1,1.1832429E-1,9.1314375E-1,2.2485541E-1,9.9733895E-1,4.5614254E-1,1.2747183E0,-1.3902969E0,-6.825833E-1,-1.1998347E0,-2.5690117E-1,-7.7019805E-1,-7.262962E-2,3.2225728E-1,-4.0095672E-1,1.2669973E0,4.6665996E-1,-6.1218244E-1,7.019882E-1,8.355644E-1,1.2481103E0,1.22685514E-1,-9.4917554E-1,-5.410891E-1,-1.3975013E0,-4.7399443E-2,-8.463556E-1,-1.5351452E0,-2.1389347E-1,1.0848096E-1,-7.9096323E-1,-1.8039563E-1,7.439405E-1,-8.2518905E-1,2.3765478E-1,6.9415516E-1,1.0796653E0,-1.105984E0,-5.701596E-1,-5.8526707E-1,3.842334E-1,3.1382018E-1,-1.4907978E-1],"categories":[],"categories_nodes":[],"categories_segments":[],"categories_sizes":[],"default_left":[1,1,0,1,1,1,1,1,1,1,1,0,1,0,1,1,1,1,1,1,1,0,0,0,1,1,1,1,1,1,1,1,1,0,0,1,1,0,1,0,0,1,0,0,0,1,0,0,0,0,0,1,1,1,1,0,0,1,1],"id":8,"left_children":[1,3,-1,5,7,9,11,13,15,17,19,-1,21,-1,23,25,27,29,-1,33,-1,-1,-1,-1,37,39,41,43,45,47,49,-1,-1,-1,-1,-1,-1,-1,-1,-1,-1,55,-1,-1,-1,-1,-1,-1,-1,-1,-1,-1,-1,-1,-1,-1,-1,-1,-1],"loss_changes":[3.1325523E1,8.100194E1,0E0,1.15065E1,1.2631588E0,2.7279701E0,3.4003448E-1,1.388608E0,1.9274817E0,2.752899E0,2.5600586E0,0E0,1.6568909E0,0E0,1.5282946E0,4.5310955E0,1.8999448E0,2.0098495E0,8.4014654E-1,2.4524581E0,5.5213165E-1,0E0,0E0,0E0,2.2784371E0,1.0996237E0,1.4742053E0,2.1454146E0,2.176952E0,2.8950446E0,1.4722512E0,0E0,0E0,0E0,0E0,2.7500486E-1,0E0,0E0,4.090891E-1,0E0,0E0,2.097382E0,0E0,0E0,0E0,7.133205E-1,0E0,0E0,0E0,0E0,0E0,0E0,0E0,0E0,0E0,0E0,0E0,0E0,0E0],"parents":[2147483647,0,0,1,1,3,3,4,4,5,5,6,6,7,7,8,8,9,9,10,10,12,12,14,14,15,15,16,16,17,17,18,18,19,19,20,20,24,24,25,25,26,26,27,27,28,28,29,29,30,30,35,35,38,38,41,41,45,45],"right_children":[2,4,-1,6,8,10,12,14,16,18,20,-1,22,-1,24,26,28,30,-1,34,-1,-1,-1,-1,38,40,42,44,46,48,50,-1,-1,-1,-1,-1,-1,-1,-1,-1,-1,56,-1,-1,-1,-1,-1,-1,-1,-1,-1,-1,-1,-1,-1,-1,-1,-1,-1],"split_conditions":[2.5E0,1.5E0,1.2615056E-1,5E-1,5E-1,1.5E0,1.5E0,5E-1,1.5E0,2.5E0,5E-1,1.2629539E-1,5E-1,-2.546955E-2,5E-1,1.5E0,5E-1,1.5E0,9.1314375E-2,1.5E0,9.97339E-2,4.5614254E-2,1.2747183E-1,-1.390297E-1,1.5E0,5E-1,2.5E0,1.5E0,2.5E0,1.5E0,1.5E0,1.2669973E-1,4.6665996E-2,-6.1218243E-2,7.019883E-2,8.3556436E-2,1.2481103E-1,1.2268552E-2,-9.491756E-2,-5.4108914E-2,-1.3975014E-1,5E-1,-8.463556E-2,-1.5351452E-1,-2.1389348E-2,1.0848097E-2,-7.9096325E-2,-1.8039564E-2,7.439405E-2,-8.2518905E-2,2.3765478E-2,6.941552E-2,1.07966535E-1,-1.105984E-1,-5.7015963E-2,-5.8526706E-2,3.842334E-2,3.138202E-2,-1.49079785E-2],"split_indices":[6,6,0,6,4,5,4,2,3,2,3,0,2,0,3,4,5,4,5,2,2,0,0,0,3,2,2,2,2,3,2,2147483647,2147483647,0,0,2147483647,2147483647,0,2,0,0,2,0,0,0,2,0,0,0,0,0,2147483647,2147483647,2147483647,2147483647,0,0,2147483647,2147483647],"split_type":[0,0,0,0,0,0,0,0,0,0,0,0,0,0,0,0,0,0,0,0,0,0,0,0,0,0,0,0,0,0,0,0,0,0,0,0,0,0,0,0,0,0,0,0,0,0,0,0,0,0,0,0,0,0,0,0,0,0,0],"sum_hessian":[2.1286195E2,1.6306653E2,4.979543E1,1.01365074E2,6.1701454E1,4.6362682E1,5.500239E1,1.9319702E1,4.2381752E1,2.434896E1,2.2013721E1,4.264426E1,1.2358132E1,4.3415446E0,1.4978158E1,2.0795763E1,2.1585987E1,1.8757E1,5.591961E0,5.933088E0,1.6080635E1,3.6552222E0,8.702909E0,4.5191493E0,1.0459009E1,8.925591E0,1.1870172E1,5.0187488E0,1.6567238E1,1.3495115E1,5.2618847E0,3.0170631E0,2.5748975E0,2.1438355E0,3.7892523E0,1.0038146E1,6.042488E0,2.6147807E0,7.8442287E0,2.1463583E0,6.779234E0,8.837295E0,3.0328772E0,2.0390275E0,2.979721E0,1.329909E1,3.2681482E0,6.1825914E0,7.312524E0,3.1440578E0,2.117827E0,6.5994277E0,3.4387183E0,5.4129505E0,2.4312782E0,3.918619E0,4.9186754E0,7.3875523E0,5.911538E0],"tree_param":{"num_deleted":"10","num_feature":"9","num_nodes":"59","size_leaf_vector":"0"}},{"base_weights":[5.641784E-1,3.7299E-1,1.2261956E0,8.971598E-1,-6.0872656E-1,5.9223866E-1,1.1802933E0,-1.07552074E-1,-8.1183714E-1,2.4884826E-1,7.1222883E-1,1.0510234E0,1.2264084E0,2.0798773E-1,-7.1840626E-1,-8.8747066E-1,-2.0997825E-1,5.8575142E-2,5.072244E-1,7.6638925E-1,5.1038885E-1,7.530158E-1,1.245041E0,-7.318233E-2,3.6709058E-1,-1.1204126E0,-7.427256E-1,-7.0007616E-1,3.179283E-1,-1.0897721E-1,3.315692E-1,1.8599313E-1,6.9134647E-1,8.928774E-1,5.4605937E-1,-5.9369784E-2,1.126916E0,1.208759E0,4.506206E-1,7.5823694E-1,2.1869762E-2,-1.3886415E0,-8.119531E-1,3.5858874E-3,-1.046611E0,2.7061094E-2,-2.7350524E-1,7.809024E-1,1.058163E0,8.1634533E-1,3.4457093E-1,-9.708114E-1,-5.10757E-1,-6.917781E-1,-1.3968247E0],"categories":[],"categories_nodes":[],"categories_segments":[],"categories_sizes":[],"default_left":[1,1,0,1,1,1,1,1,1,1,1,1,1,1,0,1,1,1,1,1,1,1,1,1,1,1,1,0,0,1,1,1,1,1,1,0,0,1,1,1,1,1,1,0,1,1,1,1,1,1,1,1,1,0,0],"id":9,"left_children":[1,3,-1,5,7,9,-1,13,15,-1,19,-1,-1,-1,-1,25,27,-1,-1,-1,35,-1,-1,-1,-1,-1,43,-1,-1,-1,-1,-1,-1,-1,-1,-1,-1,-1,-1,-1,-1,-1,-1,-1,53,-1,-1,-1,-1,-1,-1,-1,-1,-1,-1],"loss_changes":[2.6181541E1,8.286484E1,0E0,8.990898E0,5.6993313E0,2.0726128E0,1.9491577E-1,3.1542053E0,1.7970943E0,6.50418E-1,3.7127876E-1,7.724705E-1,0E0,4.865798E-1,0E0,1.110506E0,1.2082524E0,3.588839E-1,3.1974673E-1,7.70586E-1,2.9017982E0,7.945645E-1,0E0,0E0,9.333809E-1,9.935837E-1,5.019845E0,0E0,0E0,1.10150084E-1,0E0,0E0,0E0,2.6013088E-1,5.698273E-1,0E0,0E0,0E0,0E0,0E0,0E0,0E0,2.5951862E-1,0E0,1.8579063E0,0E0,0E0,0E0,0E0,0E0,0E0,0E0,0E0,0E0,0E0],"parents":[2147483647,0,0,1,1,3,3,4,4,5,5,6,6,7,7,8,8,9,9,10,10,11,11,13,13,15,15,16,16,17,17,18,18,19,19,20,20,21,21,24,24,25,25,26,26,29,29,33,33,34,34,42,42,44,44],"right_children":[2,4,-1,6,8,10,-1,14,16,-1,20,-1,-1,-1,-1,26,28,-1,-1,-1,36,-1,-1,-1,-1,-1,44,-1,-1,-1,-1,-1,-1,-1,-1,-1,-1,-1,-1,-1,-1,-1,-1,-1,54,-1,-1,-1,-1,-1,-1,-1,-1,-1,-1],"split_conditions":[2.5E0,1.5E0,1.2261956E-1,5E-1,5E-1,5E-1,1.1802933E-1,2.5E0,1.5E0,2.4884826E-2,2.5E0,1.0510234E-1,1.2264084E-1,2.0798773E-2,-7.184063E-2,1.5E0,1E0,5.857514E-3,5.072244E-2,7.663893E-2,2.5E0,7.530158E-2,1.24504104E-1,-7.318233E-3,3.670906E-2,-1.1204126E-1,2.5E0,-7.0007615E-2,3.179283E-2,-1.0897721E-2,3.315692E-2,1.8599315E-2,6.9134645E-2,8.928774E-2,5.460594E-2,-5.9369784E-3,1.126916E-1,1.20875895E-1,4.506206E-2,7.5823694E-2,2.1869761E-3,-1.3886414E-1,-8.119532E-2,3.5858873E-4,1.5E0,2.7061093E-3,-2.7350524E-2,7.809024E-2,1.05816305E-1,8.163454E-2,3.4457095E-2,-9.708115E-2,-5.1075704E-2,-6.9177814E-2,-1.3968247E-1],"split_indices":[6,6,0,6,2,5,2,5,8,1,2,2147483647,2147483647,5,0,1,1,2147483647,2147483647,5,5,2147483647,2147483647,2147483647,2147483647,5,1,0,0,2147483647,2147483647,2147483647,2147483647,2147483647,2147483647,0,0,2147483647,2147483647,2147483647,2147483647,2147483647,2147483647,0,5,2147483647,2147483647,2147483647,2147483647,2147483647,2147483647,2147483647,2147483647,0,0],"split_type":[0,0,0,0,0,0,0,0,0,0,0,0,0,0,0,0,0,0,0,0,0,0,0,0,0,0,0,0,0,0,0,0,0,0,0,0,0,0,0,0,0,0,0,0,0,0,0,0,0,0,0,0,0,0,0],"sum_hessian":[2.0711552E2,1.6082588E2,4.6289646E1,1.04851135E2,5.597475E1,5.063204E1,5.4219093E1,1.618681E1,3.978794E1,1.3190524E1,3.7441517E1,1.4881709E1,3.9337383E1,1.0716896E1,5.469915E0,3.530396E1,4.4839826E0,7.6670394E0,5.5234847E0,2.9299725E1,8.14179E0,6.060698E0,8.821011E0,3.892315E0,6.8245807E0,1.3271588E1,2.203237E1,2.3083463E0,2.1756363E0,4.788276E0,2.8787632E0,2.0856833E0,3.4378011E0,1.841989E1,1.0879835E1,4.278354E0,3.8634365E0,2.2978518E0,3.7628462E0,3.1433852E0,3.6811955E0,6.9114084E0,6.36018E0,6.403888E0,1.5628481E1,2.666807E0,2.1214693E0,1.1322062E1,7.0978284E0,4.5163007E0,6.3635345E0,4.0184374E0,2.3417425E0,7.910837E0,7.7176437E0],"tree_param":{"num_deleted":"28","num_feature":"9","num_nodes":"55","size_leaf_vector":"0"}},{"base_weights":[4.8737186E-1,2.7552858E-1,1.2186357E0,7.4168336E-1,-5.301986E-1,3.365552E-1,1.158811E0,-7.339863E-1,-3.2727423E-1,-1.2073668E0,4.1334155E-1,1.0951238E0,1.2220715E0,-5.844543E-1,-1.2038687E0,-4.205294E-2,-8.0769575E-1,5.1756066E-1,-4.6485668E-1,9.8108983E-1,1.216541E0,-4.8780537E-1,-7.718665E-1,-1.520559E0,-8.370894E-1,6.1225843E-1,-2.932386E-1,3.1818873E-1,-1.1300236E0,2.977174E-1,7.756865E-1,2.1920377E-1,-1.0099868E0,7.085939E-1,1.0972738E0,-1.255992E-1,-1.0097773E0,-1.3402752E0,-1.6940106E-1,-1.444515E0,-1.0149025E-2,-8.568613E-1,-1.3371294E0,7.620987E-1,1.2601711E-1,3.3607826E-1,1.0576311E0,8.046255E-1,1.2065034E0,-4.2965633E-1,1.0298751E-1,-5.823422E-1,-1.3186423E0,8.551242E-1,-4.7868258E-1],"categories":[],"categories_nodes":[],"categories_segments":[],"categories_sizes":[],"default_left":[1,1,0,1,1,1,1,1,1,0,1,1,1,1,1,1,1,1,1,1,1,1,1,1,1,0,1,0,1,1,1,0,0,1,1,1,1,0,0,0,1,1,1,0,0,0,0,1,1,1,1,1,1,0,0],"id":10,"left_children":[1,3,-1,5,7,9,-1,13,15,-1,17,-1,-1,21,-1,25,27,29,31,-1,-1,35,37,-1,-1,-1,39,-1,-1,43,45,-1,-1,-1,-1,-1,-1,-1,-1,-1,53,-1,-1,-1,-1,-1,-1,-1,-1,-1,-1,-1,-1,-1,-1],"loss_changes":[2.8930973E1,5.45393E1,0E0,1.5501949E1,2.1776333E0,5.597409E0,4.8561096E-2,1.7904005E0,3.676714E0,0E0,4.110768E0,2.063179E-1,0E0,3.297577E-1,6.0436344E-1,2.8049877E0,3.664775E0,2.244627E0,1.8081467E0,3.2262325E-1,0E0,2.568834E0,2.2818732E0,0E0,0E0,0E0,4.014164E0,0E0,3.264637E-1,1.7241043E0,2.2349138E0,0E0,0E0,0E0,1.805048E-1,5.726173E-1,6.5979433E-1,0E0,0E0,0E0,4.0910172E0,0E0,0E0,0E0,0E0,0E0,0E0,0E0,0E0,0E0,0E0,0E0,0E0,0E0,0E0],"parents":[2147483647,0,0,1,1,3,3,4,4,5,5,6,6,7,7,8,8,10,10,11,11,13,13,14,14,15,15,16,16,17,17,18,18,19,19,21,21,22,22,26,26,28,28,29,29,30,30,34,34,35,35,36,36,40,40],"right_children":[2,4,-1,6,8,10,-1,14,16,-1,18,-1,-1,22,-1,26,28,30,32,-1,-1,36,38,-1,-1,-1,40,-1,-1,44,46,-1,-1,-1,-1,-1,-1,-1,-1,-1,54,-1,-1,-1,-1,-1,-1,-1,-1,-1,-1,-1,-1,-1,-1],"split_conditions":[2.5E0,1.5E0,1.2186357E-1,5E-1,1.5E0,5E-1,1.158811E-1,2.5E0,2.5E0,-1.2073668E-1,1.5E0,1.0951238E-1,1.2220716E-1,2.5E0,-1.20386876E-1,5E-1,5E-1,1.5E0,5E-1,9.8108985E-2,1.2165411E-1,5E-1,5E-1,-1.520559E-1,-8.370894E-2,6.1225843E-2,5E-1,3.1818874E-2,-1.1300236E-1,5E-1,1.5E0,2.1920377E-2,-1.0099868E-1,7.0859395E-2,1.0972738E-1,-1.2559921E-2,-1.00977734E-1,-1.3402753E-1,-1.6940108E-2,-1.444515E-1,1.5E0,-8.568613E-2,-1.3371293E-1,7.620987E-2,1.2601711E-2,3.3607826E-2,1.05763115E-1,8.046255E-2,1.2065034E-1,-4.2965632E-2,1.0298751E-2,-5.8234222E-2,-1.3186423E-1,8.551242E-2,-4.786826E-2],"split_indices":[6,6,0,6,2,8,5,3,1,0,8,2147483647,2147483647,5,2,5,3,5,3,2147483647,2147483647,2,2,2147483647,2147483647,0,3,0,5,3,3,0,0,2147483647,2147483647,1,1,0,0,0,3,2147483647,2147483647,0,0,0,0,2147483647,2147483647,2147483647,2147483647,2147483647,2147483647,0,0],"split_type":[0,0,0,0,0,0,0,0,0,0,0,0,0,0,0,0,0,0,0,0,0,0,0,0,0,0,0,0,0,0,0,0,0,0,0,0,0,0,0,0,0,0,0,0,0,0,0,0,0,0,0,0,0,0,0],"sum_hessian":[1.8687268E2,1.4500359E2,4.1869095E1,9.186366E1,5.3139923E1,4.6693787E1,4.5169876E1,2.6382988E1,2.6756935E1,2.142512E0,4.4551273E1,2.3421535E1,2.174834E1,2.0184122E1,6.198866E0,1.6857542E1,9.899394E0,3.986179E1,4.689483E0,1.2546248E1,1.0875288E1,1.3554379E1,6.629742E0,3.1577675E0,3.0410986E0,4.636421E0,1.222112E1,2.2035882E0,7.6958055E0,2.164354E1,1.821825E1,2.1062405E0,2.5832427E0,3.962517E0,8.583732E0,8.075027E0,5.479352E0,3.348276E0,3.2814665E0,2.3310156E0,9.890104E0,3.5401947E0,4.1556106E0,5.7495174E0,1.5894023E1,7.2043786E0,1.1013871E1,2.5604367E0,6.023295E0,3.4276886E0,4.6473393E0,2.4195306E0,3.0598211E0,3.4451668E0,6.4449377E0],"tree_param":{"num_deleted":"16","num_feature":"9","num_nodes":"55","size_leaf_vector":"0"}},{"base_weights":[5.1629573E-1,3.3821598E-1,1.16672E0,7.520923E-1,-3.3545628E-1,3.081656E-1,1.1556497E0,8.045123E-2,-5.211387E-1,6.135544E-1,1.5179713E-2,1.0272568E0,1.1981666E0,-5.14444E-1,4.599377E-1,-6.69912E-1,-3.737933E-1,2.8054759E-2,8.790591E-1,1.940887E-1,-1.5115327E0,8.673563E-1,1.1844158E0,1.3275006E-1,-1.3100697E0,-2.0959202E-2,1.3940555E0,-8.6078906E-1,6.324886E-2,4.774678E-1,-6.8184245E-1,-3.7478963E-1,4.972506E-1,3.9674017E-1,1.1614819E0,-5.621621E-1,4.7846842E-1,1.1580509E0,6.4113146E-1,-8.325958E-1,8.5388154E-1,-1.3647617E0,-6.580713E-1,-3.7813726E-1,-1.2845423E0,-2.1924624E-1,1.0795844E0,8.78578E-1,1.3549359E0,-1.3299484E0,1.3260363E-1,8.140602E-1,-1.5629266E-1,-8.8358796E-1,-2.0977387E-1,3.6096892E-1,-7.6901084E-1],"categories":[],"categories_nodes":[],"categories_segments":[],"categories_sizes":[],"default_left":[1,1,0,1,1,1,1,1,1,1,1,1,1,1,1,1,1,1,1,1,0,1,1,0,0,1,0,1,0,0,1,0,0,1,1,1,1,1,1,0,0,0,1,1,0,0,0,1,1,0,0,0,0,0,0,0,0],"id":11,"left_children":[1,3,-1,5,7,9,-1,13,15,17,19,-1,-1,23,25,27,29,31,33,35,-1,-1,-1,-1,-1,39,-1,41,-1,-1,43,-1,-1,45,-1,49,51,-1,-1,-1,-1,-1,53,55,-1,-1,-1,-1,-1,-1,-1,-1,-1,-1,-1,-1,-1],"loss_changes":[2.0498772E1,3.8877113E1,0E0,1.54334755E1,4.104802E0,3.6902E0,1.23622894E-1,3.7430992E0,7.799597E-1,3.137156E0,5.808153E0,1.974144E-1,0E0,3.3457804E0,4.545255E0,2.5449467E0,4.930004E0,1.2291572E0,1.846283E0,4.1187143E0,0E0,3.396511E-1,0E0,0E0,0E0,4.8808126E0,0E0,1.3818579E0,0E0,0E0,2.4691381E0,0E0,0E0,2.2455373E0,3.5763836E-1,2.8156905E0,2.9696195E0,0E0,0E0,0E0,0E0,0E0,1.0395546E0,2.710955E0,0E0,0E0,0E0,0E0,0E0,0E0,0E0,0E0,0E0,0E0,0E0,0E0,0E0],"parents":[2147483647,0,0,1,1,3,3,4,4,5,5,6,6,7,7,8,8,9,9,10,10,11,11,13,13,14,14,15,15,16,16,17,17,18,18,19,19,21,21,25,25,27,27,30,30,33,33,34,34,35,35,36,36,42,42,43,43],"right_children":[2,4,-1,6,8,10,-1,14,16,18,20,-1,-1,24,26,28,30,32,34,36,-1,-1,-1,-1,-1,40,-1,42,-1,-1,44,-1,-1,46,-1,50,52,-1,-1,-1,-1,-1,54,56,-1,-1,-1,-1,-1,-1,-1,-1,-1,-1,-1,-1,-1],"split_conditions":[2.5E0,1.5E0,1.16672E-1,5E-1,5E-1,1.5E0,1.15564965E-1,1.5E0,1.5E0,5E-1,2.5E0,1.02725685E-1,1.1981666E-1,1.5E0,2.5E0,2.5E0,5E-1,2.5E0,5E-1,5E-1,-1.5115327E-1,8.673563E-2,1.1844158E-1,1.3275007E-2,-1.3100697E-1,2.5E0,1.3940555E-1,1.5E0,6.324886E-3,4.774678E-2,2.5E0,-3.7478965E-2,4.972506E-2,2.5E0,1.1614819E-1,2.5E0,2.5E0,1.1580509E-1,6.411315E-2,-8.325958E-2,8.5388154E-2,-1.3647617E-1,2.5E0,1.5E0,-1.2845424E-1,-2.1924624E-2,1.07958436E-1,8.7857805E-2,1.3549359E-1,-1.3299485E-1,1.3260364E-2,8.140602E-2,-1.5629267E-2,-8.83588E-2,-2.0977387E-2,3.6096893E-2,-7.6901086E-2],"split_indices":[6,6,0,6,0,0,2,3,2,2,2,2147483647,2147483647,2,5,3,3,1,0,5,0,2147483647,2147483647,0,0,1,0,0,0,0,2,0,0,2,3,1,5,2147483647,2147483647,0,0,0,5,3,0,0,0,2147483647,2147483647,0,0,0,0,0,0,0,0],"split_type":[0,0,0,0,0,0,0,0,0,0,0,0,0,0,0,0,0,0,0,0,0,0,0,0,0,0,0,0,0,0,0,0,0,0,0,0,0,0,0,0,0,0,0,0,0,0,0,0,0,0,0,0,0,0,0,0,0],"sum_hessian":[1.772175E2,1.3924547E2,3.7972034E1,8.6247154E1,5.2998318E1,4.1153393E1,4.509376E1,1.6375574E1,3.6622746E1,2.0096617E1,2.1056776E1,1.184382E1,3.324994E1,6.3638434E0,1.001173E1,1.8046606E1,1.857614E1,6.3044343E0,1.3792182E1,1.8926184E1,2.1305923E0,6.193832E0,5.6499877E0,3.5552084E0,2.8086352E0,6.6737475E0,3.3379822E0,1.43049345E1,3.7416713E0,4.9213934E0,1.3654746E1,3.4028878E0,2.9015467E0,5.1823287E0,8.609854E0,5.1453853E0,1.3780799E1,2.5304062E0,3.663426E0,3.4644349E0,3.209313E0,3.9390104E0,1.0365924E1,9.187721E0,4.4670243E0,2.760239E0,2.4220898E0,3.7216012E0,4.8882523E0,2.4008164E0,2.7445688E0,8.9963E0,4.7844996E0,6.831985E0,3.533939E0,3.1807897E0,6.006932E0],"tree_param":{"num_deleted":"8","num_feature":"9","num_nodes":"57","size_leaf_vector":"0"}},{"base_weights":[4.335307E-1,2.5835285E-1,1.1417911E0,6.956181E-1,-3.8471374E-1,2.544201E-1,1.1529769E0,-4.4266057E-1,8.1005745E-2,5.9970313E-1,-1.5155971E-1,-1.8269914E-1,-5.398912E-1,-1.5467516E-1,3.0064547E-1,2.1397714E-1,9.782328E-1,-5.128085E-1,1.1844121E-1,-5.3916717E-1,1.459505E-1,-3.5937533E-1,-6.909813E-1,6.760098E-1,-1.170554E-1,3.731597E-1,1.1675577E0,7.962923E-1,-1.0258665E0,3.5715613E-1,-7.6569283E-1,-9.0430313E-1,2.8602457E-2,3.661804E-1,-1.8173812E-1,-6.990712E-2,-7.8625494E-1,-1.1337525E0,-3.3024824E-1,1.0431463E0,2.7745458E-1,-4.409722E-1,1.4517E-1,1.2753291E0,9.6017224E-1,-6.065276E-1,-1.4996263E0,-2.6110125E-1,6.474888E-1,2.8733236E-1,4.3675885E-1,-6.462207E-1,4.7423777E-1,-2.4887674E-1,-1.2608246E0,-9.707729E-1,-1.3329717E0,-6.9192886E-1,1.1880381E-1],"categories":[],"categories_nodes":[],"categories_segments":[],"categories_sizes":[],"default_left":[1,1,0,1,1,1,0,1,1,1,1,1,1,1,1,1,1,1,1,1,1,1,1,1,1,0,1,0,1,1,0,0,0,1,1,1,1,1,1,1,1,1,1,1,1,0,0,0,0,1,1,0,0,0,0,1,1,0,0],"id":12,"left_children":[1,3,-1,5,7,9,-1,11,-1,15,17,19,21,-1,-1,23,25,27,29,31,-1,35,37,-1,-1,-1,-1,-1,45,47,-1,-1,-1,-1,-1,51,53,-1,57,-1,-1,-1,-1,-1,-1,-1,-1,-1,-1,-1,-1,-1,-1,-1,-1,-1,-1,-1,-1],"loss_changes":[2.134565E1,3.8900906E1,0E0,1.6583252E1,1.5154104E0,5.9011283E0,0E0,1.2498255E0,3.299169E-1,3.2984943E0,1.8981206E0,1.6148801E0,9.630337E-1,0E0,0E0,1.7497103E0,1.2676611E0,5.6669674E0,2.3874428E0,1.3711457E0,5.2739453E-1,2.059482E0,3.0944786E0,6.687732E-1,5.7718384E-1,0E0,7.135391E-2,0E0,1.104629E0,1.6096442E0,0E0,0E0,0E0,1.1650562E-2,0E0,3.1880095E0,1.6882625E0,1.550932E-1,1.7860619E0,0E0,0E0,0E0,0E0,0E0,0E0,0E0,0E0,0E0,0E0,0E0,0E0,0E0,0E0,0E0,0E0,0E0,0E0,0E0,0E0],"parents":[2147483647,0,0,1,1,3,3,4,4,5,5,7,7,8,8,9,9,10,10,11,11,12,12,15,15,16,16,17,17,18,18,19,19,20,20,21,21,22,22,23,23,24,24,26,26,28,28,29,29,33,33,35,35,36,36,37,37,38,38],"right_children":[2,4,-1,6,8,10,-1,12,-1,16,18,20,22,-1,-1,24,26,28,30,32,-1,36,38,-1,-1,-1,-1,-1,46,48,-1,-1,-1,-1,-1,52,54,-1,58,-1,-1,-1,-1,-1,-1,-1,-1,-1,-1,-1,-1,-1,-1,-1,-1,-1,-1,-1,-1],"split_conditions":[2.5E0,1.5E0,1.1417911E-1,5E-1,1.5E0,1.5E0,1.1529769E-1,5E-1,8.100575E-3,5E-1,1.5E0,1.5E0,1.5E0,-1.5467516E-2,3.0064547E-2,5E-1,5E-1,1E0,1.5E0,1.5E0,1.4595049E-2,2.5E0,1E0,6.760098E-2,-1.170554E-2,3.7315972E-2,1.16755776E-1,7.9629235E-2,2.5E0,1E0,-7.656928E-2,-9.043031E-2,2.8602458E-3,3.661804E-2,-1.8173812E-2,5E-1,5E-1,-1.1337525E-1,2.5E0,1.04314625E-1,2.774546E-2,-4.4097222E-2,1.4517001E-2,1.2753291E-1,9.601723E-2,-6.0652763E-2,-1.4996263E-1,-2.6110126E-2,6.4748876E-2,2.8733237E-2,4.3675885E-2,-6.462207E-2,4.7423776E-2,-2.4887674E-2,-1.2608247E-1,-9.7077295E-2,-1.3329718E-1,-6.919289E-2,1.1880381E-2],"split_indices":[7,7,0,7,8,0,0,0,3,0,3,3,3,2147483647,2147483647,4,3,1,4,4,3,1,1,1,1,0,1,0,0,1,0,0,0,2147483647,2147483647,3,3,0,3,2147483647,2147483647,2147483647,2147483647,2147483647,2147483647,0,0,0,0,2147483647,2147483647,0,0,0,0,2147483647,2147483647,0,0],"split_type":[0,0,0,0,0,0,0,0,0,0,0,0,0,0,0,0,0,0,0,0,0,0,0,0,0,0,0,0,0,0,0,0,0,0,0,0,0,0,0,0,0,0,0,0,0,0,0,0,0,0,0,0,0,0,0,0,0,0,0],"sum_hessian":[1.7218085E2,1.3814836E2,3.403249E1,8.222783E1,5.592053E1,4.1932575E1,4.029525E1,4.973699E1,6.183538E0,2.263443E1,1.9298145E1,1.36171875E1,3.6119804E1,2.9971123E0,3.1864257E0,1.1288178E1,1.1346252E1,8.215824E0,1.1082321E1,6.5014114E0,7.1157756E0,1.6611258E1,1.9508545E1,4.6682878E0,6.61989E0,2.7749023E0,8.571349E0,2.297753E0,5.918071E0,8.77318E0,2.3091419E0,3.9207082E0,2.5807033E0,4.248642E0,2.8671336E0,9.9681835E0,6.643075E0,8.662152E0,1.0846394E1,2.345737E0,2.322551E0,2.9310782E0,3.688812E0,5.3014207E0,3.269929E0,3.260303E0,2.6577678E0,2.8066163E0,5.966563E0,2.24628E0,2.0023618E0,4.831887E0,5.1362967E0,3.1868699E0,3.4562051E0,5.0874457E0,3.5747063E0,5.977689E0,4.8687053E0],"tree_param":{"num_deleted":"14","num_feature":"9","num_nodes":"59","size_leaf_vector":"0"}},{"base_weights":[4.3735844E-1,2.663992E-1,1.1215024E0,6.1704654E-1,-3.0789536E-1,1.3822842E-1,1.0851927E0,-3.9342785E-1,4.3840274E-1,3.7808642E-1,-1.1904606E0,1.1564661E0,8.6274135E-1,-5.262461E-1,5.1448114E-2,-7.8382397E-1,2.1567793E0,4.7925475E-1,-2.3779644E-1,-1.4397742E0,-8.8541734E-1,1.1119599E0,7.831511E-1,-5.547421E-2,-7.145573E-1,5.1251113E-1,-5.603494E-1,1.8707187E-1,5.9627765E-1,-1.995968E-1,-2.7187008E-1,5.957094E-1,9.18958E-1,-4.1174597E-1,4.5068768E-1,-5.325346E-1,-1.0553716E0,-4.8074856E-2,9.5065844E-1,3.3144274E-1,3.20127E-2,2.1169698E-1,7.070493E-1,-7.734094E-1,1.0149198E-1,-1.4085452E-1,-6.972974E-1,-1.2859538E0,-6.003974E-1],"categories":[],"categories_nodes":[],"categories_segments":[],"categories_sizes":[],"default_left":[1,1,0,1,1,1,1,1,1,1,1,1,1,1,1,0,0,1,1,1,1,1,1,1,1,1,0,1,1,1,1,1,1,1,0,1,1,0,0,1,1,1,1,0,0,0,0,1,1],"id":13,"left_children":[1,3,-1,5,7,9,-1,13,15,17,-1,-1,-1,23,25,-1,-1,-1,-1,-1,-1,-1,-1,33,35,37,-1,-1,-1,-1,-1,-1,-1,43,-1,45,-1,-1,-1,-1,-1,-1,-1,-1,-1,-1,-1,-1,-1],"loss_changes":[1.907357E1,2.6360565E1,0E0,1.8198212E1,3.1869602E0,1.2883003E1,5.513725E-1,2.6382127E0,1.0992039E1,2.1422472E0,3.4282494E-1,0E0,1.1839867E-1,3.0418777E0,2.9470575E0,0E0,0E0,9.9432707E-1,9.408891E-4,0E0,0E0,0E0,1.5373945E-1,1.8083289E0,1.4656954E0,1.4664863E0,0E0,1.9045949E-1,8.7757826E-1,0E0,0E0,0E0,0E0,1.0987697E0,0E0,1.0352154E0,8.0811787E-1,0E0,0E0,0E0,0E0,0E0,0E0,0E0,0E0,0E0,0E0,0E0,0E0],"parents":[2147483647,0,0,1,1,3,3,4,4,5,5,6,6,7,7,8,8,9,9,10,10,12,12,13,13,14,14,17,17,18,18,22,22,23,23,24,24,25,25,27,27,28,28,33,33,35,35,36,36],"right_children":[2,4,-1,6,8,10,-1,14,16,18,-1,-1,-1,24,26,-1,-1,-1,-1,-1,-1,-1,-1,34,36,38,-1,-1,-1,-1,-1,-1,-1,44,-1,46,-1,-1,-1,-1,-1,-1,-1,-1,-1,-1,-1,-1,-1],"split_conditions":[2.5E0,1.5E0,1.12150244E-1,5E-1,1.5E0,2.5E0,1.0851927E-1,2.5E0,1.5E0,1.5E0,-1.19046055E-1,1.15646616E-1,8.627414E-2,5E-1,1.5E0,-7.8382395E-2,2.1567793E-1,4.7925476E-2,-2.3779644E-2,-1.4397742E-1,-8.854174E-2,1.11196E-1,7.831511E-2,1.5E0,1.5E0,5E-1,-5.603494E-2,1.8707188E-2,5.9627768E-2,-1.995968E-2,-2.7187008E-2,5.957094E-2,9.1895804E-2,1.5E0,4.5068767E-2,5E-1,-1.0553717E-1,-4.8074857E-3,9.506585E-2,3.3144277E-2,3.2012702E-3,2.1169698E-2,7.070493E-2,-7.7340946E-2,1.0149199E-2,-1.4085452E-2,-6.972974E-2,-1.2859538E-1,-6.003974E-2],"split_indices":[6,6,0,6,8,0,4,3,4,8,3,2147483647,2147483647,0,4,0,0,0,3,2147483647,2147483647,2147483647,2147483647,3,3,0,0,2147483647,2147483647,2147483647,2147483647,2147483647,2147483647,4,0,4,4,0,0,2147483647,2147483647,2147483647,2147483647,0,0,0,0,2147483647,2147483647],"split_type":[0,0,0,0,0,0,0,0,0,0,0,0,0,0,0,0,0,0,0,0,0,0,0,0,0,0,0,0,0,0,0,0,0,0,0,0,0,0,0,0,0,0,0,0,0,0,0,0,0],"sum_hessian":[1.6323216E2,1.307086E2,3.252355E1,8.115209E1,4.955652E1,4.0182796E1,4.096929E1,4.450332E1,5.053199E0,3.4098755E1,6.0840416E0,3.0709942E1,1.025935E1,3.4257435E1,1.0245887E1,2.984678E0,2.068521E0,2.9306837E1,4.791919E0,3.1431422E0,2.9408994E0,2.1693676E0,8.089983E0,9.824917E0,2.4432516E1,5.85196E0,4.3939266E0,8.455358E0,2.0851479E1,2.5824926E0,2.2094269E0,3.6251585E0,4.4648237E0,5.7771864E0,4.0477304E0,1.609352E1,8.338998E0,2.6063294E0,3.2456307E0,4.319681E0,4.1356764E0,4.7279453E0,1.6123533E1,3.3592975E0,2.4178889E0,4.820215E0,1.1273303E1,5.4130216E0,2.9259768E0],"tree_param":{"num_deleted":"18","num_feature":"9","num_nodes":"49","size_leaf_vector":"0"}},{"base_weights":[4.9297512E-1,3.5428098E-1,1.135288E0,7.3978066E-1,-2.5425428E-1,4.6829274E-1,1.0864533E0,-4.08931E-1,-1.09529816E-1,5.785319E-1,-2.9313963E-2,1.1395383E0,9.224687E-1,-1.0038406E0,-2.798031E-1,5.5845416E-1,-2.9772332E-1,2.3160486E-1,7.484666E-1,-6.966622E-1,8.61623E-1,7.2179145E-1,1.1216403E0,-1.2844908E0,-6.85815E-1,-1.4107597E-1,-5.352781E-1,1.2726787E0,-1.022643E-1,-1.3550131E0,-5.3867534E-2,-1.0960454E-1,8.63112E-1,8.236081E-1,4.637031E-1,-3.4489572E-1,-1.0924292E0,1.0994982E0,3.1990188E-1,-3.9819664E-1,2.2364987E-1,-3.9522013E-1,-6.8177265E-1,3.1693825E-1,-5.3993404E-1,6.7471914E-2,-2.1059509E-1,9.6075904E-1,4.6051082E-1,1.1925642E0,-2.5601417E-1,-7.498578E-1,-1.4088209E-1,7.137441E-1,-1.8193209E-1,9.5792997E-1,-9.489848E-2,-8.364736E-2,-1.197645E0],"categories":[],"categories_nodes":[],"categories_segments":[],"categories_sizes":[],"default_left":[1,1,0,1,1,1,1,1,1,1,1,1,1,1,1,1,1,1,1,1,0,1,1,1,1,1,1,0,0,0,1,1,0,1,1,1,1,1,1,1,1,1,1,1,1,1,1,1,1,0,0,1,1,0,0,0,0,0,0],"id":14,"left_children":[1,3,-1,5,7,9,-1,13,15,17,19,-1,-1,-1,25,27,29,31,33,-1,-1,-1,-1,-1,-1,39,-1,-1,-1,-1,43,-1,-1,-1,49,-1,-1,-1,-1,-1,53,-1,-1,55,57,-1,-1,-1,-1,-1,-1,-1,-1,-1,-1,-1,-1,-1,-1],"loss_changes":[1.4666664E1,3.1903492E1,0E0,7.782696E0,1.1771312E0,2.5718699E0,2.1243286E-1,1.9291501E0,3.4618657E0,2.2442236E0,5.1688366E0,0E0,2.9658604E-1,3.1402254E-1,7.393087E-1,2.8721886E0,5.5223923E0,2.7583196E0,5.118065E-1,6.53955E-1,0E0,7.216363E-1,0E0,0E0,0E0,1.3023838E0,1.24480724E-1,0E0,0E0,0E0,3.1769993E0,1.5111858E-1,0E0,9.621153E-1,2.9656758E0,0E0,0E0,0E0,0E0,7.247182E-1,1.1593337E0,0E0,0E0,2.6510696E0,2.2779222E0,0E0,0E0,0E0,0E0,0E0,0E0,0E0,0E0,0E0,0E0,0E0,0E0,0E0,0E0],"parents":[2147483647,0,0,1,1,3,3,4,4,5,5,6,6,7,7,8,8,9,9,10,10,12,12,13,13,14,14,15,15,16,16,17,17,18,18,19,19,21,21,25,25,26,26,30,30,31,31,33,33,34,34,39,39,40,40,43,43,44,44],"right_children":[2,4,-1,6,8,10,-1,14,16,18,20,-1,-1,-1,26,28,30,32,34,-1,-1,-1,-1,-1,-1,40,-1,-1,-1,-1,44,-1,-1,-1,50,-1,-1,-1,-1,-1,54,-1,-1,56,58,-1,-1,-1,-1,-1,-1,-1,-1,-1,-1,-1,-1,-1,-1],"split_conditions":[2.5E0,1.5E0,1.135288E-1,5E-1,1.5E0,2.5E0,1.08645335E-1,5E-1,5E-1,5E-1,1.5E0,1.1395383E-1,9.2246875E-2,-1.0038406E-1,2.5E0,5E-1,5E-1,2.5E0,2.5E0,-6.966622E-2,8.61623E-2,7.2179146E-2,1.12164035E-1,-1.2844908E-1,-6.85815E-2,1.5E0,-5.352781E-2,1.2726788E-1,-1.022643E-2,-1.3550131E-1,2.5E0,-1.0960454E-2,8.63112E-2,8.236081E-2,1.5E0,-3.4489572E-2,-1.09242916E-1,1.0994982E-1,3.199019E-2,-3.9819665E-2,5E-1,-3.9522015E-2,-6.817727E-2,1.5E0,2.5E0,6.7471913E-3,-2.105951E-2,9.607591E-2,4.605108E-2,1.1925643E-1,-2.5601417E-2,-7.498578E-2,-1.4088209E-2,7.137441E-2,-1.819321E-2,9.5793E-2,-9.489848E-3,-8.364736E-3,-1.197645E-1],"split_indices":[6,6,0,6,0,0,4,5,5,0,5,2147483647,2147483647,3,5,3,3,5,5,5,0,2147483647,2147483647,2147483647,2147483647,4,0,0,0,0,0,5,0,3,0,2147483647,2147483647,2147483647,2147483647,3,3,2147483647,2147483647,3,5,2147483647,2147483647,2147483647,2147483647,0,0,2147483647,2147483647,0,0,0,0,0,0],"split_type":[0,0,0,0,0,0,0,0,0,0,0,0,0,0,0,0,0,0,0,0,0,0,0,0,0,0,0,0,0,0,0,0,0,0,0,0,0,0,0,0,0,0,0,0,0,0,0,0,0,0,0,0,0,0,0,0,0,0,0],"sum_hessian":[1.6498816E2,1.3581654E2,2.917161E1,8.313192E1,5.2684628E1,4.6753323E1,3.6378597E1,2.5378435E1,2.7306192E1,3.8260807E1,8.4925165E0,2.7032688E1,9.345909E0,4.405287E0,2.0973148E1,5.9588375E0,2.1347355E1,1.265714E1,2.5603666E1,4.867995E0,3.6245215E0,4.885686E0,4.4602237E0,2.1787205E0,2.2265663E0,1.3692899E1,7.2802486E0,2.8189662E0,3.1398714E0,3.9154425E0,1.7431913E1,8.270924E0,4.386216E0,2.0108376E1,5.4952917E0,2.6763458E0,2.191649E0,2.4291358E0,2.45655E0,8.025786E0,5.667113E0,3.9109347E0,3.369314E0,9.908107E0,7.5238066E0,3.015953E0,5.254971E0,1.4475875E1,5.6325E0,2.6976595E0,2.797632E0,3.310308E0,4.715478E0,2.5317886E0,3.1353245E0,3.8239021E0,6.084204E0,4.5086503E0,3.0151563E0],"tree_param":{"num_deleted":"18","num_feature":"9","num_nodes":"59","size_leaf_vector":"0"}},{"base_weights":[4.112375E-1,2.794837E-1,1.08072E0,6.430692E-1,-2.730948E-1,9.291856E-1,1.1186093E0,3.3801785E-1,1.0134591E0,-1.4137301E-1,-6.2417865E-1,6.892749E-1,1.0896037E0,5.662757E-1,7.3267244E-2,9.177303E-1,1.1223747E0,-2.320698E-1,1.1464828E-1,-2.3032592E-1,-1.233338E0,3.1534177E-1,8.046603E-1,-2.283728E-1,4.4305813E-1,1.1029733E0,8.5851425E-1,-3.0873887E-2,-6.633783E-1,6.118059E-1,-5.492981E-1,3.8458705E-1,-4.219255E-1,-6.594512E-3,9.928658E-1,2.0958008E-1,9.6667325E-1,1.7856072E-1,-8.4394735E-1,6.2521905E-2,1.2547982E0,6.93739E-1,9.9261296E-1,-4.8878995E-1,3.1539148E-1,-1.2779956E0,-1.7620343E-1,2.712777E-1,1.0839126E0,-2.3300485E-1,-6.223503E-1,-4.3196505E-1,4.3314338E-1,1.1241101E0,7.159267E-1,6.941847E-1,-8.389298E-2,-1.002392E0,6.9660527E-1,5.2135515E-1,1.0757715E0,1.1075288E0,7.654329E-1,-1.1809368E-1,-1.3008363E0,6.6729146E-1,-1.6781972E-1,-3.3153784E-2,-3.4999004E-1],"categories":[],"categories_nodes":[],"categories_segments":[],"categories_sizes":[],"default_left":[1,1,1,1,1,1,1,1,1,1,1,1,1,1,1,1,1,1,1,1,0,1,1,1,1,1,1,1,1,1,0,0,1,1,0,0,1,1,0,1,0,1,1,1,1,0,1,1,1,1,1,0,0,1,1,1,1,0,0,1,1,1,1,0,0,0,0,1,1],"id":15,"left_children":[1,3,-1,7,9,-1,-1,13,-1,17,19,-1,-1,21,23,-1,-1,27,29,31,-1,33,35,37,39,-1,-1,43,45,-1,-1,-1,-1,51,-1,-1,-1,-1,-1,57,-1,-1,-1,63,65,-1,-1,-1,-1,-1,-1,-1,-1,-1,-1,-1,-1,-1,-1,-1,-1,-1,-1,-1,-1,-1,-1,-1,-1],"loss_changes":[1.3699005E1,2.6173624E1,4.2808533E-2,8.841175E0,2.3837378E0,1.4438486E-1,0E0,2.6080227E0,2.6636887E-1,8.7924E-1,3.351019E0,0E0,0E0,1.3622799E0,2.255246E0,1.181469E-1,0E0,2.419788E0,3.3153105E0,1.0385993E0,0E0,2.501567E0,1.1204562E0,2.8084645E0,2.7958257E0,0E0,2.6599026E-1,3.0496132E0,2.6341903E0,8.921621E-1,0E0,0E0,2.3781979E-1,1.4911573E0,0E0,0E0,2.855587E-1,9.254997E-1,0E0,4.313571E0,0E0,4.1357017E-1,1.2728214E-1,2.4767363E0,1.8743696E0,0E0,1.2476781E-1,0E0,0E0,0E0,0E0,0E0,0E0,0E0,0E0,0E0,0E0,0E0,0E0,0E0,0E0,0E0,0E0,0E0,0E0,0E0,0E0,0E0,0E0],"parents":[2147483647,0,0,1,1,2,2,3,3,4,4,5,5,7,7,8,8,9,9,10,10,13,13,14,14,15,15,17,17,18,18,19,19,21,21,22,22,23,23,24,24,26,26,27,27,28,28,29,29,32,32,33,33,36,36,37,37,39,39,41,41,42,42,43,43,44,44,46,46],"right_children":[2,4,-1,8,10,-1,-1,14,-1,18,20,-1,-1,22,24,-1,-1,28,30,32,-1,34,36,38,40,-1,-1,44,46,-1,-1,-1,-1,52,-1,-1,-1,-1,-1,58,-1,-1,-1,64,66,-1,-1,-1,-1,-1,-1,-1,-1,-1,-1,-1,-1,-1,-1,-1,-1,-1,-1,-1,-1,-1,-1,-1,-1],"split_conditions":[2.5E0,1.5E0,1.08072E-1,5E-1,2.5E0,9.291857E-2,1.1186093E-1,1.5E0,1.0134591E-1,2.5E0,2.5E0,6.892749E-2,1.0896037E-1,5E-1,1.5E0,9.1773026E-2,1.1223747E-1,1.5E0,1.5E0,5E-1,-1.23333804E-1,2.5E0,5E-1,2.5E0,2.5E0,1.1029734E-1,8.585142E-2,1.5E0,2.5E0,6.118059E-2,-5.492981E-2,3.8458705E-2,-4.219255E-2,2.5E0,9.928658E-2,2.0958008E-2,9.666733E-2,1.7856073E-2,-8.439474E-2,2.5E0,1.2547982E-1,6.93739E-2,9.92613E-2,5E-1,2.5E0,-1.2779956E-1,-1.7620344E-2,2.712777E-2,1.0839126E-1,-2.3300486E-2,-6.2235028E-2,-4.3196507E-2,4.3314338E-2,1.12411015E-1,7.159267E-2,6.9418475E-2,-8.389298E-3,-1.0023921E-1,6.966053E-2,5.2135516E-2,1.07577145E-1,1.1075288E-1,7.6543294E-2,-1.1809368E-2,-1.3008364E-1,6.672915E-2,-1.6781973E-2,-3.3153784E-3,-3.4999005E-2],"split_indices":[6,6,0,6,5,2147483647,2147483647,0,1,3,1,2147483647,2147483647,0,5,2147483647,2147483647,3,0,0,0,5,3,0,3,2147483647,2147483647,0,1,0,0,0,3,1,0,0,1,1,0,1,0,2147483647,2147483647,3,1,0,0,2147483647,2147483647,2147483647,2147483647,0,0,2147483647,2147483647,2147483647,2147483647,0,0,2147483647,2147483647,2147483647,2147483647,0,0,0,0,2147483647,2147483647],"split_type":[0,0,0,0,0,0,0,0,0,0,0,0,0,0,0,0,0,0,0,0,0,0,0,0,0,0,0,0,0,0,0,0,0,0,0,0,0,0,0,0,0,0,0,0,0,0,0,0,0,0,0,0,0,0,0,0,0,0,0,0,0,0,0,0,0,0,0,0,0],"sum_hessian":[1.555478E2,1.3008826E2,2.5459555E1,7.845203E1,5.1636227E1,5.603068E0,1.9856485E1,4.31254E1,3.5326626E1,3.7650536E1,1.3985692E1,2.457486E0,3.145582E0,2.3097622E1,2.002778E1,1.930317E1,1.6023455E1,2.7808569E1,9.841967E0,8.577628E0,5.4080644E0,1.1365785E1,1.1731837E1,1.1051371E1,8.976409E0,4.2488923E0,1.5054278E1,1.90359E1,8.772671E0,5.6323566E0,4.2096095E0,2.01382E0,6.563808E0,7.7718797E0,3.5939052E0,2.5596175E0,9.17222E0,6.695932E0,4.355439E0,6.184755E0,2.7916536E0,7.0315347E0,8.022743E0,8.178777E0,1.0857122E1,3.8071995E0,4.965471E0,3.3636408E0,2.268716E0,3.4901984E0,3.0736094E0,3.9513743E0,3.8205054E0,5.42052E0,3.7517E0,2.2031205E0,4.492811E0,2.2865365E0,3.8982184E0,5.008174E0,2.0233607E0,5.0704274E0,2.9523158E0,5.69402E0,2.4847567E0,6.260095E0,4.597028E0,2.7889056E0,2.1765654E0],"tree_param":{"num_deleted":"24","num_feature":"9","num_nodes":"69","size_leaf_vector":"0"}},{"base_weights":[3.33019E-1,1.7023432E-1,1.1071965E0,5.1816803E-1,-3.3648103E-1,1.7369065E-1,1.0127896E0,1.2070908E-2,-4.7793412E-1,7.345733E-2,2.8532022E-1,1.0657167E0,8.564694E-1,6.1021966E-1,-2.5764793E-1,-5.737228E-1,1.9388892E-1,1.8302791E-1,-2.2762448E-1,2.2363575E-1,6.239706E-1,6.317394E-1,1.0872812E0,-3.6387178E-1,-1.8369497E-1,-3.279151E-1,-9.727287E-1,3.49753E-2,3.968594E-1,2.9392555E-1,-8.520854E-1,3.5730943E-1,-7.157114E-2,1.6187349E-1,1.0704783E0,-5.3218764E-1,2.9411124E-2,-2.7693555E-2,-9.913097E-1,-1.2101191E0,-8.665992E-1,3.8770452E-1,-6.129707E-1,8.408574E-2,5.4376143E-1,9.244635E-2,7.387349E-1,-4.301911E-1,1.5790676E-1,-4.0784582E-1,-1.2886562E0,-7.4671084E-1,-1.1859428E0],"categories":[],"categories_nodes":[],"categories_segments":[],"categories_sizes":[],"default_left":[1,1,0,1,1,1,1,1,1,1,1,1,1,0,1,1,0,1,1,1,0,1,1,1,1,1,1,1,1,0,0,1,0,1,1,1,1,1,1,1,1,0,0,1,1,0,0,0,0,1,1,1,1],"id":16,"left_children":[1,3,-1,5,7,9,-1,13,15,17,19,-1,-1,-1,-1,25,-1,27,29,31,-1,-1,-1,-1,-1,37,-1,41,-1,-1,-1,45,-1,-1,-1,-1,-1,47,-1,-1,-1,-1,-1,-1,-1,-1,-1,-1,-1,-1,-1,-1,-1],"loss_changes":[1.8661415E1,2.1631023E1,0E0,1.2373556E1,2.4642453E0,4.789096E-1,1.5556526E-1,2.3586626E0,2.2986612E0,7.558513E-1,4.1017902E-1,0E0,3.4916687E-1,0E0,7.249564E-2,3.0218973E0,0E0,5.292446E-1,2.019621E0,6.86467E-1,0E0,8.7330127E-1,0E0,0E0,4.5787913E-1,3.8645844E0,1.9288826E-1,2.312372E0,3.1005657E-1,0E0,0E0,1.2000247E0,0E0,0E0,0E0,0E0,0E0,1.0131141E0,9.9651575E-1,0E0,2.3761606E-1,0E0,0E0,0E0,0E0,0E0,0E0,0E0,0E0,0E0,0E0,0E0,0E0],"parents":[2147483647,0,0,1,1,3,3,4,4,5,5,6,6,7,7,8,8,9,9,10,10,12,12,14,14,15,15,17,17,18,18,19,19,21,21,24,24,25,25,26,26,27,27,28,28,31,31,37,37,38,38,40,40],"right_children":[2,4,-1,6,8,10,-1,14,16,18,20,-1,-1,-1,-1,26,-1,28,30,32,-1,-1,-1,-1,-1,38,-1,42,-1,-1,-1,46,-1,-1,-1,-1,-1,48,-1,-1,-1,-1,-1,-1,-1,-1,-1,-1,-1,-1,-1,-1,-1],"split_conditions":[2.5E0,1.5E0,1.1071964E-1,5E-1,5E-1,2.5E0,1.0127896E-1,5E-1,1.5E0,1E0,2.5E0,1.06571674E-1,8.564694E-2,6.1021965E-2,-2.5764793E-2,2.5E0,1.9388892E-2,1.5E0,1.5E0,1.5E0,6.2397063E-2,6.317394E-2,1.08728126E-1,-3.638718E-2,-1.8369498E-2,1.5E0,-9.727287E-2,1.5E0,3.9685942E-2,2.9392555E-2,-8.520854E-2,5E-1,-7.1571143E-3,1.618735E-2,1.0704783E-1,-5.3218763E-2,2.9411125E-3,1.5E0,-9.913097E-2,-1.2101191E-1,-8.665992E-2,3.8770452E-2,-6.129707E-2,8.408574E-3,5.4376144E-2,9.244635E-3,7.387349E-2,-4.3019112E-2,1.5790677E-2,-4.0784582E-2,-1.2886563E-1,-7.467108E-2,-1.1859428E-1],"split_indices":[6,6,0,6,2,1,4,4,8,1,2,2147483647,2147483647,0,1,1,0,2,2,2,0,2147483647,2147483647,2147483647,2147483647,4,4,4,4,0,0,2,0,2147483647,2147483647,2147483647,2147483647,2,2,2147483647,2147483647,0,0,2147483647,2147483647,0,0,0,0,2147483647,2147483647,2147483647,2147483647],"split_type":[0,0,0,0,0,0,0,0,0,0,0,0,0,0,0,0,0,0,0,0,0,0,0,0,0,0,0,0,0,0,0,0,0,0,0,0,0,0,0,0,0,0,0,0,0,0,0,0,0,0,0,0,0],"sum_hessian":[1.4812756E2,1.22493164E2,2.563439E1,7.2623985E1,4.986918E1,4.288913E1,2.973486E1,1.4422479E1,3.54467E1,2.2685446E1,2.0203682E1,2.1779108E1,7.9557514E0,4.4430327E0,9.979446E0,3.1036161E1,4.410539E0,1.6661245E1,6.0241995E0,1.723111E1,2.9725733E0,4.22033E0,3.7354212E0,3.9351218E0,6.0443244E0,1.9317684E1,1.1718477E1,9.913615E0,6.7476306E0,3.3114262E0,2.7127733E0,1.1846029E1,5.38508E0,2.1039782E0,2.116352E0,2.2367823E0,3.807542E0,1.3370839E1,5.946845E0,3.299017E0,8.41946E0,6.44516E0,3.4684556E0,2.2066414E0,4.540989E0,7.0645914E0,4.7814384E0,4.1781697E0,9.192669E0,2.087615E0,3.85923E0,6.3640776E0,2.0553827E0],"tree_param":{"num_deleted":"18","num_feature":"9","num_nodes":"53","size_leaf_vector":"0"}},{"base_weights":[3.3273494E-1,1.9252932E-1,1.0948774E0,6.071701E-1,-4.4693536E-1,3.4079516E-1,1.0311658E0,-1.5622845E-1,-5.770826E-1,4.5877615E-1,-1.7431062E-1,1.0990849E0,9.278004E-1,-7.7511644E-1,3.4411752E-1,-6.862755E-1,-7.166897E-2,1.734131E-1,6.0351133E-1,5.02163E-1,-5.3005576E-1,6.453666E-1,1.090938E0,-2.3521876E-1,-1.3757709E0,1.8561813E0,-2.144774E-1,-4.1162905E-1,-1.2432208E0,5.623045E-1,-1.2285028E0,-4.774031E-2,5.390357E-1,1.07959904E-1,7.417394E-1,-1.7700245E0,2.843293E-1,2.0603643E-1,1.0580877E0,-6.481645E-1,1.3291252E-1,-1.2768329E0,-1.4986183E-1,-5.613003E-1,3.405902E-1,-7.229274E-1,7.265228E-1,1.1273046E0,5.3400356E-1,8.352744E-2,-5.4832166E-1],"categories":[],"categories_nodes":[],"categories_segments":[],"categories_sizes":[],"default_left":[1,1,0,1,1,1,1,1,1,1,1,1,1,1,1,1,1,1,1,0,1,1,1,0,0,0,1,1,0,0,0,1,0,1,1,0,0,1,1,1,1,0,1,0,0,0,0,0,0,0,0],"id":17,"left_children":[1,3,-1,5,7,9,-1,13,15,17,19,-1,-1,23,25,27,29,31,33,-1,35,-1,-1,-1,-1,-1,-1,41,-1,-1,-1,43,-1,45,47,-1,-1,-1,-1,-1,-1,-1,49,-1,-1,-1,-1,-1,-1,-1,-1],"loss_changes":[1.5272974E1,3.2112522E1,0E0,8.260632E0,1.7940931E0,2.758582E0,9.664726E-2,4.63284E0,1.8097906E0,1.5116453E0,2.0738661E0,0E0,4.7605133E-1,2.1340775E0,7.045596E0,4.083246E0,4.43552E0,1.0167038E0,1.6641321E0,0E0,5.72935E0,8.099489E-1,0E0,0E0,0E0,0E0,9.3464583E-1,4.114538E0,0E0,0E0,0E0,1.5959872E0,0E0,2.849023E0,1.467227E0,0E0,0E0,0E0,0E0,0E0,0E0,0E0,1.3182034E0,0E0,0E0,0E0,0E0,0E0,0E0,0E0,0E0],"parents":[2147483647,0,0,1,1,3,3,4,4,5,5,6,6,7,7,8,8,9,9,10,10,12,12,13,13,14,14,15,15,16,16,17,17,18,18,20,20,21,21,26,26,27,27,31,31,33,33,34,34,42,42],"right_children":[2,4,-1,6,8,10,-1,14,16,18,20,-1,-1,24,26,28,30,32,34,-1,36,-1,-1,-1,-1,-1,-1,42,-1,-1,-1,44,-1,46,48,-1,-1,-1,-1,-1,-1,-1,50,-1,-1,-1,-1,-1,-1,-1,-1],"split_conditions":[2.5E0,1.5E0,1.09487735E-1,5E-1,5E-1,2.5E0,1.0311659E-1,1E0,2.5E0,5E-1,5E-1,1.09908484E-1,9.2780046E-2,2.5E0,2.5E0,1.5E0,1.5E0,1.5E0,5E-1,5.02163E-2,1.5E0,6.453666E-2,1.090938E-1,-2.3521876E-2,-1.375771E-1,1.8561813E-1,-2.144774E-2,1.5E0,-1.2432208E-1,5.6230452E-2,-1.2285028E-1,2.5E0,5.390357E-2,2.5E0,1.5E0,-1.7700246E-1,2.843293E-2,2.0603644E-2,1.0580877E-1,-6.481645E-2,1.3291252E-2,-1.276833E-1,2.5E0,-5.613003E-2,3.405902E-2,-7.229274E-2,7.265228E-2,1.1273046E-1,5.3400356E-2,8.352744E-3,-5.4832168E-2],"split_indices":[6,6,0,6,0,0,0,1,3,0,3,2147483647,2147483647,3,1,3,4,3,3,0,3,2147483647,2147483647,0,0,0,3,0,0,0,0,1,0,1,3,0,0,2147483647,2147483647,2147483647,2147483647,0,1,0,0,0,0,0,0,0,0],"split_type":[0,0,0,0,0,0,0,0,0,0,0,0,0,0,0,0,0,0,0,0,0,0,0,0,0,0,0,0,0,0,0,0,0,0,0,0,0,0,0,0,0,0,0,0,0,0,0,0,0,0,0],"sum_hessian":[1.430268E2,1.2090928E2,2.2117512E1,7.3351715E1,4.7557568E1,4.5160217E1,2.8191496E1,1.4775007E1,3.278256E1,3.6753136E1,8.407085E0,1.6431454E1,1.176004E1,6.5805173E0,8.19449E0,2.6928879E1,5.8536797E0,1.2442013E1,2.4311121E1,2.883243E0,5.523842E0,4.48717E0,7.2728705E0,3.5388162E0,3.041701E0,2.1479359E0,6.0465546E0,1.815166E1,8.77722E0,3.8145857E0,2.0390942E0,7.806844E0,4.635168E0,5.341128E0,1.8969994E1,2.1432385E0,3.3806033E0,2.2461388E0,2.2410312E0,2.6507432E0,3.3958113E0,4.1261067E0,1.4025554E1,3.3422449E0,4.464599E0,2.2721632E0,3.068965E0,6.4870796E0,1.2482914E1,8.894708E0,5.130846E0],"tree_param":{"num_deleted":"8","num_feature":"9","num_nodes":"51","size_leaf_vector":"0"}},{"base_weights":[4.0678847E-1,2.9181987E-1,1.0838584E0,5.816325E-1,-9.686699E-2,3.356386E-1,9.725687E-1,4.1502416E-2,-3.1195244E-1,1.8289267E-1,1.0306646E0,7.989662E-1,1.0882641E0,-1.9159576E-1,6.8710554E-1,1.2845665E-1,-8.241739E-1,-1.1618899E-2,3.413705E-1,1.233072E0,5.310651E-1,4.5471665E-1,9.4307464E-1,2.1632157E-2,-8.768234E-1,1.3560696E0,3.7065753E-1,-4.2026252E-1,4.7180054E-1,-4.4080257E-1,-1.1976632E0,-2.4042372E-1,8.0439776E-1,2.9529314E-2,5.8518815E-1,1.0179603E0,1.4191686E0,7.783625E-1,1.0668759E0,-4.429262E-1,3.2538304E-1,-5.484455E-1,-1.1954346E0,-4.9130674E-2,8.8859874E-1,-1.2463709E0,4.8480242E-1,1.1700376E-1,-8.1611633E-1,5.6841135E-1,-2.0786762E-1,8.9406264E-1,3.4287205E-1,-1.3176996E0,2.400741E-1,1.5182789E-1,6.161208E-1],"categories":[],"categories_nodes":[],"categories_segments":[],"categories_sizes":[],"default_left":[1,1,0,1,1,1,1,1,1,1,1,1,1,1,1,1,1,1,1,1,1,1,1,1,1,0,0,0,1,1,0,1,0,1,1,1,1,1,1,1,1,1,1,0,0,0,0,0,0,0,0,1,1,0,0,1,1],"id":18,"left_children":[1,3,-1,5,7,9,-1,13,15,17,-1,-1,-1,23,25,27,29,31,33,-1,-1,-1,-1,39,-1,-1,-1,-1,43,45,-1,47,-1,49,-1,-1,-1,-1,-1,53,-1,-1,-1,-1,-1,-1,-1,-1,-1,-1,-1,-1,-1,-1,-1,-1,-1],"loss_changes":[1.0390472E1,1.291384E1,0E0,6.2816353E0,1.4605376E0,4.2757316E0,4.2132187E-1,4.5165677E0,4.3433237E0,1.0264621E0,6.693711E-1,4.77839E-1,0E0,3.2257957E0,1.6348543E0,1.9817604E0,1.2205238E0,2.8275764E0,1.3931024E0,5.953741E-2,0E0,0E0,6.593895E-2,2.402828E0,4.8256826E-1,0E0,0E0,0E0,1.4053969E0,3.4505348E0,0E0,2.4425485E0,0E0,1.0550778E0,7.3951817E-1,0E0,0E0,0E0,0E0,4.0550046E0,5.099653E-1,0E0,0E0,0E0,0E0,0E0,0E0,0E0,0E0,0E0,0E0,0E0,0E0,0E0,0E0,0E0,0E0],"parents":[2147483647,0,0,1,1,3,3,4,4,5,5,6,6,7,7,8,8,9,9,10,10,11,11,13,13,14,14,15,15,16,16,17,17,18,18,19,19,22,22,23,23,24,24,28,28,29,29,31,31,33,33,34,34,39,39,40,40],"right_children":[2,4,-1,6,8,10,-1,14,16,18,-1,-1,-1,24,26,28,30,32,34,-1,-1,-1,-1,40,-1,-1,-1,-1,44,46,-1,48,-1,50,-1,-1,-1,-1,-1,54,-1,-1,-1,-1,-1,-1,-1,-1,-1,-1,-1,-1,-1,-1,-1,-1,-1],"split_conditions":[2.5E0,1.5E0,1.0838584E-1,5E-1,2.5E0,2.5E0,9.725687E-2,1E0,1.5E0,2.5E0,1.0306646E-1,7.989662E-2,1.08826414E-1,2.5E0,5E-1,5E-1,1.5E0,2.5E0,5E-1,1.23307206E-1,5.3106513E-2,4.5471665E-2,9.430747E-2,1.5E0,-8.7682344E-2,1.3560696E-1,3.7065756E-2,-4.202625E-2,1.5E0,5E-1,-1.1976632E-1,1.5E0,8.0439776E-2,5E-1,5.8518816E-2,1.0179603E-1,1.4191686E-1,7.783625E-2,1.066876E-1,1.5E0,3.2538306E-2,-5.4844555E-2,-1.19543456E-1,-4.9130674E-3,8.885988E-2,-1.2463709E-1,4.8480242E-2,1.1700376E-2,-8.161163E-2,5.6841135E-2,-2.0786762E-2,8.940627E-2,3.4287207E-2,-1.3176996E-1,2.400741E-2,1.51827885E-2,6.161208E-2],"split_indices":[6,6,0,6,1,2,1,1,5,1,1,2147483647,2147483647,0,0,5,2,0,2,2147483647,2147483647,2147483647,2147483647,5,5,0,0,0,2,2,0,1,0,5,2,2147483647,2147483647,2147483647,2147483647,2,0,2147483647,2147483647,0,0,0,0,0,0,0,0,2147483647,2147483647,0,0,2147483647,2147483647],"split_type":[0,0,0,0,0,0,0,0,0,0,0,0,0,0,0,0,0,0,0,0,0,0,0,0,0,0,0,0,0,0,0,0,0,0,0,0,0,0,0,0,0,0,0,0,0,0,0,0,0,0,0,0,0,0,0,0,0],"sum_hessian":[1.3378828E2,1.1449053E2,1.929775E1,6.555888E1,4.893165E1,4.0352936E1,2.520595E1,2.982515E1,1.9106499E1,3.3185966E1,7.16697E0,1.0396474E1,1.4809476E1,2.1964928E1,7.860222E0,1.0313689E1,8.7928095E0,1.4940749E1,1.8245216E1,4.996058E0,2.170912E0,3.1904917E0,7.2059827E0,1.6825912E1,5.1390147E0,2.418673E0,5.4415483E0,3.960987E0,6.352702E0,4.4465904E0,4.346219E0,1.1723973E1,3.2167757E0,8.055016E0,1.0190201E1,2.61748E0,2.378578E0,3.404786E0,3.8011966E0,6.6340065E0,1.0191907E1,2.6647332E0,2.4742813E0,2.8628318E0,3.4898703E0,2.3589258E0,2.0876644E0,7.2823143E0,4.4416595E0,2.4206948E0,5.6343203E0,4.361604E0,5.828597E0,2.8679125E0,3.7660942E0,6.4774384E0,3.714468E0],"tree_param":{"num_deleted":"16","num_feature":"9","num_nodes":"57","size_leaf_vector":"0"}},{"base_weights":[3.3677736E-1,2.2277561E-1,1.0193797E0,5.7191926E-1,-2.5087193E-1,8.223909E-1,1.0725658E0,2.897784E-1,1.0396558E0,-3.589376E-1,4.8422194E-1,4.0709773E-1,-8.076948E-1,1.0801218E0,8.9684993E-1,-5.513955E-2,-4.8044303E-1,-2.764045E-1,1.5862594E0,6.3452107E-1,1.3728657E-1,6.7549986E-1,1.0540998E0,-6.8277E-1,5.255291E-1,-1.6876683E-1,-8.470684E-1,4.715307E-1,1.1956807E0,-2.638215E-1,3.2387578E-1,3.7137294E-1,-1.3264024E0,2.939371E-1,8.246065E-1,3.8336688E-3,-3.98567E-1,-1.0495024E0,-5.0643593E-1,2.3140647E-1,8.102569E-1,-8.8445926E-1,3.2657802E-1,-1.5192027E-1,6.992592E-1,-3.0036008E-1,3.8279855E-1,5.489786E-1,-8.299873E-1,-1.2789401E0,-8.8943154E-1,-2.9617378E-1,-6.398684E-1],"categories":[],"categories_nodes":[],"categories_segments":[],"categories_sizes":[],"default_left":[1,1,1,1,1,1,1,1,1,1,1,1,0,1,1,1,1,0,0,1,1,1,1,1,1,1,1,1,0,1,1,0,0,1,1,1,1,1,1,0,0,0,0,0,0,0,0,0,0,1,1,1,1],"id":19,"left_children":[1,3,-1,7,9,-1,-1,11,-1,15,17,19,-1,-1,-1,23,25,-1,-1,27,29,-1,-1,31,-1,35,-1,39,-1,41,43,-1,-1,-1,-1,45,47,-1,-1,-1,-1,-1,-1,-1,-1,-1,-1,-1,-1,-1,-1,-1,-1],"loss_changes":[9.885165E0,1.8077557E1,1.0240173E-1,8.271797E0,3.7048743E0,0E0,0E0,5.102997E0,3.9690018E-2,1.4933467E0,5.066612E0,2.178306E0,0E0,0E0,1.3091993E-1,4.296725E0,3.2921953E0,0E0,0E0,1.7099991E0,1.2381489E0,0E0,0E0,3.890783E0,4.0030527E-1,6.2545085E-1,8.61969E-1,1.2119248E0,0E0,1.9604027E0,2.0213654E0,0E0,0E0,0E0,0E0,1.0607685E0,2.8102136E0,1.885376E-1,1.2526166E-1,0E0,0E0,0E0,0E0,0E0,0E0,0E0,0E0,0E0,0E0,0E0,0E0,0E0,0E0],"parents":[2147483647,0,0,1,1,2,2,3,3,4,4,7,7,8,8,9,9,10,10,11,11,14,14,15,15,16,16,19,19,20,20,23,23,24,24,25,25,26,26,27,27,29,29,30,30,35,35,36,36,37,37,38,38],"right_children":[2,4,-1,8,10,-1,-1,12,-1,16,18,20,-1,-1,-1,24,26,-1,-1,28,30,-1,-1,32,-1,36,-1,40,-1,42,44,-1,-1,-1,-1,46,48,-1,-1,-1,-1,-1,-1,-1,-1,-1,-1,-1,-1,-1,-1,-1,-1],"split_conditions":[2.5E0,1.5E0,1.0193797E-1,5E-1,1.5E0,8.223909E-2,1.07256584E-1,1.5E0,1.0396558E-1,5E-1,1.5E0,1.5E0,-8.076948E-2,1.0801218E-1,8.968499E-2,1.5E0,1.5E0,-2.764045E-2,1.5862595E-1,2.5E0,5E-1,6.754999E-2,1.0540998E-1,5E-1,5.255291E-2,5E-1,-8.470684E-2,5E-1,1.1956807E-1,2.5E0,5E-1,3.7137296E-2,-1.3264024E-1,2.9393708E-2,8.246065E-2,2.5E0,1.5E0,-1.0495024E-1,-5.0643593E-2,2.3140647E-2,8.102569E-2,-8.8445924E-2,3.2657802E-2,-1.5192027E-2,6.992593E-2,-3.0036008E-2,3.8279857E-2,5.4897863E-2,-8.299873E-2,-1.2789401E-1,-8.894315E-2,-2.9617378E-2,-6.398684E-2],"split_indices":[6,6,0,6,8,2147483647,2147483647,8,4,5,4,0,0,2147483647,2147483647,0,0,0,0,5,5,2147483647,2147483647,4,4,0,4,0,0,0,4,0,0,2147483647,2147483647,5,5,2147483647,2147483647,0,0,0,0,0,0,0,0,0,0,2147483647,2147483647,2147483647,2147483647],"split_type":[0,0,0,0,0,0,0,0,0,0,0,0,0,0,0,0,0,0,0,0,0,0,0,0,0,0,0,0,0,0,0,0,0,0,0,0,0,0,0,0,0,0,0,0,0,0,0,0,0,0,0,0,0],"sum_hessian":[1.2722131E2,1.0912837E2,1.8092947E1,6.2808834E1,4.6319534E1,4.196463E0,1.3896483E1,3.9278076E1,2.353076E1,4.0427486E1,5.8920474E0,3.5541603E1,3.7364724E0,1.78238E1,5.7069597E0,1.159131E1,2.8836178E1,3.5303311E0,2.3617165E0,1.9212362E1,1.632924E1,2.5903163E0,3.1166432E0,5.5619507E0,6.0293593E0,1.5665029E1,1.3171148E1,1.5030685E1,4.1816764E0,5.1712623E0,1.1157979E1,2.1245909E0,3.43736E0,3.5098057E0,2.5195537E0,9.00203E0,6.662998E0,8.130929E0,5.04022E0,8.894008E0,6.1366777E0,2.4967892E0,2.674473E0,4.9470963E0,6.2108827E0,5.005153E0,3.9968767E0,2.0760462E0,4.586952E0,3.0542006E0,5.0767283E0,2.0817592E0,2.9584606E0],"tree_param":{"num_deleted":"14","num_feature":"9","num_nodes":"53","size_leaf_vector":"0"}},{"base_weights":[3.6976668E-1,2.5224954E-1,1.0663737E0,5.222338E-1,-9.263336E-2,2.1479423E-1,1.0277665E0,-1.6981411E-1,4.0465897E-1,2.974387E-1,-9.798867E-2,9.190942E-1,1.070561E0,5.637615E-2,-5.43968E-1,-3.849944E-1,1.4360135E0,1.1833008E-1,9.50429E-1,5.995257E-1,-4.7212178E-1,7.248722E-1,1.0514926E0,5.1238567E-1,-1.2777607E-1,-1.0006899E0,-1.24858476E-1,-4.3558806E-2,3.2730293E-1,7.0681524E-1,1.1659306E0,-1.0352948E0,6.950729E-2,-4.9899283E-1,1.0078682E0,-8.2918495E-1,1.3080153E-1,-4.5890078E-1,-1.2357529E0,2.8968152E-1,-6.997051E-1,-9.9004334E-1,1.9368742E-1,1.1409243E0,7.1951025E-3,7.359207E-1,1.277707E0,-5.7079256E-1,3.3428067E-1,9.2694396E-1,-5.255447E-1],"categories":[],"categories_nodes":[],"categories_segments":[],"categories_sizes":[],"default_left":[1,1,0,1,1,1,1,1,1,1,1,1,1,1,1,0,0,1,1,0,1,1,1,1,1,1,1,1,1,1,1,0,0,0,1,0,1,1,1,1,0,0,0,0,0,1,1,0,0,0,0],"id":20,"left_children":[1,3,-1,5,7,9,-1,13,15,17,19,-1,-1,23,25,-1,-1,27,-1,-1,31,-1,-1,33,35,-1,39,41,43,-1,-1,-1,-1,-1,-1,-1,47,-1,-1,49,-1,-1,-1,-1,-1,-1,-1,-1,-1,-1,-1],"loss_changes":[9.913559E0,9.691444E0,0E0,9.049298E0,1.7633646E0,9.4438064E-1,4.131317E-3,3.3617058E0,5.086725E0,3.3610106E0,2.034369E0,1.0212517E-1,0E0,2.0911727E0,2.851451E0,0E0,0E0,7.707739E-1,2.4267435E-1,0E0,1.5504572E0,0E0,0E0,3.6388392E0,3.2325442E0,8.5329103E-1,1.9067343E0,2.9164367E0,2.587709E0,0E0,0E0,0E0,0E0,0E0,2.6110172E-1,0E0,1.8842374E0,0E0,0E0,2.4749875E0,0E0,0E0,0E0,0E0,0E0,0E0,0E0,0E0,0E0,0E0,0E0],"parents":[2147483647,0,0,1,1,3,3,4,4,5,5,6,6,7,7,8,8,9,9,10,10,11,11,13,13,14,14,17,17,18,18,20,20,23,23,24,24,25,25,26,26,27,27,28,28,34,34,36,36,39,39],"right_children":[2,4,-1,6,8,10,-1,14,16,18,20,-1,-1,24,26,-1,-1,28,-1,-1,32,-1,-1,34,36,-1,40,42,44,-1,-1,-1,-1,-1,-1,-1,48,-1,-1,50,-1,-1,-1,-1,-1,-1,-1,-1,-1,-1,-1],"split_conditions":[2.5E0,1.5E0,1.0663737E-1,5E-1,1.5E0,2.5E0,1.0277665E-1,2.5E0,2.5E0,1.5E0,5E-1,9.190942E-2,1.070561E-1,5E-1,1.5E0,-3.849944E-2,1.4360134E-1,2.5E0,9.504291E-2,5.995257E-2,2.5E0,7.248722E-2,1.0514926E-1,1.5E0,1.5E0,-1.0006899E-1,1.5E0,5E-1,5E-1,7.068153E-2,1.1659306E-1,-1.03529476E-1,6.9507295E-3,-4.9899284E-2,1.0078682E-1,-8.2918495E-2,5E-1,-4.5890078E-2,-1.2357529E-1,2.5E0,-6.997051E-2,-9.9004336E-2,1.9368744E-2,1.1409243E-1,7.1951025E-4,7.3592074E-2,1.277707E-1,-5.7079256E-2,3.342807E-2,9.2694394E-2,-5.255447E-2],"split_indices":[6,6,0,6,8,5,2,1,1,5,2,2147483647,2147483647,5,3,0,0,1,3,0,1,2147483647,2147483647,2,5,5,5,3,3,2147483647,2147483647,0,0,0,3,0,3,2147483647,2147483647,3,0,0,0,0,0,2147483647,2147483647,0,0,0,0],"split_type":[0,0,0,0,0,0,0,0,0,0,0,0,0,0,0,0,0,0,0,0,0,0,0,0,0,0,0,0,0,0,0,0,0,0,0,0,0,0,0,0,0,0,0,0,0,0,0,0,0,0,0],"sum_hessian":[1.2132756E2,1.0393073E2,1.7396832E1,5.8266567E1,4.5664165E1,3.632066E1,2.1945908E1,3.9586166E1,6.077999E0,2.8733505E1,7.587152E0,6.8355308E0,1.5110376E1,2.4724312E1,1.4861855E1,3.4778585E0,2.6001406E0,2.2641338E1,6.092169E0,2.627791E0,4.959361E0,3.0333076E0,3.8022232E0,7.0610495E0,1.7663261E1,7.045405E0,7.816449E0,1.2802525E1,9.838813E0,3.0604594E0,3.0317094E0,2.3866427E0,2.5727186E0,2.3215647E0,4.739485E0,4.698257E0,1.2965005E1,2.2211573E0,4.8242474E0,4.570282E0,3.2461672E0,2.5023181E0,1.0300206E1,2.7055838E0,7.1332293E0,2.5461574E0,2.1933274E0,2.8742168E0,1.0090788E1,2.5574327E0,2.0128493E0],"tree_param":{"num_deleted":"10","num_feature":"9","num_nodes":"51","size_leaf_vector":"0"}},{"base_weights":[3.4118196E-1,2.3946528E-1,9.950524E-1,5.303548E-1,-1.25754E-1,7.676129E-1,1.0564119E0,3.113018E-1,8.8135135E-1,1.701302E-1,-2.626303E-1,4.6817708E-1,-2.4859464E-1,7.318336E-1,1.0594354E0,-4.85538E-1,4.9318263E-1,-1.5312421E-1,-7.047457E-1,1.6242334E-1,6.107392E-1,6.477342E-2,-3.8590524E-1,1.0348368E0,6.237904E-1,2.675621E-1,8.1131E-1,-4.2031184E-1,-4.750331E-2,7.964806E-2,-1.3011767E0,-4.2406532E-1,3.4076852E-1,5.072086E-1,8.951657E-1,-8.7403053E-1,3.1453595E-2,3.756568E-1,8.4082526E-1,8.4428585E-1,-2.1198694E-1,-1.2160762E-1,-7.0108724E-1,1.1337788E-1,-4.8989213E-1,-1.6083928E-2,5.830212E-1,2.3806566E-1,6.9074696E-1,1.3265921E0,4.7100553E-1,1.1636678E-1,6.018121E-1,5.4894996E-1,1.0321169E0,-1.2718092E-1,4.9864152E-1,-6.121845E-1,-3.0701733E-1],"categories":[],"categories_nodes":[],"categories_segments":[],"categories_sizes":[],"default_left":[1,1,1,1,1,1,1,1,1,1,1,1,1,1,1,0,1,1,1,1,1,0,1,1,1,1,0,1,1,0,0,1,1,1,1,0,0,1,1,0,0,1,1,1,1,1,1,1,1,1,1,1,1,1,1,0,0,1,1],"id":21,"left_children":[1,3,-1,7,9,-1,-1,11,-1,15,17,19,21,-1,-1,-1,25,27,29,-1,-1,-1,35,-1,-1,39,-1,-1,43,-1,-1,-1,-1,-1,-1,-1,-1,-1,-1,-1,-1,-1,-1,55,-1,-1,-1,-1,-1,-1,-1,-1,-1,-1,-1,-1,-1,-1,-1],"loss_changes":[7.7884874E0,1.08196945E1,1.3914013E-1,4.3301115E0,1.8352854E0,0E0,0E0,3.090304E0,5.009041E-1,3.0653362E0,1.4874957E0,1.1850381E0,3.354004E-1,3.3263302E-1,0E0,0E0,6.722841E-1,7.0158255E-1,2.8715472E0,9.4053835E-1,5.0408745E-1,0E0,1.1016121E0,0E0,4.636085E-1,1.623675E0,0E0,5.828005E-1,1.2852843E0,0E0,0E0,0E0,5.926534E-1,6.707547E-1,8.248551E-1,0E0,0E0,2.5517476E-1,2.1269369E-1,0E0,0E0,0E0,0E0,1.2358943E0,8.886492E-2,0E0,0E0,0E0,0E0,0E0,0E0,0E0,0E0,0E0,0E0,0E0,0E0,0E0,0E0],"parents":[2147483647,0,0,1,1,2,2,3,3,4,4,7,7,8,8,9,9,10,10,11,11,12,12,13,13,16,16,17,17,18,18,19,19,20,20,22,22,24,24,25,25,27,27,28,28,32,32,33,33,34,34,37,37,38,38,43,43,44,44],"right_children":[2,4,-1,8,10,-1,-1,12,-1,16,18,20,22,-1,-1,-1,26,28,30,-1,-1,-1,36,-1,-1,40,-1,-1,44,-1,-1,-1,-1,-1,-1,-1,-1,-1,-1,-1,-1,-1,-1,56,-1,-1,-1,-1,-1,-1,-1,-1,-1,-1,-1,-1,-1,-1,-1],"split_conditions":[2.5E0,1.5E0,9.950524E-2,5E-1,5E-1,7.676129E-2,1.05641186E-1,2.5E0,8.813514E-2,1.5E0,2.5E0,5E-1,5E-1,7.318336E-2,1.0594354E-1,-4.8553802E-2,2.5E0,1.5E0,1.5E0,1.6242335E-2,6.1073918E-2,6.477342E-3,5E-1,1.0348368E-1,6.237904E-2,5E-1,8.1131004E-2,-4.2031184E-2,2.5E0,7.964807E-3,-1.3011767E-1,-4.2406533E-2,3.407685E-2,5.072086E-2,8.951657E-2,-8.740305E-2,3.1453595E-3,3.7565682E-2,8.408253E-2,8.4428586E-2,-2.1198696E-2,-1.2160762E-2,-7.010873E-2,1.5E0,-4.8989214E-2,-1.6083928E-3,5.8302123E-2,2.3806566E-2,6.90747E-2,1.3265921E-1,4.7100555E-2,1.1636678E-2,6.018121E-2,5.4894995E-2,1.0321169E-1,-1.2718092E-2,4.9864154E-2,-6.121845E-2,-3.0701732E-2],"split_indices":[6,6,0,6,0,2147483647,2147483647,0,1,3,3,0,3,2147483647,2147483647,0,5,0,0,5,3,0,5,2147483647,2147483647,5,0,1,5,0,0,2147483647,2147483647,2147483647,2147483647,0,0,2147483647,2147483647,0,0,2147483647,2147483647,5,3,2147483647,2147483647,2147483647,2147483647,2147483647,2147483647,2147483647,2147483647,2147483647,2147483647,0,0,2147483647,2147483647],"split_type":[0,0,0,0,0,0,0,0,0,0,0,0,0,0,0,0,0,0,0,0,0,0,0,0,0,0,0,0,0,0,0,0,0,0,0,0,0,0,0,0,0,0,0,0,0,0,0,0,0,0,0,0,0,0,0,0,0,0,0],"sum_hessian":[1.1736161E2,1.01680695E2,1.5680916E1,5.6574818E1,4.5105877E1,3.6186728E0,1.2062243E1,3.4950985E1,2.162383E1,1.42586975E1,3.084718E1,2.731428E1,7.636705E0,1.2032443E1,9.591388E0,4.6898556E0,9.568842E0,2.4831406E1,6.0157743E0,8.753827E0,1.8560453E1,2.3428097E0,5.2938952E0,2.937245E0,9.095199E0,5.706099E0,3.8627431E0,6.950609E0,1.7880796E1,2.6358683E0,3.3799057E0,2.0091043E0,6.744723E0,1.3811447E1,4.7490063E0,2.3896463E0,2.904249E0,4.370985E0,4.724213E0,2.5560446E0,3.1500542E0,3.4372191E0,3.5133903E0,1.316685E1,4.713947E0,2.7650306E0,3.9796922E0,5.692947E0,8.118501E0,2.2488618E0,2.5001442E0,2.1068773E0,2.264108E0,2.023579E0,2.700634E0,8.146907E0,5.019943E0,2.6842043E0,2.0297425E0],"tree_param":{"num_deleted":"26","num_feature":"9","num_nodes":"59","size_leaf_vector":"0"}},{"base_weights":[2.2716258E-1,1.1317212E-1,9.841595E-1,4.644488E-1,-3.1672513E-1,7.3508835E-1,1.0497589E0,1.5215875E-1,1.0084385E0,-1.5278296E-1,-3.982292E-1,-2.1026962E-1,3.486322E-1,8.781377E-1,1.0565093E0,6.539928E-2,-5.651714E-1,-6.765437E-1,-1.7854752E-1,-5.3044367E-1,1.5362288E-1,2.2875492E-1,7.270107E-1,7.250575E-1,1.0269929E0,-5.612233E-1,2.4759014E-1,-4.6042347E-1,-6.289209E-1,-8.756866E-1,8.7366365E-2,2.1181448E-1,-6.807933E-1,-1.0153602E0,-1.0021709E-1,7.953908E-1,-2.4105814E-1,7.737442E-1,-2.2659782E-2,8.461825E-1,5.850572E-1,6.885431E-1,-1.3079059E-1,-6.004115E-1,-1.2305495E0,7.9150254E-1,-1.8609847E-3,-3.3620638E-1,-1.174922E0,1.1791755E0,3.9207983E-1,3.7522933E-1,-1.2549958E0,-7.760258E-1,-2.9175973E-1,-5.7694644E-1,3.561609E-1],"categories":[],"categories_nodes":[],"categories_segments":[],"categories_sizes":[],"default_left":[1,1,1,1,1,1,1,1,1,1,1,1,1,1,1,1,1,1,1,1,1,1,1,1,1,0,1,1,1,1,0,1,1,0,0,0,0,1,1,1,1,0,0,1,1,0,1,0,0,1,1,0,0,1,1,0,0],"id":22,"left_children":[1,3,-1,7,9,-1,-1,11,-1,15,17,19,21,-1,-1,25,-1,29,31,33,35,37,-1,-1,-1,-1,41,-1,-1,-1,-1,45,47,-1,-1,-1,-1,-1,51,-1,-1,-1,-1,-1,-1,-1,55,-1,-1,-1,-1,-1,-1,-1,-1,-1,-1],"loss_changes":[9.7406225E0,1.4864352E1,1.6427803E-1,9.184763E0,5.8555555E-1,0E0,0E0,2.465598E0,3.0826569E-2,1.3412216E0,1.7923336E0,1.4293556E0,1.0005133E0,6.0214043E-2,0E0,1.1340216E0,5.4587126E-3,1.9827256E0,3.2747567E0,1.3482549E0,1.4849536E0,2.3550525E0,4.0985823E-2,0E0,0E0,0E0,1.2888573E0,0E0,0E0,9.329982E-1,0E0,1.168594E0,1.2028348E0,0E0,0E0,0E0,0E0,7.9319334E-1,5.8576713E0,0E0,0E0,0E0,0E0,3.0257678E-1,0E0,0E0,1.4602257E0,0E0,0E0,0E0,0E0,0E0,0E0,0E0,0E0,0E0,0E0],"parents":[2147483647,0,0,1,1,2,2,3,3,4,4,7,7,8,8,9,9,10,10,11,11,12,12,13,13,15,15,16,16,17,17,18,18,19,19,20,20,21,21,22,22,26,26,29,29,31,31,32,32,37,37,38,38,43,43,46,46],"right_children":[2,4,-1,8,10,-1,-1,12,-1,16,18,20,22,-1,-1,26,-1,30,32,34,36,38,-1,-1,-1,-1,42,-1,-1,-1,-1,46,48,-1,-1,-1,-1,-1,52,-1,-1,-1,-1,-1,-1,-1,56,-1,-1,-1,-1,-1,-1,-1,-1,-1,-1],"split_conditions":[2.5E0,1.5E0,9.8415956E-2,5E-1,5E-1,7.350884E-2,1.04975894E-1,5E-1,1.0084385E-1,1.5E0,1.5E0,1.5E0,2.5E0,8.781377E-2,1.05650924E-1,5E-1,-5.6517143E-2,2.5E0,1.5E0,1.5E0,5E-1,5E-1,7.2701074E-2,7.250575E-2,1.02699295E-1,-5.6122333E-2,1.5E0,-4.604235E-2,-6.2892094E-2,-8.756866E-2,8.7366365E-3,5E-1,1.5E0,-1.0153603E-1,-1.0021709E-2,7.953908E-2,-2.4105815E-2,7.737442E-2,2.5E0,8.4618255E-2,5.850572E-2,6.885431E-2,-1.3079059E-2,-6.004115E-2,-1.23054944E-1,7.915025E-2,5E-1,-3.3620637E-2,-1.174922E-1,1.1791755E-1,3.9207984E-2,3.7522934E-2,-1.2549959E-1,-7.760258E-2,-2.9175973E-2,-5.7694644E-2,3.5616092E-2],"split_indices":[7,7,2,7,0,2147483647,2147483647,2,2,2,2,5,3,2147483647,2147483647,5,2,3,3,3,0,5,0,2147483647,2147483647,0,5,2147483647,2147483647,2,0,5,5,0,0,0,0,3,2,2147483647,2147483647,0,0,2147483647,2147483647,0,3,0,0,2147483647,2147483647,0,0,2147483647,2147483647,0,0],"split_type":[0,0,0,0,0,0,0,0,0,0,0,0,0,0,0,0,0,0,0,0,0,0,0,0,0,0,0,0,0,0,0,0,0,0,0,0,0,0,0,0,0,0,0,0,0,0,0,0,0,0,0,0,0,0,0,0,0],"sum_hessian":[1.12910904E2,9.82336E1,1.4677307E1,5.405569E1,4.4177906E1,3.3142307E0,1.1363076E1,3.4422573E1,1.9633118E1,1.4765383E1,2.9412521E1,1.2098264E1,2.2324308E1,5.8103414E0,1.3822777E1,9.711476E0,5.0539064E0,1.2883043E1,1.6529478E1,6.4113827E0,5.6868815E0,1.7075071E1,5.249238E0,3.1539547E0,2.6563866E0,2.1407146E0,7.570761E0,2.223186E0,2.8307204E0,1.0207443E1,2.6755993E0,9.33322E0,7.19626E0,2.9501767E0,3.461206E0,2.1269097E0,3.5599718E0,5.3247986E0,1.1750272E1,2.5839126E0,2.6653256E0,3.4584372E0,4.112324E0,5.8999305E0,4.307513E0,2.44087E0,6.8923492E0,4.338672E0,2.8575876E0,2.480683E0,2.8441157E0,8.934958E0,2.8153133E0,3.6638668E0,2.2360635E0,2.6210482E0,4.271301E0],"tree_param":{"num_deleted":"16","num_feature":"9","num_nodes":"57","size_leaf_vector":"0"}},{"base_weights":[2.2968315E-1,1.3225205E-1,9.669148E-1,3.189122E-1,-8.6116284E-2,6.77818E-1,1.0428568E0,6.213703E-2,8.709119E-1,1.6055366E-2,-3.180603E-1,-5.6365117E-2,2.4245581E-1,6.39624E-1,1.0468758E0,-1.08861916E-1,3.1225795E-1,-1.2751721E-1,-1.099766E0,1.2757921E-1,-3.2137918E-1,2.1396557E-2,5.413455E-1,7.664762E-1,4.935916E-1,4.032559E-2,-2.978886E-1,5.1746553E-1,-3.593271E-1,1.5126894E-2,-2.4952093E-1,-7.571646E-1,4.90217E-1,2.9295722E-1,-9.6640104E-1,2.7689484E-1,-3.7447256E-1,3.0200756E-1,8.3164823E-1,-2.1220829E-1,5.0209624E-1,8.8447385E-2,-7.616162E-1,1.8316808E-1,8.903318E-1,8.702065E-2,-5.6375578E-2,-5.127398E-1,-1.109349E-2,8.0539256E-1,-6.592415E-2,-9.889532E-2,5.4297745E-1,-7.585027E-1,2.946945E-1,6.0812813E-1,3.7999523E-1,1.03359036E-1,7.22126E-2],"categories":[],"categories_nodes":[],"categories_segments":[],"categories_sizes":[],"default_left":[1,1,1,1,1,1,1,1,1,1,1,1,1,1,1,1,1,1,0,1,1,1,1,1,1,1,1,1,0,1,1,0,1,0,0,1,1,1,1,1,1,1,0,1,1,1,1,1,1,0,0,1,1,0,0,1,1,1,1],"id":23,"left_children":[1,3,-1,7,9,-1,-1,11,-1,15,17,19,-1,-1,-1,25,27,-1,-1,31,33,-1,-1,-1,-1,39,41,-1,-1,-1,-1,-1,49,-1,-1,-1,-1,-1,-1,53,-1,-1,-1,-1,-1,-1,-1,-1,-1,-1,-1,-1,-1,-1,-1,-1,-1,-1,-1],"loss_changes":[7.855332E0,3.9511654E0,2.096901E-1,7.400095E0,1.0603181E0,0E0,0E0,7.6564354E-1,6.078205E-1,1.1556333E0,2.023656E0,1.060184E0,9.3725806E-1,9.9636555E-2,0E0,6.209787E-1,1.2951926E0,1.937682E-1,0E0,4.163037E0,3.5568287E0,8.4668213E-1,3.9415026E-1,0E0,0E0,1.4533033E0,1.7456689E0,8.732028E-1,0E0,2.7309803E-2,3.7568578E-1,0E0,1.6147194E0,0E0,0E0,5.135962E-1,0E0,0E0,0E0,2.2564871E0,3.3900857E-2,5.5715814E-4,0E0,0E0,0E0,0E0,0E0,0E0,0E0,0E0,0E0,0E0,0E0,0E0,0E0,0E0,0E0,0E0,0E0],"parents":[2147483647,0,0,1,1,2,2,3,3,4,4,7,7,8,8,9,9,10,10,11,11,12,12,13,13,15,15,16,16,17,17,19,19,20,20,21,21,22,22,25,25,26,26,27,27,29,29,30,30,32,32,35,35,39,39,40,40,41,41],"right_children":[2,4,-1,8,10,-1,-1,12,-1,16,18,20,-1,-1,-1,26,28,-1,-1,32,34,-1,-1,-1,-1,40,42,-1,-1,-1,-1,-1,50,-1,-1,-1,-1,-1,-1,54,-1,-1,-1,-1,-1,-1,-1,-1,-1,-1,-1,-1,-1,-1,-1,-1,-1,-1,-1],"split_conditions":[2.5E0,1.5E0,9.669148E-2,5E-1,2.5E0,6.77818E-2,1.0428568E-1,1.5E0,8.709119E-2,1.5E0,2.5E0,2.5E0,2.424558E-2,6.39624E-2,1.0468759E-1,1.5E0,2.5E0,-1.2751721E-2,-1.09976605E-1,5E-1,1.5E0,2.1396556E-3,5.4134548E-2,7.6647624E-2,4.935916E-2,5E-1,2.5E0,5.1746555E-2,-3.5932712E-2,1.5126894E-3,-2.4952093E-2,-7.571646E-2,2.5E0,2.9295722E-2,-9.66401E-2,2.7689485E-2,-3.7447255E-2,3.0200755E-2,8.3164826E-2,2.5E0,5.0209623E-2,8.844739E-3,-7.6161616E-2,1.831681E-2,8.903318E-2,8.702065E-3,-5.6375577E-3,-5.127398E-2,-1.109349E-3,8.053926E-2,-6.5924153E-3,-9.889532E-3,5.4297745E-2,-7.585027E-2,2.9469451E-2,6.0812812E-2,3.7999522E-2,1.0335904E-2,7.22126E-3],"split_indices":[6,6,0,6,5,2147483647,2147483647,5,1,5,0,1,1,2147483647,2147483647,0,1,0,0,0,0,2147483647,2147483647,2147483647,2147483647,0,1,1,0,2147483647,2147483647,0,0,0,0,2147483647,2147483647,2147483647,2147483647,1,1,0,0,2147483647,2147483647,2147483647,2147483647,2147483647,2147483647,0,0,2147483647,2147483647,0,0,2147483647,2147483647,2147483647,2147483647],"split_type":[0,0,0,0,0,0,0,0,0,0,0,0,0,0,0,0,0,0,0,0,0,0,0,0,0,0,0,0,0,0,0,0,0,0,0,0,0,0,0,0,0,0,0,0,0,0,0,0,0,0,0,0,0,0,0,0,0,0,0],"sum_hessian":[1.0943916E2,9.676838E1,1.2670782E1,5.2147186E1,4.4621193E1,2.842495E0,9.828287E0,3.5667088E1,1.6480097E1,3.104077E1,1.3580422E1,2.1564222E1,1.4102865E1,7.3209276E0,9.159169E0,2.1877596E1,9.163174E0,1.10124235E1,2.5679984E0,1.2759681E1,8.804543E0,8.1685505E0,5.9343143E0,3.6903818E0,3.630546E0,1.2271276E1,9.60632E0,7.0361705E0,2.1270037E0,5.1171565E0,5.8952675E0,3.677856E0,9.081824E0,4.5374928E0,4.26705E0,4.9827094E0,3.1858413E0,3.3645055E0,2.5698087E0,7.96785E0,4.303426E0,5.284597E0,4.321723E0,3.7885907E0,3.2475798E0,2.5407746E0,2.5763817E0,2.747279E0,3.1479888E0,5.7681108E0,3.313714E0,2.0915844E0,2.8911247E0,3.8110294E0,4.156821E0,2.0902293E0,2.2131968E0,2.474822E0,2.809775E0],"tree_param":{"num_deleted":"26","num_feature":"9","num_nodes":"59","size_leaf_vector":"0"}},{"base_weights":[2.4716553E-1,1.5422489E-1,1.0398169E0,3.453332E-1,-7.609701E-2,1.3510929E-1,8.62118E-1,2.9379059E-2,-4.5672205E-1,2.695799E-2,5.547359E-1,5.849705E-1,9.59834E-1,-5.7797406E-2,2.0703328E-1,-1.1585526E0,-2.5529838E-1,-4.662352E-1,1.613879E-1,8.6782265E-1,-3.7666932E-1,7.1938354E-1,1.0409615E0,-2.9675314E-1,9.555313E-2,-2.050517E-2,1.2381494E0,-5.9500194E-1,-4.0168833E-4,-6.023812E-2,-8.26056E-1,5.7415473E-1,-8.366864E-3,7.1453685E-1,1.002324E0,-6.229303E-2,-6.850128E-1,3.0297446E-1,-3.9744094E-1,1.263042E-1,-2.4353237E-1,1.4994143E-1,8.003379E-1,3.2233335E-2,-2.4275032E-1,-4.8292813E-1,1.690407E-1,8.3691366E-2,1.0091324E0,-2.5542858E-1,5.789138E-1],"categories":[],"categories_nodes":[],"categories_segments":[],"categories_sizes":[],"default_left":[1,1,0,1,1,1,1,1,1,1,1,1,1,1,1,0,1,1,1,1,0,1,1,1,1,1,0,1,1,1,1,1,1,1,1,1,1,1,0,1,0,1,1,1,1,1,1,0,0,0,0],"id":24,"left_children":[1,3,-1,5,7,9,-1,13,15,17,19,-1,-1,23,25,-1,-1,-1,31,-1,-1,-1,-1,-1,37,39,-1,-1,-1,-1,-1,-1,-1,-1,-1,-1,-1,47,-1,49,-1,-1,-1,-1,-1,-1,-1,-1,-1,-1,-1],"loss_changes":[8.434109E0,4.5267677E0,0E0,6.093024E0,1.8758584E0,1.8166254E0,3.8338566E-1,5.688695E-1,1.4034913E0,2.1262934E0,2.4251318E0,0E0,1.5614319E-1,9.0671813E-1,2.8385086E0,0E0,6.9312406E-1,9.987267E-1,1.7652917E0,5.559826E-2,0E0,0E0,0E0,8.7567925E-1,1.5561492E0,3.3052582E-1,0E0,0E0,0E0,0E0,0E0,6.9238615E-1,1.7155235E-1,0E0,0E0,6.053284E-1,0E0,1.6461351E0,0E0,1.0681562E0,0E0,0E0,0E0,0E0,0E0,0E0,0E0,0E0,0E0,0E0,0E0],"parents":[2147483647,0,0,1,1,3,3,4,4,5,5,6,6,7,7,8,8,9,9,10,10,12,12,13,13,14,14,16,16,17,17,18,18,19,19,23,23,24,24,25,25,31,31,32,32,35,35,37,37,39,39],"right_children":[2,4,-1,6,8,10,-1,14,16,18,20,-1,-1,24,26,-1,-1,-1,32,-1,-1,-1,-1,-1,38,40,-1,-1,-1,-1,-1,-1,-1,-1,-1,-1,-1,48,-1,50,-1,-1,-1,-1,-1,-1,-1,-1,-1,-1,-1],"split_conditions":[2.5E0,1.5E0,1.0398169E-1,5E-1,2.5E0,2.5E0,8.62118E-2,1.5E0,5E-1,5E-1,2.5E0,5.849705E-2,9.59834E-2,1.5E0,1.5E0,-1.1585527E-1,-2.5529837E-2,-4.662352E-2,1.5E0,8.678227E-2,-3.766693E-2,7.193836E-2,1.0409615E-1,-2.9675314E-2,5E-1,1.5E0,1.2381494E-1,-5.9500195E-2,-4.0168834E-5,-6.023812E-3,-8.26056E-2,5.7415474E-2,-8.366864E-4,7.145368E-2,1.002324E-1,-6.2293033E-3,-6.8501286E-2,2.5E0,-3.9744094E-2,5E-1,-2.4353238E-2,1.49941435E-2,8.0033794E-2,3.2233335E-3,-2.4275033E-2,-4.8292812E-2,1.690407E-2,8.369137E-3,1.0091324E-1,-2.5542859E-2,5.789138E-2],"split_indices":[6,6,0,6,0,2,2,0,3,0,0,2147483647,2147483647,3,8,0,2,2,0,0,0,2147483647,2147483647,3,0,3,0,2147483647,2147483647,2147483647,2147483647,2,8,2147483647,2147483647,2147483647,2147483647,2,0,3,0,2147483647,2147483647,2147483647,2147483647,2147483647,2147483647,0,0,0,0],"split_type":[0,0,0,0,0,0,0,0,0,0,0,0,0,0,0,0,0,0,0,0,0,0,0,0,0,0,0,0,0,0,0,0,0,0,0,0,0,0,0,0,0,0,0,0,0,0,0,0,0,0,0],"sum_hessian":[1.1460342E2,1.02683E2,1.192042E1,5.609148E1,4.659152E1,3.9961575E1,1.6129902E1,3.6554173E1,1.0037348E1,3.1857338E1,8.1042385E0,4.3867116E0,1.1743191E1,2.4566597E1,1.1987576E1,2.1323416E0,7.905006E0,6.770622E0,2.5086716E1,6.0705E0,2.0337389E0,3.2114978E0,8.531693E0,9.566404E0,1.5000193E1,9.900765E0,2.08681E0,3.3315647E0,4.5734415E0,3.236039E0,3.534583E0,7.24119E0,1.7845526E1,3.1321552E0,2.9383447E0,6.0369115E0,3.529493E0,1.0585158E1,4.4150343E0,5.996736E0,3.9040291E0,2.5760405E0,4.6651497E0,1.5284221E1,2.5613046E0,2.1034467E0,3.9334645E0,8.162355E0,2.422803E0,3.2767105E0,2.7200255E0],"tree_param":{"num_deleted":"18","num_feature":"9","num_nodes":"51","size_leaf_vector":"0"}},{"base_weights":[2.93655E-1,2.1293359E-1,9.487442E-1,4.769288E-1,-1.3151847E-1,6.105753E-1,1.0323704E0,3.0094492E-1,9.704591E-1,3.5349566E-1,-3.1315032E-1,8.005643E-2,4.9529043E-1,7.3582315E-1,1.0392342E0,-3.0104405E-1,1.0125383E0,-5.110021E-1,-3.385112E-2,-6.36905E-1,3.050375E-1,9.3435264E-1,3.241681E-1,2.7306807E-1,-1.1734813E0,-2.4301302E-1,-6.214771E-1,-3.4158984E-1,3.2725433E-1,-4.2912483E-1,-8.060801E-1,-3.9442605E-1,5.518257E-1,5.6949335E-1,1.1269506E0,-4.9185514E-2,5.7821167E-1,7.026322E-2,-5.044049E-1,-8.8765043E-1,-3.723589E-1,-4.308646E-2,-7.54547E-1,1.0509435E0,-6.0627025E-1,1.339792E-1,7.0381707E-1,-1.0633613E-1,1.1804538E-2,4.0694955E-1,9.048198E-1,-1.2023908E0,-4.1372463E-1,1.0452196E-1,-1.1636422E0],"categories":[],"categories_nodes":[],"categories_segments":[],"categories_sizes":[],"default_left":[1,1,1,1,1,1,1,1,1,1,1,1,1,1,1,1,0,1,1,1,1,1,1,0,0,1,1,1,1,1,1,0,1,1,1,1,1,1,1,1,1,1,1,0,0,1,1,1,1,1,1,1,1,0,0],"id":25,"left_children":[1,3,-1,7,9,-1,-1,11,-1,15,17,19,21,-1,-1,23,-1,25,27,-1,31,-1,35,-1,-1,-1,39,-1,43,-1,-1,-1,-1,-1,-1,-1,-1,-1,-1,-1,53,-1,-1,-1,-1,-1,-1,-1,-1,-1,-1,-1,-1,-1,-1],"loss_changes":[5.5971317E0,8.618031E0,2.6571178E-1,4.6291714E0,3.6377902E0,0E0,0E0,1.6995218E0,1.5030766E-1,4.8892817E0,1.656347E0,3.0344799E0,1.554266E0,0E0,0E0,2.9011753E0,0E0,5.046716E-1,1.4056759E0,1.23480916E-1,2.4893556E0,3.4770823E-1,1.456723E0,0E0,0E0,4.3664584E-1,7.870097E-1,8.379309E-1,3.9988647E0,0E0,0E0,0E0,6.643028E-1,0E0,0E0,2.208118E-2,4.738462E-1,0E0,0E0,8.3132553E-1,2.487794E0,0E0,0E0,0E0,0E0,0E0,0E0,0E0,0E0,0E0,0E0,0E0,0E0,0E0,0E0],"parents":[2147483647,0,0,1,1,2,2,3,3,4,4,7,7,8,8,9,9,10,10,11,11,12,12,15,15,17,17,18,18,19,19,20,20,21,21,22,22,25,25,26,26,27,27,28,28,32,32,35,35,36,36,39,39,40,40],"right_children":[2,4,-1,8,10,-1,-1,12,-1,16,18,20,22,-1,-1,24,-1,26,28,-1,32,-1,36,-1,-1,-1,40,-1,44,-1,-1,-1,-1,-1,-1,-1,-1,-1,-1,-1,54,-1,-1,-1,-1,-1,-1,-1,-1,-1,-1,-1,-1,-1,-1],"split_conditions":[2.5E0,1.5E0,9.487442E-2,5E-1,5E-1,6.1057534E-2,1.0323705E-1,2.5E0,9.704591E-2,1.5E0,1.5E0,5E-1,5E-1,7.3582314E-2,1.0392342E-1,5E-1,1.0125383E-1,5E-1,2.5E0,-6.3690506E-2,5E-1,9.3435265E-2,1.5E0,2.7306808E-2,-1.17348135E-1,-2.4301304E-2,5E-1,-3.4158986E-2,1.5E0,-4.2912483E-2,-8.060801E-2,-3.9442606E-2,5.5182572E-2,5.6949336E-2,1.1269506E-1,-4.9185515E-3,5.7821166E-2,7.026322E-3,-5.044049E-2,-8.876505E-2,2.5E0,-4.308646E-3,-7.5454704E-2,1.0509435E-1,-6.0627025E-2,1.339792E-2,7.038171E-2,-1.0633613E-2,1.1804538E-3,4.0694956E-2,9.048198E-2,-1.2023908E-1,-4.1372463E-2,1.0452196E-2,-1.1636422E-1],"split_indices":[6,6,2,6,5,2147483647,2147483647,1,5,2,4,4,5,2147483647,2147483647,2,0,2,1,5,5,2,5,0,0,5,4,2,5,2147483647,2147483647,0,2,2147483647,2147483647,2,4,2147483647,2147483647,5,5,2147483647,2147483647,0,0,2147483647,2147483647,2147483647,2147483647,2147483647,2147483647,2147483647,2147483647,0,0],"split_type":[0,0,0,0,0,0,0,0,0,0,0,0,0,0,0,0,0,0,0,0,0,0,0,0,0,0,0,0,0,0,0,0,0,0,0,0,0,0,0,0,0,0,0,0,0,0,0,0,0,0,0,0,0,0,0],"sum_hessian":[1.06128456E2,9.460371E1,1.1524756E1,5.3534946E1,4.1068756E1,2.4495127E0,9.075244E0,3.9581787E1,1.3953161E1,1.1163658E1,2.9905098E1,1.8591883E1,2.0989902E1,3.4279857E0,1.0525176E1,5.628217E0,5.5354404E0,1.7456318E1,1.2448779E1,4.396902E0,1.4194981E1,5.761402E0,1.5228501E1,3.435903E0,